== Model info

Model                          
meka.classifiers.multitarget.meta.BaggingMT: Model #1

meka.classifiers.multitarget.CC: Node #1

J48 pruned tree
------------------

relaxing-clam- = 0
|   sad-lonely- = 0
|   |   Mean_Acc1298_Std_Mem40_MFCC_7 <= 0.467768
|   |   |   Std_Acc1298_Std_Mem40_MFCC_2 <= 0.062609: 0 (9.0/1.0)
|   |   |   Std_Acc1298_Std_Mem40_MFCC_2 > 0.062609
|   |   |   |   Std_Acc1298_Std_Mem40_MFCC_9 <= 0.085235: 1 (37.0/1.0)
|   |   |   |   Std_Acc1298_Std_Mem40_MFCC_9 > 0.085235
|   |   |   |   |   BH_LowPeakBPM <= 0.126984: 1 (16.0)
|   |   |   |   |   BH_LowPeakBPM > 0.126984
|   |   |   |   |   |   Mean_Acc1298_Std_Mem40_MFCC_3 <= 0.46524
|   |   |   |   |   |   |   Std_Acc1298_Mean_Mem40_Centroid <= 0.173605
|   |   |   |   |   |   |   |   Std_Acc1298_Std_Mem40_MFCC_3 <= 0.307977
|   |   |   |   |   |   |   |   |   Mean_Acc1298_Mean_Mem40_Flux <= 0.254326
|   |   |   |   |   |   |   |   |   |   Std_Acc1298_Std_Mem40_MFCC_11 <= 0.139798
|   |   |   |   |   |   |   |   |   |   |   Mean_Acc1298_Std_Mem40_MFCC_10 <= 0.43009
|   |   |   |   |   |   |   |   |   |   |   |   Std_Acc1298_Mean_Mem40_Flux <= 0.171128: 1 (31.0)
|   |   |   |   |   |   |   |   |   |   |   |   Std_Acc1298_Mean_Mem40_Flux > 0.171128
|   |   |   |   |   |   |   |   |   |   |   |   |   Mean_Acc1298_Mean_Mem40_MFCC_6 <= 0.505425: 1 (5.0)
|   |   |   |   |   |   |   |   |   |   |   |   |   Mean_Acc1298_Mean_Mem40_MFCC_6 > 0.505425: 0 (5.0/1.0)
|   |   |   |   |   |   |   |   |   |   |   Mean_Acc1298_Std_Mem40_MFCC_10 > 0.43009: 0 (3.0)
|   |   |   |   |   |   |   |   |   |   Std_Acc1298_Std_Mem40_MFCC_11 > 0.139798
|   |   |   |   |   |   |   |   |   |   |   Std_Acc1298_Std_Mem40_MFCC_3 <= 0.134218: 1 (3.0)
|   |   |   |   |   |   |   |   |   |   |   Std_Acc1298_Std_Mem40_MFCC_3 > 0.134218: 0 (12.0)
|   |   |   |   |   |   |   |   |   Mean_Acc1298_Mean_Mem40_Flux > 0.254326: 0 (7.0)
|   |   |   |   |   |   |   |   Std_Acc1298_Std_Mem40_MFCC_3 > 0.307977: 0 (10.0)
|   |   |   |   |   |   |   Std_Acc1298_Mean_Mem40_Centroid > 0.173605: 1 (30.0)
|   |   |   |   |   |   Mean_Acc1298_Std_Mem40_MFCC_3 > 0.46524: 0 (10.0)
|   |   Mean_Acc1298_Std_Mem40_MFCC_7 > 0.467768
|   |   |   Mean_Acc1298_Mean_Mem40_Rolloff <= 0.550262
|   |   |   |   Std_Acc1298_Std_Mem40_MFCC_2 <= 0.461884: 0 (34.0)
|   |   |   |   Std_Acc1298_Std_Mem40_MFCC_2 > 0.461884
|   |   |   |   |   Mean_Acc1298_Mean_Mem40_MFCC_12 <= 0.40629: 0 (5.0)
|   |   |   |   |   Mean_Acc1298_Mean_Mem40_MFCC_12 > 0.40629: 1 (6.0/1.0)
|   |   |   Mean_Acc1298_Mean_Mem40_Rolloff > 0.550262: 1 (3.0)
|   sad-lonely- = 1
|   |   Mean_Acc1298_Mean_Mem40_MFCC_2 <= 0.285892: 1 (5.0)
|   |   Mean_Acc1298_Mean_Mem40_MFCC_2 > 0.285892
|   |   |   Mean_Acc1298_Std_Mem40_MFCC_0 <= 0.038976: 1 (3.0/1.0)
|   |   |   Mean_Acc1298_Std_Mem40_MFCC_0 > 0.038976: 0 (45.0)
relaxing-clam- = 1
|   Std_Acc1298_Std_Mem40_Rolloff <= 0.209473
|   |   BH_HighPeakAmp <= 0.038984: 0 (14.0)
|   |   BH_HighPeakAmp > 0.038984
|   |   |   sad-lonely- = 0: 1 (6.0)
|   |   |   sad-lonely- = 1: 0 (2.0)
|   Std_Acc1298_Std_Mem40_Rolloff > 0.209473
|   |   Mean_Acc1298_Mean_Mem40_MFCC_4 <= 0.336869
|   |   |   Std_Acc1298_Mean_Mem40_MFCC_3 <= 0.338679: 1 (3.0)
|   |   |   Std_Acc1298_Mean_Mem40_MFCC_3 > 0.338679: 0 (7.0)
|   |   Mean_Acc1298_Mean_Mem40_MFCC_4 > 0.336869: 0 (180.0/1.0)

Number of Leaves  : 	26

Size of the tree : 	51


meka.classifiers.multitarget.CC: Node #2

J48 pruned tree
------------------

sad-lonely- = 0
|   Std_Acc1298_Mean_Mem40_Centroid <= 0.25266
|   |   Std_Acc1298_Mean_Mem40_MFCC_10 <= 0.075313
|   |   |   Std_Acc1298_Mean_Mem40_Flux <= 0.185687: 0 (47.0)
|   |   |   Std_Acc1298_Mean_Mem40_Flux > 0.185687: 1 (3.0)
|   |   Std_Acc1298_Mean_Mem40_MFCC_10 > 0.075313
|   |   |   Mean_Acc1298_Std_Mem40_MFCC_9 <= 0.231562
|   |   |   |   Mean_Acc1298_Mean_Mem40_MFCC_9 <= 0.363976: 1 (2.0)
|   |   |   |   Mean_Acc1298_Mean_Mem40_MFCC_9 > 0.363976: 0 (28.0/1.0)
|   |   |   Mean_Acc1298_Std_Mem40_MFCC_9 > 0.231562
|   |   |   |   Std_Acc1298_Mean_Mem40_Centroid <= 0.037281: 1 (15.0)
|   |   |   |   Std_Acc1298_Mean_Mem40_Centroid > 0.037281
|   |   |   |   |   Mean_Acc1298_Mean_Mem40_MFCC_2 <= 0.58792
|   |   |   |   |   |   Mean_Acc1298_Std_Mem40_MFCC_0 <= 0.062231: 0 (15.0/1.0)
|   |   |   |   |   |   Mean_Acc1298_Std_Mem40_MFCC_0 > 0.062231
|   |   |   |   |   |   |   Mean_Acc1298_Std_Mem40_MFCC_5 <= 0.332912
|   |   |   |   |   |   |   |   Std_Acc1298_Mean_Mem40_Centroid <= 0.053199: 0 (5.0)
|   |   |   |   |   |   |   |   Std_Acc1298_Mean_Mem40_Centroid > 0.053199
|   |   |   |   |   |   |   |   |   Std_Acc1298_Std_Mem40_MFCC_3 <= 0.07409: 0 (5.0)
|   |   |   |   |   |   |   |   |   Std_Acc1298_Std_Mem40_MFCC_3 > 0.07409
|   |   |   |   |   |   |   |   |   |   Mean_Acc1298_Std_Mem40_MFCC_8 <= 0.191358
|   |   |   |   |   |   |   |   |   |   |   Mean_Acc1298_Std_Mem40_MFCC_8 <= 0.186189
|   |   |   |   |   |   |   |   |   |   |   |   Mean_Acc1298_Mean_Mem40_Flux <= 0.066702: 0 (2.0)
|   |   |   |   |   |   |   |   |   |   |   |   Mean_Acc1298_Mean_Mem40_Flux > 0.066702
|   |   |   |   |   |   |   |   |   |   |   |   |   Mean_Acc1298_Std_Mem40_MFCC_3 <= 0.298876: 1 (20.0)
|   |   |   |   |   |   |   |   |   |   |   |   |   Mean_Acc1298_Std_Mem40_MFCC_3 > 0.298876: 0 (3.0/1.0)
|   |   |   |   |   |   |   |   |   |   |   Mean_Acc1298_Std_Mem40_MFCC_8 > 0.186189: 0 (3.0)
|   |   |   |   |   |   |   |   |   |   Mean_Acc1298_Std_Mem40_MFCC_8 > 0.191358: 1 (53.0)
|   |   |   |   |   |   |   Mean_Acc1298_Std_Mem40_MFCC_5 > 0.332912
|   |   |   |   |   |   |   |   Std_Acc1298_Std_Mem40_MFCC_8 <= 0.17008: 0 (17.0)
|   |   |   |   |   |   |   |   Std_Acc1298_Std_Mem40_MFCC_8 > 0.17008
|   |   |   |   |   |   |   |   |   Std_Acc1298_Std_Mem40_MFCC_6 <= 0.378935: 1 (10.0)
|   |   |   |   |   |   |   |   |   Std_Acc1298_Std_Mem40_MFCC_6 > 0.378935
|   |   |   |   |   |   |   |   |   |   Mean_Acc1298_Mean_Mem40_MFCC_9 <= 0.825112
|   |   |   |   |   |   |   |   |   |   |   BHSUM1 <= 0.020902: 1 (5.0)
|   |   |   |   |   |   |   |   |   |   |   BHSUM1 > 0.020902
|   |   |   |   |   |   |   |   |   |   |   |   Mean_Acc1298_Mean_Mem40_Flux <= 0.2296
|   |   |   |   |   |   |   |   |   |   |   |   |   Mean_Acc1298_Std_Mem40_MFCC_1 <= 0.184712
|   |   |   |   |   |   |   |   |   |   |   |   |   |   Mean_Acc1298_Mean_Mem40_Rolloff <= 0.130768: 0 (4.0)
|   |   |   |   |   |   |   |   |   |   |   |   |   |   Mean_Acc1298_Mean_Mem40_Rolloff > 0.130768: 1 (2.0)
|   |   |   |   |   |   |   |   |   |   |   |   |   Mean_Acc1298_Std_Mem40_MFCC_1 > 0.184712: 0 (25.0)
|   |   |   |   |   |   |   |   |   |   |   |   Mean_Acc1298_Mean_Mem40_Flux > 0.2296
|   |   |   |   |   |   |   |   |   |   |   |   |   Mean_Acc1298_Mean_Mem40_MFCC_6 <= 0.638742: 1 (11.0)
|   |   |   |   |   |   |   |   |   |   |   |   |   Mean_Acc1298_Mean_Mem40_MFCC_6 > 0.638742: 0 (7.0)
|   |   |   |   |   |   |   |   |   |   Mean_Acc1298_Mean_Mem40_MFCC_9 > 0.825112: 1 (6.0)
|   |   |   |   |   Mean_Acc1298_Mean_Mem40_MFCC_2 > 0.58792
|   |   |   |   |   |   Std_Acc1298_Mean_Mem40_MFCC_5 <= 0.156986: 1 (2.0)
|   |   |   |   |   |   Std_Acc1298_Mean_Mem40_MFCC_5 > 0.156986
|   |   |   |   |   |   |   BH_LowPeakBPM <= 0.15873
|   |   |   |   |   |   |   |   Mean_Acc1298_Mean_Mem40_MFCC_5 <= 0.512752: 1 (2.0)
|   |   |   |   |   |   |   |   Mean_Acc1298_Mean_Mem40_MFCC_5 > 0.512752: 0 (3.0)
|   |   |   |   |   |   |   BH_LowPeakBPM > 0.15873: 0 (23.0)
|   Std_Acc1298_Mean_Mem40_Centroid > 0.25266: 0 (33.0)
sad-lonely- = 1: 0 (140.0)

Number of Leaves  : 	28

Size of the tree : 	55


meka.classifiers.multitarget.CC: Node #3

J48 pruned tree
------------------

Std_Acc1298_Mean_Mem40_MFCC_7 <= 0.109627
|   Mean_Acc1298_Mean_Mem40_Rolloff <= 0.122423
|   |   Mean_Acc1298_Mean_Mem40_MFCC_0 <= 0.627866: 0 (4.0)
|   |   Mean_Acc1298_Mean_Mem40_MFCC_0 > 0.627866: 1 (3.0)
|   Mean_Acc1298_Mean_Mem40_Rolloff > 0.122423: 0 (116.0)
Std_Acc1298_Mean_Mem40_MFCC_7 > 0.109627
|   Std_Acc1298_Std_Mem40_MFCC_11 <= 0.081579: 0 (32.0/1.0)
|   Std_Acc1298_Std_Mem40_MFCC_11 > 0.081579
|   |   Mean_Acc1298_Mean_Mem40_MFCC_0 <= 0.781942
|   |   |   Std_Acc1298_Mean_Mem40_MFCC_9 <= 0.110312
|   |   |   |   Mean_Acc1298_Std_Mem40_MFCC_5 <= 0.140396: 1 (2.0)
|   |   |   |   Mean_Acc1298_Std_Mem40_MFCC_5 > 0.140396: 0 (19.0)
|   |   |   Std_Acc1298_Mean_Mem40_MFCC_9 > 0.110312
|   |   |   |   Mean_Acc1298_Mean_Mem40_MFCC_1 <= 0.234127
|   |   |   |   |   Std_Acc1298_Mean_Mem40_MFCC_12 <= 0.293291: 0 (13.0)
|   |   |   |   |   Std_Acc1298_Mean_Mem40_MFCC_12 > 0.293291: 1 (2.0)
|   |   |   |   Mean_Acc1298_Mean_Mem40_MFCC_1 > 0.234127
|   |   |   |   |   Mean_Acc1298_Mean_Mem40_MFCC_9 <= 0.851509
|   |   |   |   |   |   BHSUM2 <= 0.268022
|   |   |   |   |   |   |   Std_Acc1298_Mean_Mem40_MFCC_4 <= 0.605375
|   |   |   |   |   |   |   |   Mean_Acc1298_Std_Mem40_MFCC_4 <= 0.564565
|   |   |   |   |   |   |   |   |   Mean_Acc1298_Mean_Mem40_MFCC_11 <= 0.218647
|   |   |   |   |   |   |   |   |   |   Mean_Acc1298_Std_Mem40_MFCC_7 <= 0.386964: 1 (7.0/1.0)
|   |   |   |   |   |   |   |   |   |   Mean_Acc1298_Std_Mem40_MFCC_7 > 0.386964: 0 (5.0)
|   |   |   |   |   |   |   |   |   Mean_Acc1298_Mean_Mem40_MFCC_11 > 0.218647
|   |   |   |   |   |   |   |   |   |   Mean_Acc1298_Mean_Mem40_MFCC_2 <= 0.70408: 1 (152.0/3.0)
|   |   |   |   |   |   |   |   |   |   Mean_Acc1298_Mean_Mem40_MFCC_2 > 0.70408
|   |   |   |   |   |   |   |   |   |   |   BH_HighPeakBPM <= 0.421053: 1 (7.0)
|   |   |   |   |   |   |   |   |   |   |   BH_HighPeakBPM > 0.421053: 0 (4.0)
|   |   |   |   |   |   |   |   Mean_Acc1298_Std_Mem40_MFCC_4 > 0.564565
|   |   |   |   |   |   |   |   |   Mean_Acc1298_Mean_Mem40_Flux <= 0.241799: 1 (6.0)
|   |   |   |   |   |   |   |   |   Mean_Acc1298_Mean_Mem40_Flux > 0.241799: 0 (6.0)
|   |   |   |   |   |   |   Std_Acc1298_Mean_Mem40_MFCC_4 > 0.605375
|   |   |   |   |   |   |   |   Mean_Acc1298_Mean_Mem40_MFCC_0 <= 0.517785
|   |   |   |   |   |   |   |   |   Mean_Acc1298_Std_Mem40_MFCC_4 <= 0.194512: 0 (3.0)
|   |   |   |   |   |   |   |   |   Mean_Acc1298_Std_Mem40_MFCC_4 > 0.194512: 1 (12.0)
|   |   |   |   |   |   |   |   Mean_Acc1298_Mean_Mem40_MFCC_0 > 0.517785: 0 (8.0)
|   |   |   |   |   |   BHSUM2 > 0.268022
|   |   |   |   |   |   |   Std_Acc1298_Std_Mem40_MFCC_8 <= 0.265536
|   |   |   |   |   |   |   |   Std_Acc1298_Mean_Mem40_Flux <= 0.167958: 0 (16.0/1.0)
|   |   |   |   |   |   |   |   Std_Acc1298_Mean_Mem40_Flux > 0.167958: 1 (4.0)
|   |   |   |   |   |   |   Std_Acc1298_Std_Mem40_MFCC_8 > 0.265536: 1 (8.0)
|   |   |   |   |   Mean_Acc1298_Mean_Mem40_MFCC_9 > 0.851509
|   |   |   |   |   |   Mean_Acc1298_Mean_Mem40_MFCC_2 <= 0.477852: 1 (6.0)
|   |   |   |   |   |   Mean_Acc1298_Mean_Mem40_MFCC_2 > 0.477852
|   |   |   |   |   |   |   BH_LowPeakAmp <= 0.014247: 1 (2.0)
|   |   |   |   |   |   |   BH_LowPeakAmp > 0.014247: 0 (15.0/1.0)
|   |   Mean_Acc1298_Mean_Mem40_MFCC_0 > 0.781942
|   |   |   Std_Acc1298_Std_Mem40_Rolloff <= 0.30849: 0 (37.0)
|   |   |   Std_Acc1298_Std_Mem40_Rolloff > 0.30849: 1 (2.0)

Number of Leaves  : 	26

Size of the tree : 	51


meka.classifiers.multitarget.CC: Node #4

J48 pruned tree
------------------

Mean_Acc1298_Mean_Mem40_Rolloff <= 0.155448
|   amazed-suprised- = 0
|   |   happy-pleased- = 0
|   |   |   Mean_Acc1298_Std_Mem40_Rolloff <= 0.170668
|   |   |   |   Std_Acc1298_Std_Mem40_Centroid <= 0.302253
|   |   |   |   |   sad-lonely- = 0: 0 (6.0/1.0)
|   |   |   |   |   sad-lonely- = 1: 1 (2.0)
|   |   |   |   Std_Acc1298_Std_Mem40_Centroid > 0.302253: 1 (100.0/2.0)
|   |   |   Mean_Acc1298_Std_Mem40_Rolloff > 0.170668
|   |   |   |   Std_Acc1298_Std_Mem40_Rolloff <= 0.465933: 0 (24.0/2.0)
|   |   |   |   Std_Acc1298_Std_Mem40_Rolloff > 0.465933: 1 (7.0)
|   |   happy-pleased- = 1
|   |   |   Std_Acc1298_Mean_Mem40_MFCC_4 <= 0.36763: 0 (22.0)
|   |   |   Std_Acc1298_Mean_Mem40_MFCC_4 > 0.36763: 1 (4.0)
|   amazed-suprised- = 1: 0 (14.0)
Mean_Acc1298_Mean_Mem40_Rolloff > 0.155448
|   Std_Acc1298_Std_Mem40_MFCC_1 <= 0.486461
|   |   Mean_Acc1298_Mean_Mem40_MFCC_6 <= 0.672727: 0 (259.0)
|   |   Mean_Acc1298_Mean_Mem40_MFCC_6 > 0.672727
|   |   |   Mean_Acc1298_Mean_Mem40_Centroid <= 0.164488: 1 (2.0)
|   |   |   Mean_Acc1298_Mean_Mem40_Centroid > 0.164488
|   |   |   |   Mean_Acc1298_Mean_Mem40_MFCC_6 <= 0.674618: 1 (2.0)
|   |   |   |   Mean_Acc1298_Mean_Mem40_MFCC_6 > 0.674618: 0 (29.0)
|   Std_Acc1298_Std_Mem40_MFCC_1 > 0.486461
|   |   Mean_Acc1298_Mean_Mem40_MFCC_9 <= 0.722982: 0 (14.0/1.0)
|   |   Mean_Acc1298_Mean_Mem40_MFCC_9 > 0.722982: 1 (6.0)

Number of Leaves  : 	14

Size of the tree : 	27


meka.classifiers.multitarget.CC: Node #5

J48 pruned tree
------------------

Mean_Acc1298_Mean_Mem40_Rolloff <= 0.097773
|   Std_Acc1298_Std_Mem40_MFCC_12 <= 0.094467: 0 (11.0)
|   Std_Acc1298_Std_Mem40_MFCC_12 > 0.094467
|   |   Std_Acc1298_Std_Mem40_Centroid <= 0.374341
|   |   |   Mean_Acc1298_Std_Mem40_Flux <= 0.152256
|   |   |   |   Mean_Acc1298_Std_Mem40_MFCC_11 <= 0.451149
|   |   |   |   |   Mean_Acc1298_Std_Mem40_MFCC_1 <= 0.09124: 0 (3.0)
|   |   |   |   |   Mean_Acc1298_Std_Mem40_MFCC_1 > 0.09124
|   |   |   |   |   |   BHSUM3 <= 0.076709
|   |   |   |   |   |   |   Mean_Acc1298_Mean_Mem40_MFCC_3 <= 0.546357: 1 (4.0)
|   |   |   |   |   |   |   Mean_Acc1298_Mean_Mem40_MFCC_3 > 0.546357: 0 (2.0)
|   |   |   |   |   |   BHSUM3 > 0.076709: 1 (34.0)
|   |   |   |   Mean_Acc1298_Std_Mem40_MFCC_11 > 0.451149
|   |   |   |   |   Std_Acc1298_Std_Mem40_MFCC_5 <= 0.319273: 1 (7.0)
|   |   |   |   |   Std_Acc1298_Std_Mem40_MFCC_5 > 0.319273
|   |   |   |   |   |   Mean_Acc1298_Mean_Mem40_MFCC_10 <= 0.496532: 0 (15.0)
|   |   |   |   |   |   Mean_Acc1298_Mean_Mem40_MFCC_10 > 0.496532: 1 (2.0)
|   |   |   Mean_Acc1298_Std_Mem40_Flux > 0.152256: 0 (6.0)
|   |   Std_Acc1298_Std_Mem40_Centroid > 0.374341: 1 (33.0)
Mean_Acc1298_Mean_Mem40_Rolloff > 0.097773
|   Mean_Acc1298_Mean_Mem40_MFCC_1 <= 0.278622
|   |   Std_Acc1298_Mean_Mem40_Centroid <= 0.038966
|   |   |   BH_LowPeakBPM <= 0.142857: 1 (2.0)
|   |   |   BH_LowPeakBPM > 0.142857: 0 (5.0)
|   |   Std_Acc1298_Mean_Mem40_Centroid > 0.038966: 0 (127.0)
|   Mean_Acc1298_Mean_Mem40_MFCC_1 > 0.278622
|   |   BHSUM3 <= 0.057093
|   |   |   Mean_Acc1298_Std_Mem40_MFCC_1 <= 0.27632: 1 (10.0)
|   |   |   Mean_Acc1298_Std_Mem40_MFCC_1 > 0.27632: 0 (3.0)
|   |   BHSUM3 > 0.057093
|   |   |   Std_Acc1298_Std_Mem40_MFCC_3 <= 0.201931
|   |   |   |   Mean_Acc1298_Mean_Mem40_MFCC_0 <= 0.852536: 0 (65.0)
|   |   |   |   Mean_Acc1298_Mean_Mem40_MFCC_0 > 0.852536
|   |   |   |   |   Mean_Acc1298_Mean_Mem40_Centroid <= 0.423468: 1 (2.0)
|   |   |   |   |   Mean_Acc1298_Mean_Mem40_Centroid > 0.423468: 0 (2.0)
|   |   |   Std_Acc1298_Std_Mem40_MFCC_3 > 0.201931
|   |   |   |   Std_Acc1298_Mean_Mem40_MFCC_1 <= 0.137961: 0 (34.0)
|   |   |   |   Std_Acc1298_Mean_Mem40_MFCC_1 > 0.137961
|   |   |   |   |   BH_LowPeakBPM <= 0.174603: 0 (15.0)
|   |   |   |   |   BH_LowPeakBPM > 0.174603
|   |   |   |   |   |   Std_Acc1298_Std_Mem40_MFCC_0 <= 0.408677
|   |   |   |   |   |   |   Std_Acc1298_Std_Mem40_MFCC_12 <= 0.157023: 1 (24.0/1.0)
|   |   |   |   |   |   |   Std_Acc1298_Std_Mem40_MFCC_12 > 0.157023: 0 (5.0)
|   |   |   |   |   |   Std_Acc1298_Std_Mem40_MFCC_0 > 0.408677
|   |   |   |   |   |   |   Mean_Acc1298_Std_Mem40_MFCC_3 <= 0.127159: 1 (5.0)
|   |   |   |   |   |   |   Mean_Acc1298_Std_Mem40_MFCC_3 > 0.127159
|   |   |   |   |   |   |   |   Std_Acc1298_Std_Mem40_MFCC_0 <= 0.44194: 0 (19.0)
|   |   |   |   |   |   |   |   Std_Acc1298_Std_Mem40_MFCC_0 > 0.44194
|   |   |   |   |   |   |   |   |   Std_Acc1298_Mean_Mem40_MFCC_0 <= 0.315692
|   |   |   |   |   |   |   |   |   |   Mean_Acc1298_Mean_Mem40_MFCC_2 <= 0.337936: 1 (8.0)
|   |   |   |   |   |   |   |   |   |   Mean_Acc1298_Mean_Mem40_MFCC_2 > 0.337936
|   |   |   |   |   |   |   |   |   |   |   Mean_Acc1298_Mean_Mem40_MFCC_7 <= 0.409839: 1 (4.0)
|   |   |   |   |   |   |   |   |   |   |   Mean_Acc1298_Mean_Mem40_MFCC_7 > 0.409839
|   |   |   |   |   |   |   |   |   |   |   |   Mean_Acc1298_Std_Mem40_MFCC_10 <= 0.512611
|   |   |   |   |   |   |   |   |   |   |   |   |   Std_Acc1298_Std_Mem40_MFCC_1 <= 0.275672
|   |   |   |   |   |   |   |   |   |   |   |   |   |   Mean_Acc1298_Mean_Mem40_Centroid <= 0.333808: 1 (3.0)
|   |   |   |   |   |   |   |   |   |   |   |   |   |   Mean_Acc1298_Mean_Mem40_Centroid > 0.333808: 0 (2.0)
|   |   |   |   |   |   |   |   |   |   |   |   |   Std_Acc1298_Std_Mem40_MFCC_1 > 0.275672: 0 (18.0)
|   |   |   |   |   |   |   |   |   |   |   |   Mean_Acc1298_Std_Mem40_MFCC_10 > 0.512611: 1 (3.0)
|   |   |   |   |   |   |   |   |   Std_Acc1298_Mean_Mem40_MFCC_0 > 0.315692: 0 (18.0)

Number of Leaves  : 	31

Size of the tree : 	61


meka.classifiers.multitarget.CC: Node #6

J48 pruned tree
------------------

relaxing-clam- = 0
|   Mean_Acc1298_Std_Mem40_MFCC_4 <= 0.475018
|   |   happy-pleased- = 0
|   |   |   Std_Acc1298_Std_Mem40_MFCC_7 <= 0.362829
|   |   |   |   sad-lonely- = 0
|   |   |   |   |   Mean_Acc1298_Mean_Mem40_MFCC_3 <= 0.179201: 0 (7.0)
|   |   |   |   |   Mean_Acc1298_Mean_Mem40_MFCC_3 > 0.179201
|   |   |   |   |   |   Mean_Acc1298_Mean_Mem40_MFCC_8 <= 0.276679
|   |   |   |   |   |   |   Mean_Acc1298_Mean_Mem40_MFCC_4 <= 0.502735: 1 (2.0)
|   |   |   |   |   |   |   Mean_Acc1298_Mean_Mem40_MFCC_4 > 0.502735: 0 (9.0)
|   |   |   |   |   |   Mean_Acc1298_Mean_Mem40_MFCC_8 > 0.276679
|   |   |   |   |   |   |   Mean_Acc1298_Mean_Mem40_Centroid <= 0.541782
|   |   |   |   |   |   |   |   Mean_Acc1298_Std_Mem40_Centroid <= 0.087013: 0 (5.0/1.0)
|   |   |   |   |   |   |   |   Mean_Acc1298_Std_Mem40_Centroid > 0.087013: 1 (77.0)
|   |   |   |   |   |   |   Mean_Acc1298_Mean_Mem40_Centroid > 0.541782
|   |   |   |   |   |   |   |   Mean_Acc1298_Mean_Mem40_MFCC_4 <= 0.573498: 1 (8.0)
|   |   |   |   |   |   |   |   Mean_Acc1298_Mean_Mem40_MFCC_4 > 0.573498
|   |   |   |   |   |   |   |   |   Mean_Acc1298_Mean_Mem40_MFCC_0 <= 0.60191: 1 (4.0)
|   |   |   |   |   |   |   |   |   Mean_Acc1298_Mean_Mem40_MFCC_0 > 0.60191: 0 (12.0)
|   |   |   |   sad-lonely- = 1
|   |   |   |   |   Mean_Acc1298_Mean_Mem40_MFCC_9 <= 0.727606
|   |   |   |   |   |   Mean_Acc1298_Std_Mem40_MFCC_11 <= 0.225772: 1 (3.0)
|   |   |   |   |   |   Mean_Acc1298_Std_Mem40_MFCC_11 > 0.225772: 0 (19.0)
|   |   |   |   |   Mean_Acc1298_Mean_Mem40_MFCC_9 > 0.727606: 1 (8.0/1.0)
|   |   |   Std_Acc1298_Std_Mem40_MFCC_7 > 0.362829: 0 (27.0/1.0)
|   |   happy-pleased- = 1
|   |   |   BHSUM3 <= 0.126293: 1 (4.0/1.0)
|   |   |   BHSUM3 > 0.126293
|   |   |   |   Mean_Acc1298_Mean_Mem40_MFCC_5 <= 0.125611: 1 (3.0)
|   |   |   |   Mean_Acc1298_Mean_Mem40_MFCC_5 > 0.125611
|   |   |   |   |   Std_Acc1298_Mean_Mem40_MFCC_7 <= 0.085729
|   |   |   |   |   |   Std_Acc1298_Mean_Mem40_MFCC_3 <= 0.242453: 0 (7.0)
|   |   |   |   |   |   Std_Acc1298_Mean_Mem40_MFCC_3 > 0.242453: 1 (2.0)
|   |   |   |   |   Std_Acc1298_Mean_Mem40_MFCC_7 > 0.085729: 0 (47.0)
|   Mean_Acc1298_Std_Mem40_MFCC_4 > 0.475018: 1 (35.0)
relaxing-clam- = 1
|   Std_Acc1298_Std_Mem40_MFCC_12 <= 0.085854
|   |   Std_Acc1298_Mean_Mem40_MFCC_10 <= 0.156952: 1 (4.0)
|   |   Std_Acc1298_Mean_Mem40_MFCC_10 > 0.156952: 0 (7.0)
|   Std_Acc1298_Std_Mem40_MFCC_12 > 0.085854: 0 (201.0/1.0)

Number of Leaves  : 	21

Size of the tree : 	41


meka.classifiers.multitarget.meta.BaggingMT: Model #2

meka.classifiers.multitarget.CC: Node #1

J48 pruned tree
------------------

Std_Acc1298_Std_Mem40_MFCC_9 <= 0.166935
|   Std_Acc1298_Mean_Mem40_MFCC_9 <= 0.186135
|   |   Std_Acc1298_Std_Mem40_Flux <= 0.843976
|   |   |   Std_Acc1298_Std_Mem40_MFCC_0 <= 0.490084: 0 (10.0)
|   |   |   Std_Acc1298_Std_Mem40_MFCC_0 > 0.490084: 1 (3.0)
|   |   Std_Acc1298_Std_Mem40_Flux > 0.843976
|   |   |   Mean_Acc1298_Std_Mem40_MFCC_12 <= 0.293394
|   |   |   |   Mean_Acc1298_Mean_Mem40_MFCC_4 <= 0.722933
|   |   |   |   |   Std_Acc1298_Mean_Mem40_Rolloff <= 0.091185
|   |   |   |   |   |   Std_Acc1298_Std_Mem40_MFCC_2 <= 0.174692: 1 (10.0)
|   |   |   |   |   |   Std_Acc1298_Std_Mem40_MFCC_2 > 0.174692: 0 (6.0)
|   |   |   |   |   Std_Acc1298_Mean_Mem40_Rolloff > 0.091185: 1 (68.0/1.0)
|   |   |   |   Mean_Acc1298_Mean_Mem40_MFCC_4 > 0.722933
|   |   |   |   |   Mean_Acc1298_Mean_Mem40_Flux <= 0.235598: 0 (6.0)
|   |   |   |   |   Mean_Acc1298_Mean_Mem40_Flux > 0.235598: 1 (2.0)
|   |   |   Mean_Acc1298_Std_Mem40_MFCC_12 > 0.293394: 0 (5.0)
|   Std_Acc1298_Mean_Mem40_MFCC_9 > 0.186135: 0 (6.0)
Std_Acc1298_Std_Mem40_MFCC_9 > 0.166935
|   Mean_Acc1298_Mean_Mem40_MFCC_0 <= 0.791142
|   |   Std_Acc1298_Std_Mem40_MFCC_3 <= 0.109499
|   |   |   Mean_Acc1298_Mean_Mem40_MFCC_1 <= 0.536586: 1 (10.0/1.0)
|   |   |   Mean_Acc1298_Mean_Mem40_MFCC_1 > 0.536586: 0 (7.0)
|   |   Std_Acc1298_Std_Mem40_MFCC_3 > 0.109499
|   |   |   Mean_Acc1298_Mean_Mem40_Centroid <= 0.40699
|   |   |   |   Std_Acc1298_Std_Mem40_MFCC_2 <= 0.243007
|   |   |   |   |   BH_HighPeakAmp <= 0.023816: 0 (23.0)
|   |   |   |   |   BH_HighPeakAmp > 0.023816
|   |   |   |   |   |   Std_Acc1298_Std_Mem40_Centroid <= 0.364261: 1 (13.0/1.0)
|   |   |   |   |   |   Std_Acc1298_Std_Mem40_Centroid > 0.364261: 0 (8.0)
|   |   |   |   Std_Acc1298_Std_Mem40_MFCC_2 > 0.243007: 0 (218.0/3.0)
|   |   |   Mean_Acc1298_Mean_Mem40_Centroid > 0.40699
|   |   |   |   Mean_Acc1298_Mean_Mem40_MFCC_9 <= 0.687798
|   |   |   |   |   BH_HighPeakAmp <= 0.002477: 0 (6.0)
|   |   |   |   |   BH_HighPeakAmp > 0.002477
|   |   |   |   |   |   Std_Acc1298_Mean_Mem40_MFCC_0 <= 0.079358: 0 (3.0)
|   |   |   |   |   |   Std_Acc1298_Mean_Mem40_MFCC_0 > 0.079358
|   |   |   |   |   |   |   Std_Acc1298_Mean_Mem40_MFCC_6 <= 0.374187
|   |   |   |   |   |   |   |   Std_Acc1298_Std_Mem40_MFCC_9 <= 0.224895: 0 (3.0/1.0)
|   |   |   |   |   |   |   |   Std_Acc1298_Std_Mem40_MFCC_9 > 0.224895: 1 (16.0)
|   |   |   |   |   |   |   Std_Acc1298_Mean_Mem40_MFCC_6 > 0.374187: 0 (2.0)
|   |   |   |   Mean_Acc1298_Mean_Mem40_MFCC_9 > 0.687798: 0 (16.0)
|   Mean_Acc1298_Mean_Mem40_MFCC_0 > 0.791142
|   |   Mean_Acc1298_Mean_Mem40_MFCC_6 <= 0.169033: 0 (8.0)
|   |   Mean_Acc1298_Mean_Mem40_MFCC_6 > 0.169033
|   |   |   Mean_Acc1298_Mean_Mem40_MFCC_11 <= 0.305575: 0 (9.0/1.0)
|   |   |   Mean_Acc1298_Mean_Mem40_MFCC_11 > 0.305575
|   |   |   |   Std_Acc1298_Mean_Mem40_Centroid <= 0.035793: 0 (2.0)
|   |   |   |   Std_Acc1298_Mean_Mem40_Centroid > 0.035793: 1 (31.0/1.0)

Number of Leaves  : 	25

Size of the tree : 	49


meka.classifiers.multitarget.CC: Node #2

J48 pruned tree
------------------

angry-aggresive- = 0
|   Std_Acc1298_Mean_Mem40_MFCC_1 <= 0.322293
|   |   Mean_Acc1298_Std_Mem40_MFCC_12 <= 0.275346
|   |   |   Mean_Acc1298_Std_Mem40_Flux <= 0.175514
|   |   |   |   Mean_Acc1298_Mean_Mem40_MFCC_4 <= 0.534735
|   |   |   |   |   Std_Acc1298_Mean_Mem40_MFCC_5 <= 0.206905: 1 (14.0/1.0)
|   |   |   |   |   Std_Acc1298_Mean_Mem40_MFCC_5 > 0.206905
|   |   |   |   |   |   Mean_Acc1298_Mean_Mem40_Centroid <= 0.424305
|   |   |   |   |   |   |   Std_Acc1298_Mean_Mem40_Rolloff <= 0.186372: 0 (34.0/1.0)
|   |   |   |   |   |   |   Std_Acc1298_Mean_Mem40_Rolloff > 0.186372
|   |   |   |   |   |   |   |   Mean_Acc1298_Mean_Mem40_MFCC_9 <= 0.63253: 1 (4.0)
|   |   |   |   |   |   |   |   Mean_Acc1298_Mean_Mem40_MFCC_9 > 0.63253: 0 (4.0)
|   |   |   |   |   |   Mean_Acc1298_Mean_Mem40_Centroid > 0.424305: 1 (6.0/1.0)
|   |   |   |   Mean_Acc1298_Mean_Mem40_MFCC_4 > 0.534735: 0 (62.0/2.0)
|   |   |   Mean_Acc1298_Std_Mem40_Flux > 0.175514
|   |   |   |   Mean_Acc1298_Mean_Mem40_Centroid <= 0.586563: 1 (16.0/1.0)
|   |   |   |   Mean_Acc1298_Mean_Mem40_Centroid > 0.586563: 0 (2.0)
|   |   Mean_Acc1298_Std_Mem40_MFCC_12 > 0.275346
|   |   |   Std_Acc1298_Std_Mem40_MFCC_2 <= 0.475561
|   |   |   |   Std_Acc1298_Std_Mem40_Rolloff <= 0.163121
|   |   |   |   |   Mean_Acc1298_Mean_Mem40_MFCC_0 <= 0.726286: 0 (4.0)
|   |   |   |   |   Mean_Acc1298_Mean_Mem40_MFCC_0 > 0.726286: 1 (2.0)
|   |   |   |   Std_Acc1298_Std_Mem40_Rolloff > 0.163121
|   |   |   |   |   amazed-suprised- = 0
|   |   |   |   |   |   Std_Acc1298_Std_Mem40_MFCC_0 <= 0.428211: 1 (34.0)
|   |   |   |   |   |   Std_Acc1298_Std_Mem40_MFCC_0 > 0.428211
|   |   |   |   |   |   |   Std_Acc1298_Mean_Mem40_MFCC_5 <= 0.295048: 1 (14.0)
|   |   |   |   |   |   |   Std_Acc1298_Mean_Mem40_MFCC_5 > 0.295048
|   |   |   |   |   |   |   |   Std_Acc1298_Std_Mem40_MFCC_10 <= 0.275415
|   |   |   |   |   |   |   |   |   Mean_Acc1298_Std_Mem40_MFCC_0 <= 0.307994: 0 (7.0)
|   |   |   |   |   |   |   |   |   Mean_Acc1298_Std_Mem40_MFCC_0 > 0.307994: 1 (2.0)
|   |   |   |   |   |   |   |   Std_Acc1298_Std_Mem40_MFCC_10 > 0.275415: 1 (6.0)
|   |   |   |   |   amazed-suprised- = 1: 1 (20.0)
|   |   |   Std_Acc1298_Std_Mem40_MFCC_2 > 0.475561
|   |   |   |   Mean_Acc1298_Mean_Mem40_Centroid <= 0.290836: 0 (8.0)
|   |   |   |   Mean_Acc1298_Mean_Mem40_Centroid > 0.290836: 1 (4.0/1.0)
|   Std_Acc1298_Mean_Mem40_MFCC_1 > 0.322293: 0 (83.0/3.0)
angry-aggresive- = 1
|   BH_HighPeakBPM <= 0.721805
|   |   Std_Acc1298_Mean_Mem40_MFCC_5 <= 0.394482: 0 (147.0/4.0)
|   |   Std_Acc1298_Mean_Mem40_MFCC_5 > 0.394482
|   |   |   Mean_Acc1298_Mean_Mem40_MFCC_11 <= 0.315836: 0 (4.0)
|   |   |   Mean_Acc1298_Mean_Mem40_MFCC_11 > 0.315836: 1 (5.0)
|   BH_HighPeakBPM > 0.721805
|   |   Mean_Acc1298_Mean_Mem40_MFCC_5 <= 0.261102: 0 (4.0)
|   |   Mean_Acc1298_Mean_Mem40_MFCC_5 > 0.261102: 1 (5.0)

Number of Leaves  : 	24

Size of the tree : 	47


meka.classifiers.multitarget.CC: Node #3

J48 pruned tree
------------------

angry-aggresive- = 0
|   Std_Acc1298_Mean_Mem40_MFCC_10 <= 0.085022: 0 (29.0)
|   Std_Acc1298_Mean_Mem40_MFCC_10 > 0.085022
|   |   amazed-suprised- = 0
|   |   |   Mean_Acc1298_Mean_Mem40_MFCC_0 <= 0.787345
|   |   |   |   Mean_Acc1298_Mean_Mem40_MFCC_2 <= 0.479538
|   |   |   |   |   Mean_Acc1298_Std_Mem40_MFCC_9 <= 0.290861
|   |   |   |   |   |   Mean_Acc1298_Mean_Mem40_MFCC_1 <= 0.507365: 0 (6.0)
|   |   |   |   |   |   Mean_Acc1298_Mean_Mem40_MFCC_1 > 0.507365: 1 (16.0/1.0)
|   |   |   |   |   Mean_Acc1298_Std_Mem40_MFCC_9 > 0.290861
|   |   |   |   |   |   BHSUM2 <= 0.008315
|   |   |   |   |   |   |   quiet-still- = 0: 1 (4.0)
|   |   |   |   |   |   |   quiet-still- = 1: 0 (2.0)
|   |   |   |   |   |   BHSUM2 > 0.008315: 1 (113.0)
|   |   |   |   Mean_Acc1298_Mean_Mem40_MFCC_2 > 0.479538
|   |   |   |   |   Mean_Acc1298_Std_Mem40_MFCC_4 <= 0.102056: 0 (8.0)
|   |   |   |   |   Mean_Acc1298_Std_Mem40_MFCC_4 > 0.102056
|   |   |   |   |   |   Std_Acc1298_Std_Mem40_MFCC_1 <= 0.351892: 1 (35.0/1.0)
|   |   |   |   |   |   Std_Acc1298_Std_Mem40_MFCC_1 > 0.351892
|   |   |   |   |   |   |   BH_LowPeakBPM <= 0.111111: 1 (8.0)
|   |   |   |   |   |   |   BH_LowPeakBPM > 0.111111
|   |   |   |   |   |   |   |   Mean_Acc1298_Std_Mem40_Flux <= 0.076277
|   |   |   |   |   |   |   |   |   Mean_Acc1298_Mean_Mem40_Rolloff <= 0.038582
|   |   |   |   |   |   |   |   |   |   Mean_Acc1298_Std_Mem40_MFCC_10 <= 0.247543: 1 (2.0)
|   |   |   |   |   |   |   |   |   |   Mean_Acc1298_Std_Mem40_MFCC_10 > 0.247543: 0 (6.0)
|   |   |   |   |   |   |   |   |   Mean_Acc1298_Mean_Mem40_Rolloff > 0.038582: 1 (11.0)
|   |   |   |   |   |   |   |   Mean_Acc1298_Std_Mem40_Flux > 0.076277
|   |   |   |   |   |   |   |   |   quiet-still- = 0
|   |   |   |   |   |   |   |   |   |   happy-pleased- = 0: 1 (2.0)
|   |   |   |   |   |   |   |   |   |   happy-pleased- = 1: 0 (3.0)
|   |   |   |   |   |   |   |   |   quiet-still- = 1: 0 (15.0)
|   |   |   Mean_Acc1298_Mean_Mem40_MFCC_0 > 0.787345: 0 (13.0/1.0)
|   |   amazed-suprised- = 1
|   |   |   Std_Acc1298_Mean_Mem40_MFCC_5 <= 0.415002
|   |   |   |   Std_Acc1298_Std_Mem40_MFCC_9 <= 0.805173
|   |   |   |   |   Mean_Acc1298_Mean_Mem40_Flux <= 0.034486: 1 (3.0)
|   |   |   |   |   Mean_Acc1298_Mean_Mem40_Flux > 0.034486: 0 (42.0/1.0)
|   |   |   |   Std_Acc1298_Std_Mem40_MFCC_9 > 0.805173: 1 (3.0)
|   |   |   Std_Acc1298_Mean_Mem40_MFCC_5 > 0.415002: 1 (5.0)
angry-aggresive- = 1
|   Std_Acc1298_Std_Mem40_MFCC_1 <= 0.410181: 0 (147.0)
|   Std_Acc1298_Std_Mem40_MFCC_1 > 0.410181
|   |   Mean_Acc1298_Std_Mem40_Flux <= 0.095475: 1 (5.0)
|   |   Mean_Acc1298_Std_Mem40_Flux > 0.095475: 0 (13.0)

Number of Leaves  : 	23

Size of the tree : 	45


meka.classifiers.multitarget.CC: Node #4

J48 pruned tree
------------------

Mean_Acc1298_Mean_Mem40_MFCC_1 <= 0.463111
|   Mean_Acc1298_Mean_Mem40_Flux <= 0.066702
|   |   Mean_Acc1298_Mean_Mem40_MFCC_2 <= 0.491812: 0 (8.0)
|   |   Mean_Acc1298_Mean_Mem40_MFCC_2 > 0.491812: 1 (8.0)
|   Mean_Acc1298_Mean_Mem40_Flux > 0.066702: 0 (303.0/3.0)
Mean_Acc1298_Mean_Mem40_MFCC_1 > 0.463111
|   Mean_Acc1298_Mean_Mem40_Rolloff <= 0.170371
|   |   Mean_Acc1298_Mean_Mem40_Flux <= 0.193995
|   |   |   happy-pleased- = 0
|   |   |   |   Std_Acc1298_Std_Mem40_MFCC_9 <= 0.197742
|   |   |   |   |   Mean_Acc1298_Std_Mem40_MFCC_3 <= 0.086724: 0 (10.0)
|   |   |   |   |   Mean_Acc1298_Std_Mem40_MFCC_3 > 0.086724: 1 (6.0)
|   |   |   |   Std_Acc1298_Std_Mem40_MFCC_9 > 0.197742
|   |   |   |   |   Mean_Acc1298_Mean_Mem40_MFCC_4 <= 0.643657: 1 (83.0)
|   |   |   |   |   Mean_Acc1298_Mean_Mem40_MFCC_4 > 0.643657
|   |   |   |   |   |   Std_Acc1298_Std_Mem40_MFCC_12 <= 0.416762: 1 (17.0)
|   |   |   |   |   |   Std_Acc1298_Std_Mem40_MFCC_12 > 0.416762: 0 (6.0)
|   |   |   happy-pleased- = 1
|   |   |   |   BH_HighPeakBPM <= 0.661654: 0 (19.0)
|   |   |   |   BH_HighPeakBPM > 0.661654: 1 (3.0/1.0)
|   |   Mean_Acc1298_Mean_Mem40_Flux > 0.193995: 0 (11.0)
|   Mean_Acc1298_Mean_Mem40_Rolloff > 0.170371: 0 (17.0)

Number of Leaves  : 	12

Size of the tree : 	23


meka.classifiers.multitarget.CC: Node #5

J48 pruned tree
------------------

quiet-still- = 0
|   happy-pleased- = 0
|   |   angry-aggresive- = 0
|   |   |   Std_Acc1298_Std_Mem40_MFCC_4 <= 0.139123: 0 (16.0)
|   |   |   Std_Acc1298_Std_Mem40_MFCC_4 > 0.139123
|   |   |   |   Std_Acc1298_Std_Mem40_MFCC_7 <= 0.531428
|   |   |   |   |   Mean_Acc1298_Mean_Mem40_MFCC_6 <= 0.696986
|   |   |   |   |   |   Std_Acc1298_Mean_Mem40_MFCC_3 <= 0.154191: 0 (4.0)
|   |   |   |   |   |   Std_Acc1298_Mean_Mem40_MFCC_3 > 0.154191
|   |   |   |   |   |   |   Mean_Acc1298_Mean_Mem40_MFCC_5 <= 0.384324
|   |   |   |   |   |   |   |   Mean_Acc1298_Mean_Mem40_Rolloff <= 0.221873: 0 (11.0/1.0)
|   |   |   |   |   |   |   |   Mean_Acc1298_Mean_Mem40_Rolloff > 0.221873: 1 (9.0/1.0)
|   |   |   |   |   |   |   Mean_Acc1298_Mean_Mem40_MFCC_5 > 0.384324
|   |   |   |   |   |   |   |   Std_Acc1298_Std_Mem40_Flux <= 0.927346: 1 (30.0)
|   |   |   |   |   |   |   |   Std_Acc1298_Std_Mem40_Flux > 0.927346
|   |   |   |   |   |   |   |   |   relaxing-clam- = 0: 1 (3.0)
|   |   |   |   |   |   |   |   |   relaxing-clam- = 1: 0 (2.0)
|   |   |   |   |   Mean_Acc1298_Mean_Mem40_MFCC_6 > 0.696986: 0 (7.0)
|   |   |   |   Std_Acc1298_Std_Mem40_MFCC_7 > 0.531428: 0 (8.0)
|   |   angry-aggresive- = 1
|   |   |   relaxing-clam- = 0
|   |   |   |   Mean_Acc1298_Mean_Mem40_MFCC_0 <= 0.868497
|   |   |   |   |   Std_Acc1298_Std_Mem40_MFCC_5 <= 0.474006: 0 (108.0)
|   |   |   |   |   Std_Acc1298_Std_Mem40_MFCC_5 > 0.474006
|   |   |   |   |   |   Std_Acc1298_Std_Mem40_MFCC_12 <= 0.113433: 1 (3.0)
|   |   |   |   |   |   Std_Acc1298_Std_Mem40_MFCC_12 > 0.113433: 0 (14.0)
|   |   |   |   Mean_Acc1298_Mean_Mem40_MFCC_0 > 0.868497
|   |   |   |   |   Mean_Acc1298_Mean_Mem40_MFCC_1 <= 0.320498: 0 (13.0/1.0)
|   |   |   |   |   Mean_Acc1298_Mean_Mem40_MFCC_1 > 0.320498: 1 (6.0)
|   |   |   relaxing-clam- = 1: 1 (4.0/1.0)
|   happy-pleased- = 1
|   |   Std_Acc1298_Mean_Mem40_Centroid <= 0.212478: 0 (127.0)
|   |   Std_Acc1298_Mean_Mem40_Centroid > 0.212478
|   |   |   Mean_Acc1298_Mean_Mem40_Centroid <= 0.545373: 0 (5.0)
|   |   |   Mean_Acc1298_Mean_Mem40_Centroid > 0.545373: 1 (2.0)
quiet-still- = 1
|   Std_Acc1298_Std_Mem40_MFCC_4 <= 0.178599: 0 (14.0)
|   Std_Acc1298_Std_Mem40_MFCC_4 > 0.178599
|   |   Mean_Acc1298_Std_Mem40_MFCC_8 <= 0.404122
|   |   |   happy-pleased- = 0
|   |   |   |   Std_Acc1298_Mean_Mem40_MFCC_12 <= 0.081653: 0 (5.0)
|   |   |   |   Std_Acc1298_Mean_Mem40_MFCC_12 > 0.081653
|   |   |   |   |   Mean_Acc1298_Std_Mem40_MFCC_4 <= 0.405595
|   |   |   |   |   |   BH_LowPeakAmp <= 0.06301: 1 (65.0)
|   |   |   |   |   |   BH_LowPeakAmp > 0.06301
|   |   |   |   |   |   |   Mean_Acc1298_Mean_Mem40_MFCC_12 <= 0.227995: 0 (2.0)
|   |   |   |   |   |   |   Mean_Acc1298_Mean_Mem40_MFCC_12 > 0.227995: 1 (17.0/1.0)
|   |   |   |   |   Mean_Acc1298_Std_Mem40_MFCC_4 > 0.405595
|   |   |   |   |   |   Mean_Acc1298_Mean_Mem40_MFCC_2 <= 0.656119: 0 (5.0)
|   |   |   |   |   |   Mean_Acc1298_Mean_Mem40_MFCC_2 > 0.656119: 1 (2.0)
|   |   |   happy-pleased- = 1: 0 (2.0)
|   |   Mean_Acc1298_Std_Mem40_MFCC_8 > 0.404122: 0 (7.0)

Number of Leaves  : 	27

Size of the tree : 	53


meka.classifiers.multitarget.CC: Node #6

J48 pruned tree
------------------

Std_Acc1298_Mean_Mem40_MFCC_8 <= 0.15049
|   Mean_Acc1298_Mean_Mem40_Rolloff <= 0.050479: 0 (21.0)
|   Mean_Acc1298_Mean_Mem40_Rolloff > 0.050479
|   |   Std_Acc1298_Mean_Mem40_MFCC_11 <= 0.233924
|   |   |   BH_HighPeakBPM <= 0.548872
|   |   |   |   Mean_Acc1298_Std_Mem40_MFCC_7 <= 0.157275: 1 (16.0)
|   |   |   |   Mean_Acc1298_Std_Mem40_MFCC_7 > 0.157275
|   |   |   |   |   BH_LowPeakAmp <= 0.361027
|   |   |   |   |   |   Mean_Acc1298_Mean_Mem40_MFCC_1 <= 0.387806
|   |   |   |   |   |   |   Std_Acc1298_Mean_Mem40_MFCC_12 <= 0.121154
|   |   |   |   |   |   |   |   Mean_Acc1298_Std_Mem40_MFCC_4 <= 0.243457
|   |   |   |   |   |   |   |   |   Std_Acc1298_Std_Mem40_MFCC_6 <= 0.237803: 1 (9.0)
|   |   |   |   |   |   |   |   |   Std_Acc1298_Std_Mem40_MFCC_6 > 0.237803
|   |   |   |   |   |   |   |   |   |   Mean_Acc1298_Std_Mem40_Rolloff <= 0.192076
|   |   |   |   |   |   |   |   |   |   |   Mean_Acc1298_Mean_Mem40_MFCC_11 <= 0.352784: 0 (2.0)
|   |   |   |   |   |   |   |   |   |   |   Mean_Acc1298_Mean_Mem40_MFCC_11 > 0.352784: 1 (5.0)
|   |   |   |   |   |   |   |   |   |   Mean_Acc1298_Std_Mem40_Rolloff > 0.192076: 0 (13.0)
|   |   |   |   |   |   |   |   Mean_Acc1298_Std_Mem40_MFCC_4 > 0.243457
|   |   |   |   |   |   |   |   |   Std_Acc1298_Std_Mem40_MFCC_12 <= 0.148866: 1 (48.0)
|   |   |   |   |   |   |   |   |   Std_Acc1298_Std_Mem40_MFCC_12 > 0.148866
|   |   |   |   |   |   |   |   |   |   Mean_Acc1298_Std_Mem40_MFCC_8 <= 0.299474: 0 (3.0)
|   |   |   |   |   |   |   |   |   |   Mean_Acc1298_Std_Mem40_MFCC_8 > 0.299474: 1 (6.0)
|   |   |   |   |   |   |   Std_Acc1298_Mean_Mem40_MFCC_12 > 0.121154: 0 (12.0/1.0)
|   |   |   |   |   |   Mean_Acc1298_Mean_Mem40_MFCC_1 > 0.387806
|   |   |   |   |   |   |   Std_Acc1298_Mean_Mem40_MFCC_12 <= 0.065699: 1 (4.0/1.0)
|   |   |   |   |   |   |   Std_Acc1298_Mean_Mem40_MFCC_12 > 0.065699: 0 (26.0)
|   |   |   |   |   BH_LowPeakAmp > 0.361027
|   |   |   |   |   |   Std_Acc1298_Mean_Mem40_MFCC_1 <= 0.322782
|   |   |   |   |   |   |   Mean_Acc1298_Mean_Mem40_MFCC_12 <= 0.330281: 1 (3.0/1.0)
|   |   |   |   |   |   |   Mean_Acc1298_Mean_Mem40_MFCC_12 > 0.330281: 0 (37.0)
|   |   |   |   |   |   Std_Acc1298_Mean_Mem40_MFCC_1 > 0.322782: 1 (3.0)
|   |   |   BH_HighPeakBPM > 0.548872
|   |   |   |   Std_Acc1298_Mean_Mem40_Flux <= 0.242515: 1 (56.0)
|   |   |   |   Std_Acc1298_Mean_Mem40_Flux > 0.242515: 0 (3.0/1.0)
|   |   Std_Acc1298_Mean_Mem40_MFCC_11 > 0.233924
|   |   |   Mean_Acc1298_Std_Mem40_MFCC_3 <= 0.694119: 0 (37.0/1.0)
|   |   |   Mean_Acc1298_Std_Mem40_MFCC_3 > 0.694119: 1 (5.0)
Std_Acc1298_Mean_Mem40_MFCC_8 > 0.15049
|   Mean_Acc1298_Std_Mem40_MFCC_8 <= 0.14816
|   |   Std_Acc1298_Std_Mem40_Flux <= 0.920943: 0 (11.0/1.0)
|   |   Std_Acc1298_Std_Mem40_Flux > 0.920943: 1 (5.0)
|   Mean_Acc1298_Std_Mem40_MFCC_8 > 0.14816
|   |   Mean_Acc1298_Mean_Mem40_Rolloff <= 0.295795: 0 (150.0)
|   |   Mean_Acc1298_Mean_Mem40_Rolloff > 0.295795
|   |   |   Mean_Acc1298_Mean_Mem40_MFCC_4 <= 0.433987: 1 (2.0)
|   |   |   Mean_Acc1298_Mean_Mem40_MFCC_4 > 0.433987: 0 (14.0/1.0)

Number of Leaves  : 	24

Size of the tree : 	47


meka.classifiers.multitarget.meta.BaggingMT: Model #3

meka.classifiers.multitarget.CC: Node #1

J48 pruned tree
------------------

Std_Acc1298_Std_Mem40_MFCC_10 <= 0.077783
|   Mean_Acc1298_Mean_Mem40_Flux <= 0.283809: 1 (54.0/1.0)
|   Mean_Acc1298_Mean_Mem40_Flux > 0.283809
|   |   Mean_Acc1298_Std_Mem40_MFCC_0 <= 0.305565: 0 (4.0)
|   |   Mean_Acc1298_Std_Mem40_MFCC_0 > 0.305565: 1 (5.0)
Std_Acc1298_Std_Mem40_MFCC_10 > 0.077783
|   Std_Acc1298_Mean_Mem40_MFCC_4 <= 0.193843
|   |   Mean_Acc1298_Mean_Mem40_MFCC_2 <= 0.259561: 0 (8.0)
|   |   Mean_Acc1298_Mean_Mem40_MFCC_2 > 0.259561
|   |   |   BH_LowPeakBPM <= 0.793651
|   |   |   |   Std_Acc1298_Mean_Mem40_MFCC_9 <= 0.035926: 0 (4.0/1.0)
|   |   |   |   Std_Acc1298_Mean_Mem40_MFCC_9 > 0.035926
|   |   |   |   |   Std_Acc1298_Std_Mem40_MFCC_5 <= 0.421635: 1 (36.0)
|   |   |   |   |   Std_Acc1298_Std_Mem40_MFCC_5 > 0.421635: 0 (2.0)
|   |   |   BH_LowPeakBPM > 0.793651: 0 (4.0)
|   Std_Acc1298_Mean_Mem40_MFCC_4 > 0.193843
|   |   Std_Acc1298_Std_Mem40_MFCC_4 <= 0.143859
|   |   |   Mean_Acc1298_Mean_Mem40_Centroid <= 0.322092: 0 (7.0)
|   |   |   Mean_Acc1298_Mean_Mem40_Centroid > 0.322092: 1 (12.0)
|   |   Std_Acc1298_Std_Mem40_MFCC_4 > 0.143859
|   |   |   quiet-still- = 0
|   |   |   |   BH_LowPeakBPM <= 0.222222
|   |   |   |   |   Mean_Acc1298_Std_Mem40_MFCC_9 <= 0.58361
|   |   |   |   |   |   Mean_Acc1298_Std_Mem40_MFCC_3 <= 0.391525
|   |   |   |   |   |   |   BHSUM1 <= 0.266955
|   |   |   |   |   |   |   |   BH_LowPeakBPM <= 0.142857: 1 (4.0)
|   |   |   |   |   |   |   |   BH_LowPeakBPM > 0.142857: 0 (11.0)
|   |   |   |   |   |   |   BHSUM1 > 0.266955: 1 (13.0)
|   |   |   |   |   |   Mean_Acc1298_Std_Mem40_MFCC_3 > 0.391525: 0 (39.0/1.0)
|   |   |   |   |   Mean_Acc1298_Std_Mem40_MFCC_9 > 0.58361
|   |   |   |   |   |   Mean_Acc1298_Mean_Mem40_MFCC_6 <= 0.502689: 0 (2.0)
|   |   |   |   |   |   Mean_Acc1298_Mean_Mem40_MFCC_6 > 0.502689: 1 (11.0)
|   |   |   |   BH_LowPeakBPM > 0.222222
|   |   |   |   |   Std_Acc1298_Mean_Mem40_MFCC_5 <= 0.169456
|   |   |   |   |   |   BH_LowPeakBPM <= 0.365079: 0 (6.0)
|   |   |   |   |   |   BH_LowPeakBPM > 0.365079: 1 (5.0)
|   |   |   |   |   Std_Acc1298_Mean_Mem40_MFCC_5 > 0.169456
|   |   |   |   |   |   Std_Acc1298_Std_Mem40_MFCC_7 <= 0.539543: 0 (132.0/4.0)
|   |   |   |   |   |   Std_Acc1298_Std_Mem40_MFCC_7 > 0.539543
|   |   |   |   |   |   |   Mean_Acc1298_Mean_Mem40_MFCC_4 <= 0.557981: 1 (3.0)
|   |   |   |   |   |   |   Mean_Acc1298_Mean_Mem40_MFCC_4 > 0.557981: 0 (4.0)
|   |   |   quiet-still- = 1: 0 (125.0)

Number of Leaves  : 	22

Size of the tree : 	43


meka.classifiers.multitarget.CC: Node #2

J48 pruned tree
------------------

angry-aggresive- = 0
|   quiet-still- = 0
|   |   Mean_Acc1298_Std_Mem40_MFCC_1 <= 0.363992
|   |   |   Mean_Acc1298_Std_Mem40_MFCC_11 <= 0.270138
|   |   |   |   Mean_Acc1298_Mean_Mem40_MFCC_11 <= 0.295436: 1 (4.0/1.0)
|   |   |   |   Mean_Acc1298_Mean_Mem40_MFCC_11 > 0.295436: 0 (15.0)
|   |   |   Mean_Acc1298_Std_Mem40_MFCC_11 > 0.270138
|   |   |   |   Mean_Acc1298_Mean_Mem40_MFCC_9 <= 0.433199
|   |   |   |   |   Std_Acc1298_Mean_Mem40_MFCC_8 <= 0.181771
|   |   |   |   |   |   Mean_Acc1298_Std_Mem40_MFCC_8 <= 0.149626: 1 (3.0)
|   |   |   |   |   |   Mean_Acc1298_Std_Mem40_MFCC_8 > 0.149626
|   |   |   |   |   |   |   Mean_Acc1298_Mean_Mem40_MFCC_4 <= 0.550035: 0 (22.0)
|   |   |   |   |   |   |   Mean_Acc1298_Mean_Mem40_MFCC_4 > 0.550035: 1 (2.0)
|   |   |   |   |   Std_Acc1298_Mean_Mem40_MFCC_8 > 0.181771: 1 (11.0/1.0)
|   |   |   |   Mean_Acc1298_Mean_Mem40_MFCC_9 > 0.433199
|   |   |   |   |   Mean_Acc1298_Mean_Mem40_MFCC_4 <= 0.557352
|   |   |   |   |   |   Mean_Acc1298_Mean_Mem40_MFCC_10 <= 0.696724
|   |   |   |   |   |   |   Std_Acc1298_Mean_Mem40_Centroid <= 0.145504: 1 (56.0)
|   |   |   |   |   |   |   Std_Acc1298_Mean_Mem40_Centroid > 0.145504
|   |   |   |   |   |   |   |   Std_Acc1298_Std_Mem40_MFCC_2 <= 0.210736: 0 (4.0)
|   |   |   |   |   |   |   |   Std_Acc1298_Std_Mem40_MFCC_2 > 0.210736
|   |   |   |   |   |   |   |   |   Std_Acc1298_Std_Mem40_MFCC_11 <= 0.316121: 1 (26.0/1.0)
|   |   |   |   |   |   |   |   |   Std_Acc1298_Std_Mem40_MFCC_11 > 0.316121: 0 (2.0)
|   |   |   |   |   |   Mean_Acc1298_Mean_Mem40_MFCC_10 > 0.696724: 0 (5.0/1.0)
|   |   |   |   |   Mean_Acc1298_Mean_Mem40_MFCC_4 > 0.557352
|   |   |   |   |   |   Std_Acc1298_Std_Mem40_MFCC_3 <= 0.4427
|   |   |   |   |   |   |   Mean_Acc1298_Mean_Mem40_MFCC_0 <= 0.681785: 0 (16.0/1.0)
|   |   |   |   |   |   |   Mean_Acc1298_Mean_Mem40_MFCC_0 > 0.681785
|   |   |   |   |   |   |   |   Std_Acc1298_Mean_Mem40_Flux <= 0.08301: 0 (2.0)
|   |   |   |   |   |   |   |   Std_Acc1298_Mean_Mem40_Flux > 0.08301: 1 (9.0)
|   |   |   |   |   |   Std_Acc1298_Std_Mem40_MFCC_3 > 0.4427: 1 (9.0)
|   |   Mean_Acc1298_Std_Mem40_MFCC_1 > 0.363992
|   |   |   Mean_Acc1298_Std_Mem40_MFCC_0 <= 0.532626: 0 (20.0/1.0)
|   |   |   Mean_Acc1298_Std_Mem40_MFCC_0 > 0.532626: 1 (2.0)
|   quiet-still- = 1
|   |   Std_Acc1298_Std_Mem40_Flux <= 0.888361
|   |   |   Std_Acc1298_Mean_Mem40_Rolloff <= 0.203059: 0 (12.0)
|   |   |   Std_Acc1298_Mean_Mem40_Rolloff > 0.203059: 1 (8.0)
|   |   Std_Acc1298_Std_Mem40_Flux > 0.888361: 0 (104.0)
angry-aggresive- = 1
|   Std_Acc1298_Std_Mem40_MFCC_0 <= 0.447112: 0 (102.0/1.0)
|   Std_Acc1298_Std_Mem40_MFCC_0 > 0.447112
|   |   Mean_Acc1298_Mean_Mem40_MFCC_5 <= 0.437244
|   |   |   Std_Acc1298_Std_Mem40_MFCC_0 <= 0.464785: 1 (4.0)
|   |   |   Std_Acc1298_Std_Mem40_MFCC_0 > 0.464785
|   |   |   |   Mean_Acc1298_Std_Mem40_MFCC_1 <= 0.438773
|   |   |   |   |   Std_Acc1298_Std_Mem40_MFCC_1 <= 0.292411: 1 (4.0/1.0)
|   |   |   |   |   Std_Acc1298_Std_Mem40_MFCC_1 > 0.292411: 0 (22.0)
|   |   |   |   Mean_Acc1298_Std_Mem40_MFCC_1 > 0.438773: 1 (3.0)
|   |   Mean_Acc1298_Mean_Mem40_MFCC_5 > 0.437244: 0 (24.0)

Number of Leaves  : 	26

Size of the tree : 	51


meka.classifiers.multitarget.CC: Node #3

J48 pruned tree
------------------

angry-aggresive- = 0
|   amazed-suprised- = 0
|   |   Mean_Acc1298_Mean_Mem40_MFCC_0 <= 0.781942
|   |   |   Mean_Acc1298_Mean_Mem40_MFCC_2 <= 0.374609: 1 (84.0/1.0)
|   |   |   Mean_Acc1298_Mean_Mem40_MFCC_2 > 0.374609
|   |   |   |   BHSUM3 <= 0.049143: 0 (10.0)
|   |   |   |   BHSUM3 > 0.049143
|   |   |   |   |   BHSUM3 <= 0.526409
|   |   |   |   |   |   BHSUM1 <= 0.159058
|   |   |   |   |   |   |   BH_LowPeakAmp <= 0.018945
|   |   |   |   |   |   |   |   Mean_Acc1298_Mean_Mem40_MFCC_3 <= 0.642218: 1 (33.0)
|   |   |   |   |   |   |   |   Mean_Acc1298_Mean_Mem40_MFCC_3 > 0.642218: 0 (2.0)
|   |   |   |   |   |   |   BH_LowPeakAmp > 0.018945
|   |   |   |   |   |   |   |   Mean_Acc1298_Mean_Mem40_MFCC_12 <= 0.426585
|   |   |   |   |   |   |   |   |   Mean_Acc1298_Std_Mem40_MFCC_3 <= 0.147292
|   |   |   |   |   |   |   |   |   |   Mean_Acc1298_Mean_Mem40_MFCC_3 <= 0.55755: 0 (6.0)
|   |   |   |   |   |   |   |   |   |   Mean_Acc1298_Mean_Mem40_MFCC_3 > 0.55755: 1 (2.0)
|   |   |   |   |   |   |   |   |   Mean_Acc1298_Std_Mem40_MFCC_3 > 0.147292: 1 (13.0)
|   |   |   |   |   |   |   |   Mean_Acc1298_Mean_Mem40_MFCC_12 > 0.426585: 0 (17.0)
|   |   |   |   |   |   BHSUM1 > 0.159058
|   |   |   |   |   |   |   BHSUM2 <= 0.00244
|   |   |   |   |   |   |   |   BHSUM2 <= 0: 1 (4.0)
|   |   |   |   |   |   |   |   BHSUM2 > 0: 0 (2.0)
|   |   |   |   |   |   |   BHSUM2 > 0.00244: 1 (68.0)
|   |   |   |   |   BHSUM3 > 0.526409: 0 (9.0/1.0)
|   |   Mean_Acc1298_Mean_Mem40_MFCC_0 > 0.781942
|   |   |   quiet-still- = 0: 0 (13.0)
|   |   |   quiet-still- = 1: 1 (2.0)
|   amazed-suprised- = 1
|   |   Mean_Acc1298_Mean_Mem40_Rolloff <= 0.110373: 1 (5.0)
|   |   Mean_Acc1298_Mean_Mem40_Rolloff > 0.110373
|   |   |   Std_Acc1298_Mean_Mem40_MFCC_5 <= 0.415002: 0 (56.0/1.0)
|   |   |   Std_Acc1298_Mean_Mem40_MFCC_5 > 0.415002
|   |   |   |   happy-pleased- = 0: 0 (2.0)
|   |   |   |   happy-pleased- = 1: 1 (4.0)
angry-aggresive- = 1
|   quiet-still- = 0
|   |   sad-lonely- = 0: 0 (147.0)
|   |   sad-lonely- = 1
|   |   |   Mean_Acc1298_Mean_Mem40_MFCC_3 <= 0.547819: 0 (7.0)
|   |   |   Mean_Acc1298_Mean_Mem40_MFCC_3 > 0.547819: 1 (2.0)
|   quiet-still- = 1: 1 (3.0/1.0)

Number of Leaves  : 	22

Size of the tree : 	43


meka.classifiers.multitarget.CC: Node #4

J48 pruned tree
------------------

Mean_Acc1298_Mean_Mem40_Rolloff <= 0.143949
|   Mean_Acc1298_Mean_Mem40_Flux <= 0.193995
|   |   Std_Acc1298_Std_Mem40_MFCC_7 <= 0.20444
|   |   |   Std_Acc1298_Std_Mem40_MFCC_1 <= 0.409224: 0 (15.0)
|   |   |   Std_Acc1298_Std_Mem40_MFCC_1 > 0.409224: 1 (6.0/1.0)
|   |   Std_Acc1298_Std_Mem40_MFCC_7 > 0.20444
|   |   |   Std_Acc1298_Std_Mem40_MFCC_4 <= 0.178329
|   |   |   |   Mean_Acc1298_Mean_Mem40_MFCC_3 <= 0.436554: 1 (4.0)
|   |   |   |   Mean_Acc1298_Mean_Mem40_MFCC_3 > 0.436554: 0 (6.0)
|   |   |   Std_Acc1298_Std_Mem40_MFCC_4 > 0.178329
|   |   |   |   BH_HighPeakAmp <= 0.117264: 1 (94.0/1.0)
|   |   |   |   BH_HighPeakAmp > 0.117264
|   |   |   |   |   Mean_Acc1298_Std_Mem40_MFCC_7 <= 0.426441: 1 (12.0)
|   |   |   |   |   Mean_Acc1298_Std_Mem40_MFCC_7 > 0.426441: 0 (7.0)
|   Mean_Acc1298_Mean_Mem40_Flux > 0.193995: 0 (18.0)
Mean_Acc1298_Mean_Mem40_Rolloff > 0.143949
|   Std_Acc1298_Mean_Mem40_MFCC_4 <= 0.557478
|   |   BH_LowPeakAmp <= 0.021065
|   |   |   Mean_Acc1298_Mean_Mem40_MFCC_0 <= 0.539398: 1 (6.0)
|   |   |   Mean_Acc1298_Mean_Mem40_MFCC_0 > 0.539398: 0 (25.0)
|   |   BH_LowPeakAmp > 0.021065: 0 (280.0)
|   Std_Acc1298_Mean_Mem40_MFCC_4 > 0.557478
|   |   Mean_Acc1298_Mean_Mem40_MFCC_10 <= 0.641021
|   |   |   Mean_Acc1298_Mean_Mem40_MFCC_10 <= 0.362416: 1 (2.0)
|   |   |   Mean_Acc1298_Mean_Mem40_MFCC_10 > 0.362416: 0 (11.0)
|   |   Mean_Acc1298_Mean_Mem40_MFCC_10 > 0.641021: 1 (5.0)

Number of Leaves  : 	14

Size of the tree : 	27


meka.classifiers.multitarget.CC: Node #5

J48 pruned tree
------------------

quiet-still- = 0
|   happy-pleased- = 0
|   |   Std_Acc1298_Mean_Mem40_MFCC_8 <= 0.123344
|   |   |   angry-aggresive- = 0
|   |   |   |   Mean_Acc1298_Mean_Mem40_MFCC_4 <= 0.428103: 1 (5.0)
|   |   |   |   Mean_Acc1298_Mean_Mem40_MFCC_4 > 0.428103: 0 (31.0/2.0)
|   |   |   angry-aggresive- = 1
|   |   |   |   Std_Acc1298_Mean_Mem40_MFCC_9 <= 0.182772: 0 (107.0)
|   |   |   |   Std_Acc1298_Mean_Mem40_MFCC_9 > 0.182772
|   |   |   |   |   Mean_Acc1298_Mean_Mem40_Rolloff <= 0.204007: 1 (2.0)
|   |   |   |   |   Mean_Acc1298_Mean_Mem40_Rolloff > 0.204007: 0 (12.0)
|   |   Std_Acc1298_Mean_Mem40_MFCC_8 > 0.123344
|   |   |   Mean_Acc1298_Std_Mem40_MFCC_11 <= 0.228626: 1 (6.0)
|   |   |   Mean_Acc1298_Std_Mem40_MFCC_11 > 0.228626
|   |   |   |   Std_Acc1298_Std_Mem40_MFCC_3 <= 0.204762: 0 (14.0)
|   |   |   |   Std_Acc1298_Std_Mem40_MFCC_3 > 0.204762
|   |   |   |   |   BH_HighPeakAmp <= 0.361813
|   |   |   |   |   |   BHSUM2 <= 0.29703
|   |   |   |   |   |   |   Std_Acc1298_Std_Mem40_MFCC_3 <= 0.446291
|   |   |   |   |   |   |   |   Mean_Acc1298_Mean_Mem40_MFCC_11 <= 0.442462
|   |   |   |   |   |   |   |   |   Mean_Acc1298_Mean_Mem40_MFCC_3 <= 0.395868: 0 (2.0)
|   |   |   |   |   |   |   |   |   Mean_Acc1298_Mean_Mem40_MFCC_3 > 0.395868: 1 (16.0)
|   |   |   |   |   |   |   |   Mean_Acc1298_Mean_Mem40_MFCC_11 > 0.442462: 0 (5.0)
|   |   |   |   |   |   |   Std_Acc1298_Std_Mem40_MFCC_3 > 0.446291: 0 (8.0)
|   |   |   |   |   |   BHSUM2 > 0.29703: 0 (16.0)
|   |   |   |   |   BH_HighPeakAmp > 0.361813: 1 (7.0)
|   happy-pleased- = 1: 0 (133.0/1.0)
quiet-still- = 1
|   happy-pleased- = 0
|   |   Mean_Acc1298_Std_Mem40_MFCC_9 <= 0.549084
|   |   |   Std_Acc1298_Std_Mem40_MFCC_12 <= 0.095636: 0 (6.0)
|   |   |   Std_Acc1298_Std_Mem40_MFCC_12 > 0.095636
|   |   |   |   Std_Acc1298_Mean_Mem40_Flux <= 0.242515
|   |   |   |   |   Mean_Acc1298_Mean_Mem40_MFCC_10 <= 0.069906: 0 (5.0/1.0)
|   |   |   |   |   Mean_Acc1298_Mean_Mem40_MFCC_10 > 0.069906
|   |   |   |   |   |   BHSUM1 <= 0.274486: 1 (84.0/3.0)
|   |   |   |   |   |   BHSUM1 > 0.274486
|   |   |   |   |   |   |   Mean_Acc1298_Mean_Mem40_MFCC_2 <= 0.375001: 1 (3.0)
|   |   |   |   |   |   |   Mean_Acc1298_Mean_Mem40_MFCC_2 > 0.375001: 0 (2.0)
|   |   |   |   Std_Acc1298_Mean_Mem40_Flux > 0.242515: 0 (6.0/1.0)
|   |   Mean_Acc1298_Std_Mem40_MFCC_9 > 0.549084: 0 (13.0/1.0)
|   happy-pleased- = 1: 0 (8.0)

Number of Leaves  : 	22

Size of the tree : 	43


meka.classifiers.multitarget.CC: Node #6

J48 pruned tree
------------------

Std_Acc1298_Mean_Mem40_MFCC_10 <= 0.121093
|   Mean_Acc1298_Mean_Mem40_MFCC_8 <= 0.552866
|   |   Std_Acc1298_Std_Mem40_MFCC_11 <= 0.194919
|   |   |   Mean_Acc1298_Std_Mem40_MFCC_9 <= 0.290377
|   |   |   |   Std_Acc1298_Std_Mem40_Rolloff <= 0.246527
|   |   |   |   |   Mean_Acc1298_Mean_Mem40_MFCC_6 <= 0.760202
|   |   |   |   |   |   Mean_Acc1298_Mean_Mem40_Centroid <= 0.426395: 1 (40.0/1.0)
|   |   |   |   |   |   Mean_Acc1298_Mean_Mem40_Centroid > 0.426395
|   |   |   |   |   |   |   Std_Acc1298_Mean_Mem40_Centroid <= 0.081927: 0 (5.0)
|   |   |   |   |   |   |   Std_Acc1298_Mean_Mem40_Centroid > 0.081927: 1 (10.0/1.0)
|   |   |   |   |   Mean_Acc1298_Mean_Mem40_MFCC_6 > 0.760202: 0 (3.0)
|   |   |   |   Std_Acc1298_Std_Mem40_Rolloff > 0.246527: 0 (15.0/1.0)
|   |   |   Mean_Acc1298_Std_Mem40_MFCC_9 > 0.290377: 1 (62.0/1.0)
|   |   Std_Acc1298_Std_Mem40_MFCC_11 > 0.194919: 0 (8.0/1.0)
|   Mean_Acc1298_Mean_Mem40_MFCC_8 > 0.552866
|   |   Mean_Acc1298_Mean_Mem40_MFCC_4 <= 0.479539: 1 (2.0)
|   |   Mean_Acc1298_Mean_Mem40_MFCC_4 > 0.479539: 0 (16.0)
Std_Acc1298_Mean_Mem40_MFCC_10 > 0.121093
|   Mean_Acc1298_Std_Mem40_MFCC_4 <= 0.575966
|   |   Std_Acc1298_Mean_Mem40_MFCC_1 <= 0.128497
|   |   |   Std_Acc1298_Mean_Mem40_MFCC_8 <= 0.199413
|   |   |   |   Mean_Acc1298_Mean_Mem40_Flux <= 0.08124: 0 (3.0)
|   |   |   |   Mean_Acc1298_Mean_Mem40_Flux > 0.08124
|   |   |   |   |   Mean_Acc1298_Std_Mem40_Rolloff <= 0.559408: 1 (19.0)
|   |   |   |   |   Mean_Acc1298_Std_Mem40_Rolloff > 0.559408: 0 (2.0)
|   |   |   Std_Acc1298_Mean_Mem40_MFCC_8 > 0.199413: 0 (6.0)
|   |   Std_Acc1298_Mean_Mem40_MFCC_1 > 0.128497
|   |   |   Std_Acc1298_Std_Mem40_MFCC_12 <= 0.102305
|   |   |   |   Std_Acc1298_Mean_Mem40_MFCC_2 <= 0.158314: 1 (5.0)
|   |   |   |   Std_Acc1298_Mean_Mem40_MFCC_2 > 0.158314
|   |   |   |   |   Mean_Acc1298_Mean_Mem40_Rolloff <= 0.294587: 0 (18.0)
|   |   |   |   |   Mean_Acc1298_Mean_Mem40_Rolloff > 0.294587: 1 (4.0/1.0)
|   |   |   Std_Acc1298_Std_Mem40_MFCC_12 > 0.102305
|   |   |   |   Mean_Acc1298_Mean_Mem40_MFCC_0 <= 0.810956
|   |   |   |   |   BH_LowPeakBPM <= 0.730159: 0 (225.0)
|   |   |   |   |   BH_LowPeakBPM > 0.730159
|   |   |   |   |   |   Std_Acc1298_Mean_Mem40_MFCC_7 <= 0.382031: 0 (15.0)
|   |   |   |   |   |   Std_Acc1298_Mean_Mem40_MFCC_7 > 0.382031: 1 (3.0)
|   |   |   |   Mean_Acc1298_Mean_Mem40_MFCC_0 > 0.810956
|   |   |   |   |   Mean_Acc1298_Std_Mem40_MFCC_9 <= 0.305358: 1 (4.0)
|   |   |   |   |   Mean_Acc1298_Std_Mem40_MFCC_9 > 0.305358: 0 (9.0)
|   Mean_Acc1298_Std_Mem40_MFCC_4 > 0.575966
|   |   BH_LowPeakBPM <= 0.031746: 0 (4.0)
|   |   BH_LowPeakBPM > 0.031746: 1 (13.0/1.0)

Number of Leaves  : 	23

Size of the tree : 	45


meka.classifiers.multitarget.meta.BaggingMT: Model #4

meka.classifiers.multitarget.CC: Node #1

J48 pruned tree
------------------

Std_Acc1298_Mean_Mem40_MFCC_1 <= 0.095517
|   BH_HighPeakBPM <= 0.466165
|   |   Mean_Acc1298_Std_Mem40_MFCC_7 <= 0.46198: 1 (36.0/1.0)
|   |   Mean_Acc1298_Std_Mem40_MFCC_7 > 0.46198: 0 (2.0)
|   BH_HighPeakBPM > 0.466165: 0 (4.0)
Std_Acc1298_Mean_Mem40_MFCC_1 > 0.095517
|   Std_Acc1298_Std_Mem40_MFCC_7 <= 0.194223
|   |   Mean_Acc1298_Mean_Mem40_MFCC_9 <= 0.829167
|   |   |   Mean_Acc1298_Mean_Mem40_MFCC_11 <= 0.400994
|   |   |   |   Std_Acc1298_Std_Mem40_Rolloff <= 0.166442
|   |   |   |   |   Std_Acc1298_Mean_Mem40_Flux <= 0.119115: 1 (8.0/1.0)
|   |   |   |   |   Std_Acc1298_Mean_Mem40_Flux > 0.119115: 0 (9.0/1.0)
|   |   |   |   Std_Acc1298_Std_Mem40_Rolloff > 0.166442
|   |   |   |   |   Std_Acc1298_Mean_Mem40_MFCC_4 <= 0.364725: 1 (42.0/1.0)
|   |   |   |   |   Std_Acc1298_Mean_Mem40_MFCC_4 > 0.364725
|   |   |   |   |   |   Mean_Acc1298_Mean_Mem40_MFCC_8 <= 0.297967: 1 (7.0)
|   |   |   |   |   |   Mean_Acc1298_Mean_Mem40_MFCC_8 > 0.297967: 0 (4.0)
|   |   |   Mean_Acc1298_Mean_Mem40_MFCC_11 > 0.400994
|   |   |   |   Mean_Acc1298_Mean_Mem40_Centroid <= 0.405975: 0 (18.0)
|   |   |   |   Mean_Acc1298_Mean_Mem40_Centroid > 0.405975: 1 (8.0/1.0)
|   |   Mean_Acc1298_Mean_Mem40_MFCC_9 > 0.829167: 0 (10.0)
|   Std_Acc1298_Std_Mem40_MFCC_7 > 0.194223
|   |   Mean_Acc1298_Mean_Mem40_MFCC_0 <= 0.753977
|   |   |   Std_Acc1298_Std_Mem40_MFCC_2 <= 0.223955
|   |   |   |   Std_Acc1298_Std_Mem40_MFCC_7 <= 0.372853: 0 (11.0)
|   |   |   |   Std_Acc1298_Std_Mem40_MFCC_7 > 0.372853
|   |   |   |   |   BH_LowPeakBPM <= 0.52381: 1 (7.0)
|   |   |   |   |   BH_LowPeakBPM > 0.52381: 0 (3.0)
|   |   |   Std_Acc1298_Std_Mem40_MFCC_2 > 0.223955
|   |   |   |   Std_Acc1298_Std_Mem40_MFCC_0 <= 0.504755
|   |   |   |   |   Std_Acc1298_Std_Mem40_MFCC_3 <= 0.189811
|   |   |   |   |   |   Mean_Acc1298_Std_Mem40_MFCC_9 <= 0.408644: 0 (4.0)
|   |   |   |   |   |   Mean_Acc1298_Std_Mem40_MFCC_9 > 0.408644: 1 (5.0)
|   |   |   |   |   Std_Acc1298_Std_Mem40_MFCC_3 > 0.189811
|   |   |   |   |   |   Std_Acc1298_Std_Mem40_Rolloff <= 0.267981
|   |   |   |   |   |   |   BHSUM2 <= 0.127063
|   |   |   |   |   |   |   |   Mean_Acc1298_Std_Mem40_MFCC_2 <= 0.498937: 0 (6.0/1.0)
|   |   |   |   |   |   |   |   Mean_Acc1298_Std_Mem40_MFCC_2 > 0.498937: 1 (5.0)
|   |   |   |   |   |   |   BHSUM2 > 0.127063: 0 (22.0)
|   |   |   |   |   |   Std_Acc1298_Std_Mem40_Rolloff > 0.267981: 0 (96.0)
|   |   |   |   Std_Acc1298_Std_Mem40_MFCC_0 > 0.504755: 0 (139.0)
|   |   Mean_Acc1298_Mean_Mem40_MFCC_0 > 0.753977
|   |   |   Mean_Acc1298_Mean_Mem40_Centroid <= 0.327734: 0 (13.0)
|   |   |   Mean_Acc1298_Mean_Mem40_Centroid > 0.327734
|   |   |   |   Mean_Acc1298_Mean_Mem40_MFCC_5 <= 0.261102: 0 (8.0)
|   |   |   |   Mean_Acc1298_Mean_Mem40_MFCC_5 > 0.261102
|   |   |   |   |   Std_Acc1298_Mean_Mem40_MFCC_9 <= 0.270821: 1 (22.0/1.0)
|   |   |   |   |   Std_Acc1298_Mean_Mem40_MFCC_9 > 0.270821: 0 (2.0)

Number of Leaves  : 	25

Size of the tree : 	49


meka.classifiers.multitarget.CC: Node #2

J48 pruned tree
------------------

sad-lonely- = 0
|   Mean_Acc1298_Std_Mem40_MFCC_7 <= 0.614183
|   |   Std_Acc1298_Mean_Mem40_MFCC_5 <= 0.103044: 0 (24.0)
|   |   Std_Acc1298_Mean_Mem40_MFCC_5 > 0.103044
|   |   |   Std_Acc1298_Std_Mem40_Flux <= 0.84084
|   |   |   |   Mean_Acc1298_Mean_Mem40_Centroid <= 0.214329
|   |   |   |   |   Mean_Acc1298_Mean_Mem40_MFCC_2 <= 0.505404: 1 (4.0)
|   |   |   |   |   Mean_Acc1298_Mean_Mem40_MFCC_2 > 0.505404: 0 (3.0)
|   |   |   |   Mean_Acc1298_Mean_Mem40_Centroid > 0.214329: 1 (19.0)
|   |   |   Std_Acc1298_Std_Mem40_Flux > 0.84084
|   |   |   |   Mean_Acc1298_Mean_Mem40_Flux <= 0.254326
|   |   |   |   |   Mean_Acc1298_Std_Mem40_MFCC_11 <= 0.273736
|   |   |   |   |   |   Std_Acc1298_Std_Mem40_MFCC_11 <= 0.066671
|   |   |   |   |   |   |   Mean_Acc1298_Mean_Mem40_MFCC_12 <= 0.332239: 1 (2.0)
|   |   |   |   |   |   |   Mean_Acc1298_Mean_Mem40_MFCC_12 > 0.332239: 0 (3.0)
|   |   |   |   |   |   Std_Acc1298_Std_Mem40_MFCC_11 > 0.066671: 0 (26.0)
|   |   |   |   |   Mean_Acc1298_Std_Mem40_MFCC_11 > 0.273736
|   |   |   |   |   |   Std_Acc1298_Std_Mem40_MFCC_7 <= 0.541101
|   |   |   |   |   |   |   Mean_Acc1298_Std_Mem40_MFCC_4 <= 0.414115
|   |   |   |   |   |   |   |   Std_Acc1298_Std_Mem40_MFCC_8 <= 0.478309
|   |   |   |   |   |   |   |   |   Std_Acc1298_Mean_Mem40_MFCC_10 <= 0.140202
|   |   |   |   |   |   |   |   |   |   Mean_Acc1298_Mean_Mem40_MFCC_12 <= 0.601899
|   |   |   |   |   |   |   |   |   |   |   Mean_Acc1298_Mean_Mem40_Flux <= 0.089192: 1 (4.0)
|   |   |   |   |   |   |   |   |   |   |   Mean_Acc1298_Mean_Mem40_Flux > 0.089192
|   |   |   |   |   |   |   |   |   |   |   |   Mean_Acc1298_Std_Mem40_MFCC_7 <= 0.442281: 0 (25.0/1.0)
|   |   |   |   |   |   |   |   |   |   |   |   Mean_Acc1298_Std_Mem40_MFCC_7 > 0.442281: 1 (3.0)
|   |   |   |   |   |   |   |   |   |   Mean_Acc1298_Mean_Mem40_MFCC_12 > 0.601899: 1 (7.0)
|   |   |   |   |   |   |   |   |   Std_Acc1298_Mean_Mem40_MFCC_10 > 0.140202
|   |   |   |   |   |   |   |   |   |   Mean_Acc1298_Mean_Mem40_MFCC_3 <= 0.347842
|   |   |   |   |   |   |   |   |   |   |   Mean_Acc1298_Mean_Mem40_MFCC_8 <= 0.440309: 0 (7.0)
|   |   |   |   |   |   |   |   |   |   |   Mean_Acc1298_Mean_Mem40_MFCC_8 > 0.440309: 1 (4.0)
|   |   |   |   |   |   |   |   |   |   Mean_Acc1298_Mean_Mem40_MFCC_3 > 0.347842
|   |   |   |   |   |   |   |   |   |   |   Mean_Acc1298_Mean_Mem40_Flux <= 0.053396
|   |   |   |   |   |   |   |   |   |   |   |   Mean_Acc1298_Mean_Mem40_MFCC_6 <= 0.341726: 1 (2.0)
|   |   |   |   |   |   |   |   |   |   |   |   Mean_Acc1298_Mean_Mem40_MFCC_6 > 0.341726: 0 (4.0)
|   |   |   |   |   |   |   |   |   |   |   Mean_Acc1298_Mean_Mem40_Flux > 0.053396
|   |   |   |   |   |   |   |   |   |   |   |   Std_Acc1298_Mean_Mem40_MFCC_12 <= 0.228468
|   |   |   |   |   |   |   |   |   |   |   |   |   BH_HighPeakAmp <= 0.30389: 1 (70.0/1.0)
|   |   |   |   |   |   |   |   |   |   |   |   |   BH_HighPeakAmp > 0.30389
|   |   |   |   |   |   |   |   |   |   |   |   |   |   Mean_Acc1298_Mean_Mem40_MFCC_0 <= 0.711746: 0 (2.0)
|   |   |   |   |   |   |   |   |   |   |   |   |   |   Mean_Acc1298_Mean_Mem40_MFCC_0 > 0.711746: 1 (2.0)
|   |   |   |   |   |   |   |   |   |   |   |   Std_Acc1298_Mean_Mem40_MFCC_12 > 0.228468
|   |   |   |   |   |   |   |   |   |   |   |   |   Std_Acc1298_Mean_Mem40_MFCC_4 <= 0.211957: 0 (4.0)
|   |   |   |   |   |   |   |   |   |   |   |   |   Std_Acc1298_Mean_Mem40_MFCC_4 > 0.211957: 1 (7.0)
|   |   |   |   |   |   |   |   Std_Acc1298_Std_Mem40_MFCC_8 > 0.478309: 0 (8.0)
|   |   |   |   |   |   |   Mean_Acc1298_Std_Mem40_MFCC_4 > 0.414115
|   |   |   |   |   |   |   |   BHSUM1 <= 0.054897: 1 (5.0/1.0)
|   |   |   |   |   |   |   |   BHSUM1 > 0.054897
|   |   |   |   |   |   |   |   |   BH_HighPeakAmp <= 0.309826: 0 (30.0)
|   |   |   |   |   |   |   |   |   BH_HighPeakAmp > 0.309826: 1 (2.0)
|   |   |   |   |   |   Std_Acc1298_Std_Mem40_MFCC_7 > 0.541101: 0 (14.0)
|   |   |   |   Mean_Acc1298_Mean_Mem40_Flux > 0.254326: 0 (25.0)
|   Mean_Acc1298_Std_Mem40_MFCC_7 > 0.614183: 0 (34.0)
sad-lonely- = 1: 0 (151.0)

Number of Leaves  : 	28

Size of the tree : 	55


meka.classifiers.multitarget.CC: Node #3

J48 pruned tree
------------------

angry-aggresive- = 0
|   amazed-suprised- = 0
|   |   Std_Acc1298_Std_Mem40_MFCC_9 <= 0.174061: 0 (17.0/1.0)
|   |   Std_Acc1298_Std_Mem40_MFCC_9 > 0.174061
|   |   |   Mean_Acc1298_Std_Mem40_Flux <= 0.117655
|   |   |   |   Std_Acc1298_Mean_Mem40_MFCC_10 <= 0.141606
|   |   |   |   |   Mean_Acc1298_Mean_Mem40_Flux <= 0.076123: 1 (2.0)
|   |   |   |   |   Mean_Acc1298_Mean_Mem40_Flux > 0.076123: 0 (8.0)
|   |   |   |   Std_Acc1298_Mean_Mem40_MFCC_10 > 0.141606
|   |   |   |   |   Mean_Acc1298_Mean_Mem40_MFCC_11 <= 0.16829
|   |   |   |   |   |   sad-lonely- = 0: 1 (2.0)
|   |   |   |   |   |   sad-lonely- = 1: 0 (8.0)
|   |   |   |   |   Mean_Acc1298_Mean_Mem40_MFCC_11 > 0.16829
|   |   |   |   |   |   Mean_Acc1298_Std_Mem40_MFCC_1 <= 0.267091
|   |   |   |   |   |   |   Mean_Acc1298_Mean_Mem40_MFCC_0 <= 0.724971
|   |   |   |   |   |   |   |   Std_Acc1298_Std_Mem40_MFCC_1 <= 0.533854
|   |   |   |   |   |   |   |   |   BH_HighPeakAmp <= 0
|   |   |   |   |   |   |   |   |   |   BH_LowPeakBPM <= 0.285714: 0 (2.0)
|   |   |   |   |   |   |   |   |   |   BH_LowPeakBPM > 0.285714
|   |   |   |   |   |   |   |   |   |   |   Std_Acc1298_Std_Mem40_Flux <= 0.938496: 1 (18.0)
|   |   |   |   |   |   |   |   |   |   |   Std_Acc1298_Std_Mem40_Flux > 0.938496: 0 (2.0)
|   |   |   |   |   |   |   |   |   BH_HighPeakAmp > 0: 1 (85.0/1.0)
|   |   |   |   |   |   |   |   Std_Acc1298_Std_Mem40_MFCC_1 > 0.533854
|   |   |   |   |   |   |   |   |   Std_Acc1298_Mean_Mem40_MFCC_4 <= 0.572874: 1 (11.0/1.0)
|   |   |   |   |   |   |   |   |   Std_Acc1298_Mean_Mem40_MFCC_4 > 0.572874: 0 (5.0)
|   |   |   |   |   |   |   Mean_Acc1298_Mean_Mem40_MFCC_0 > 0.724971
|   |   |   |   |   |   |   |   Std_Acc1298_Mean_Mem40_MFCC_4 <= 0.316826: 0 (5.0)
|   |   |   |   |   |   |   |   Std_Acc1298_Mean_Mem40_MFCC_4 > 0.316826: 1 (3.0)
|   |   |   |   |   |   Mean_Acc1298_Std_Mem40_MFCC_1 > 0.267091
|   |   |   |   |   |   |   Std_Acc1298_Mean_Mem40_MFCC_7 <= 0.188101: 1 (10.0)
|   |   |   |   |   |   |   Std_Acc1298_Mean_Mem40_MFCC_7 > 0.188101
|   |   |   |   |   |   |   |   Mean_Acc1298_Std_Mem40_MFCC_0 <= 0.281078: 0 (14.0/1.0)
|   |   |   |   |   |   |   |   Mean_Acc1298_Std_Mem40_MFCC_0 > 0.281078: 1 (3.0)
|   |   |   Mean_Acc1298_Std_Mem40_Flux > 0.117655: 1 (82.0/2.0)
|   amazed-suprised- = 1
|   |   Std_Acc1298_Std_Mem40_MFCC_5 <= 0.396642: 0 (65.0/1.0)
|   |   Std_Acc1298_Std_Mem40_MFCC_5 > 0.396642
|   |   |   Mean_Acc1298_Mean_Mem40_Rolloff <= 0.332402: 1 (6.0)
|   |   |   Mean_Acc1298_Mean_Mem40_Rolloff > 0.332402: 0 (3.0)
angry-aggresive- = 1
|   BH_HighPeakBPM <= 0.721805: 0 (133.0/1.0)
|   BH_HighPeakBPM > 0.721805
|   |   Mean_Acc1298_Std_Mem40_Rolloff <= 0.277977: 0 (4.0)
|   |   Mean_Acc1298_Std_Mem40_Rolloff > 0.277977: 1 (3.0)

Number of Leaves  : 	23

Size of the tree : 	45


meka.classifiers.multitarget.CC: Node #4

J48 pruned tree
------------------

Mean_Acc1298_Mean_Mem40_Rolloff <= 0.137331
|   Mean_Acc1298_Mean_Mem40_Flux <= 0.193995
|   |   happy-pleased- = 0
|   |   |   amazed-suprised- = 0
|   |   |   |   Mean_Acc1298_Mean_Mem40_MFCC_1 <= 0.45037
|   |   |   |   |   Mean_Acc1298_Mean_Mem40_MFCC_5 <= 0.477599: 1 (5.0)
|   |   |   |   |   Mean_Acc1298_Mean_Mem40_MFCC_5 > 0.477599: 0 (5.0)
|   |   |   |   Mean_Acc1298_Mean_Mem40_MFCC_1 > 0.45037: 1 (111.0/4.0)
|   |   |   amazed-suprised- = 1: 0 (5.0)
|   |   happy-pleased- = 1
|   |   |   Mean_Acc1298_Mean_Mem40_MFCC_10 <= 0.282428: 1 (2.0)
|   |   |   Mean_Acc1298_Mean_Mem40_MFCC_10 > 0.282428: 0 (23.0)
|   Mean_Acc1298_Mean_Mem40_Flux > 0.193995: 0 (26.0)
Mean_Acc1298_Mean_Mem40_Rolloff > 0.137331
|   Std_Acc1298_Mean_Mem40_MFCC_6 <= 0.435987
|   |   Std_Acc1298_Mean_Mem40_MFCC_11 <= 0.242282: 0 (244.0)
|   |   Std_Acc1298_Mean_Mem40_MFCC_11 > 0.242282
|   |   |   BHSUM3 <= 0.063282: 1 (3.0)
|   |   |   BHSUM3 > 0.063282
|   |   |   |   Std_Acc1298_Std_Mem40_Flux <= 0.932485: 0 (47.0/1.0)
|   |   |   |   Std_Acc1298_Std_Mem40_Flux > 0.932485: 1 (3.0/1.0)
|   Std_Acc1298_Mean_Mem40_MFCC_6 > 0.435987
|   |   Std_Acc1298_Mean_Mem40_Centroid <= 0.113631: 0 (6.0)
|   |   Std_Acc1298_Mean_Mem40_Centroid > 0.113631: 1 (11.0)

Number of Leaves  : 	13

Size of the tree : 	25


meka.classifiers.multitarget.CC: Node #5

J48 pruned tree
------------------

Mean_Acc1298_Mean_Mem40_Rolloff <= 0.099545
|   amazed-suprised- = 0
|   |   Std_Acc1298_Std_Mem40_Centroid <= 0.369604
|   |   |   Std_Acc1298_Std_Mem40_MFCC_1 <= 0.27948: 0 (9.0/1.0)
|   |   |   Std_Acc1298_Std_Mem40_MFCC_1 > 0.27948
|   |   |   |   Mean_Acc1298_Std_Mem40_MFCC_6 <= 0.5624
|   |   |   |   |   Mean_Acc1298_Mean_Mem40_MFCC_0 <= 0.469335
|   |   |   |   |   |   Mean_Acc1298_Std_Mem40_MFCC_7 <= 0.32813
|   |   |   |   |   |   |   BHSUM3 <= 0.080549: 0 (3.0)
|   |   |   |   |   |   |   BHSUM3 > 0.080549: 1 (14.0)
|   |   |   |   |   |   Mean_Acc1298_Std_Mem40_MFCC_7 > 0.32813: 0 (8.0)
|   |   |   |   |   Mean_Acc1298_Mean_Mem40_MFCC_0 > 0.469335: 1 (31.0)
|   |   |   |   Mean_Acc1298_Std_Mem40_MFCC_6 > 0.5624: 0 (8.0)
|   |   Std_Acc1298_Std_Mem40_Centroid > 0.369604: 1 (42.0)
|   amazed-suprised- = 1: 0 (8.0)
Mean_Acc1298_Mean_Mem40_Rolloff > 0.099545
|   Std_Acc1298_Mean_Mem40_MFCC_5 <= 0.232022: 0 (151.0/1.0)
|   Std_Acc1298_Mean_Mem40_MFCC_5 > 0.232022
|   |   Mean_Acc1298_Mean_Mem40_MFCC_9 <= 0.904534
|   |   |   Std_Acc1298_Std_Mem40_MFCC_9 <= 0.433078
|   |   |   |   Mean_Acc1298_Std_Mem40_Flux <= 0.203778
|   |   |   |   |   amazed-suprised- = 0
|   |   |   |   |   |   BH_LowPeakBPM <= 0.174603: 0 (16.0)
|   |   |   |   |   |   BH_LowPeakBPM > 0.174603
|   |   |   |   |   |   |   Std_Acc1298_Mean_Mem40_Flux <= 0.197722
|   |   |   |   |   |   |   |   Mean_Acc1298_Mean_Mem40_MFCC_10 <= 0.592975
|   |   |   |   |   |   |   |   |   Std_Acc1298_Std_Mem40_MFCC_2 <= 0.214794: 1 (7.0)
|   |   |   |   |   |   |   |   |   Std_Acc1298_Std_Mem40_MFCC_2 > 0.214794
|   |   |   |   |   |   |   |   |   |   Mean_Acc1298_Mean_Mem40_MFCC_3 <= 0.650743
|   |   |   |   |   |   |   |   |   |   |   BHSUM1 <= 0.647661
|   |   |   |   |   |   |   |   |   |   |   |   Mean_Acc1298_Std_Mem40_Flux <= 0.192116
|   |   |   |   |   |   |   |   |   |   |   |   |   Std_Acc1298_Std_Mem40_MFCC_0 <= 0.379098
|   |   |   |   |   |   |   |   |   |   |   |   |   |   Mean_Acc1298_Mean_Mem40_Centroid <= 0.40699: 1 (4.0)
|   |   |   |   |   |   |   |   |   |   |   |   |   |   Mean_Acc1298_Mean_Mem40_Centroid > 0.40699: 0 (2.0)
|   |   |   |   |   |   |   |   |   |   |   |   |   Std_Acc1298_Std_Mem40_MFCC_0 > 0.379098
|   |   |   |   |   |   |   |   |   |   |   |   |   |   Std_Acc1298_Std_Mem40_MFCC_2 <= 0.483605: 0 (34.0)
|   |   |   |   |   |   |   |   |   |   |   |   |   |   Std_Acc1298_Std_Mem40_MFCC_2 > 0.483605
|   |   |   |   |   |   |   |   |   |   |   |   |   |   |   Mean_Acc1298_Mean_Mem40_MFCC_4 <= 0.486689: 0 (2.0)
|   |   |   |   |   |   |   |   |   |   |   |   |   |   |   Mean_Acc1298_Mean_Mem40_MFCC_4 > 0.486689: 1 (2.0)
|   |   |   |   |   |   |   |   |   |   |   |   Mean_Acc1298_Std_Mem40_Flux > 0.192116: 1 (3.0)
|   |   |   |   |   |   |   |   |   |   |   BHSUM1 > 0.647661: 1 (3.0)
|   |   |   |   |   |   |   |   |   |   Mean_Acc1298_Mean_Mem40_MFCC_3 > 0.650743: 1 (4.0)
|   |   |   |   |   |   |   |   Mean_Acc1298_Mean_Mem40_MFCC_10 > 0.592975: 1 (12.0/1.0)
|   |   |   |   |   |   |   Std_Acc1298_Mean_Mem40_Flux > 0.197722: 1 (14.0)
|   |   |   |   |   amazed-suprised- = 1
|   |   |   |   |   |   Std_Acc1298_Std_Mem40_MFCC_11 <= 0.068933: 1 (3.0)
|   |   |   |   |   |   Std_Acc1298_Std_Mem40_MFCC_11 > 0.068933: 0 (36.0/1.0)
|   |   |   |   Mean_Acc1298_Std_Mem40_Flux > 0.203778: 0 (27.0)
|   |   |   Std_Acc1298_Std_Mem40_MFCC_9 > 0.433078: 0 (37.0)
|   |   Mean_Acc1298_Mean_Mem40_MFCC_9 > 0.904534: 1 (11.0/1.0)

Number of Leaves  : 	26

Size of the tree : 	51


meka.classifiers.multitarget.CC: Node #6

J48 pruned tree
------------------

Std_Acc1298_Mean_Mem40_MFCC_11 <= 0.178071
|   happy-pleased- = 0
|   |   quiet-still- = 0
|   |   |   sad-lonely- = 0
|   |   |   |   Mean_Acc1298_Mean_Mem40_Rolloff <= 0.756032
|   |   |   |   |   Mean_Acc1298_Mean_Mem40_MFCC_12 <= 0.284701
|   |   |   |   |   |   amazed-suprised- = 0: 1 (2.0)
|   |   |   |   |   |   amazed-suprised- = 1
|   |   |   |   |   |   |   Std_Acc1298_Std_Mem40_Centroid <= 0.316024: 1 (4.0)
|   |   |   |   |   |   |   Std_Acc1298_Std_Mem40_Centroid > 0.316024: 0 (8.0)
|   |   |   |   |   Mean_Acc1298_Mean_Mem40_MFCC_12 > 0.284701
|   |   |   |   |   |   BHSUM1 <= 0.293689: 1 (66.0)
|   |   |   |   |   |   BHSUM1 > 0.293689
|   |   |   |   |   |   |   BHSUM1 <= 0.311388: 0 (3.0)
|   |   |   |   |   |   |   BHSUM1 > 0.311388
|   |   |   |   |   |   |   |   Mean_Acc1298_Mean_Mem40_MFCC_9 <= 0.804806
|   |   |   |   |   |   |   |   |   Mean_Acc1298_Std_Mem40_MFCC_6 <= 0.574664: 1 (33.0)
|   |   |   |   |   |   |   |   |   Mean_Acc1298_Std_Mem40_MFCC_6 > 0.574664
|   |   |   |   |   |   |   |   |   |   Mean_Acc1298_Mean_Mem40_MFCC_6 <= 0.500503: 0 (2.0)
|   |   |   |   |   |   |   |   |   |   Mean_Acc1298_Mean_Mem40_MFCC_6 > 0.500503: 1 (3.0)
|   |   |   |   |   |   |   |   Mean_Acc1298_Mean_Mem40_MFCC_9 > 0.804806: 0 (2.0)
|   |   |   |   Mean_Acc1298_Mean_Mem40_Rolloff > 0.756032
|   |   |   |   |   Mean_Acc1298_Mean_Mem40_MFCC_4 <= 0.482434: 1 (2.0)
|   |   |   |   |   Mean_Acc1298_Mean_Mem40_MFCC_4 > 0.482434: 0 (8.0)
|   |   |   sad-lonely- = 1
|   |   |   |   BH_HighPeakAmp <= 0.006142: 1 (8.0)
|   |   |   |   BH_HighPeakAmp > 0.006142
|   |   |   |   |   Mean_Acc1298_Mean_Mem40_MFCC_11 <= 0.32909: 1 (3.0/1.0)
|   |   |   |   |   Mean_Acc1298_Mean_Mem40_MFCC_11 > 0.32909: 0 (16.0)
|   |   quiet-still- = 1: 0 (13.0)
|   happy-pleased- = 1
|   |   Std_Acc1298_Std_Mem40_MFCC_10 <= 0.081718
|   |   |   Mean_Acc1298_Mean_Mem40_MFCC_8 <= 0.46132: 1 (6.0)
|   |   |   Mean_Acc1298_Mean_Mem40_MFCC_8 > 0.46132: 0 (8.0)
|   |   Std_Acc1298_Std_Mem40_MFCC_10 > 0.081718: 0 (43.0)
Std_Acc1298_Mean_Mem40_MFCC_11 > 0.178071
|   Std_Acc1298_Mean_Mem40_MFCC_1 <= 0.164508
|   |   Std_Acc1298_Mean_Mem40_MFCC_12 <= 0.109627: 1 (7.0)
|   |   Std_Acc1298_Mean_Mem40_MFCC_12 > 0.109627
|   |   |   Mean_Acc1298_Mean_Mem40_MFCC_10 <= 0.578563: 0 (13.0)
|   |   |   Mean_Acc1298_Mean_Mem40_MFCC_10 > 0.578563: 1 (3.0)
|   Std_Acc1298_Mean_Mem40_MFCC_1 > 0.164508: 0 (238.0/4.0)

Number of Leaves  : 	22

Size of the tree : 	43


meka.classifiers.multitarget.meta.BaggingMT: Model #5

meka.classifiers.multitarget.CC: Node #1

J48 pruned tree
------------------

Std_Acc1298_Mean_Mem40_MFCC_5 <= 0.147491
|   Mean_Acc1298_Std_Mem40_MFCC_8 <= 0.262223
|   |   BH_HighPeakAmp <= 0.020741: 0 (4.0/1.0)
|   |   BH_HighPeakAmp > 0.020741: 1 (46.0/2.0)
|   Mean_Acc1298_Std_Mem40_MFCC_8 > 0.262223: 0 (3.0)
Std_Acc1298_Mean_Mem40_MFCC_5 > 0.147491
|   Std_Acc1298_Std_Mem40_MFCC_10 <= 0.079769
|   |   Std_Acc1298_Mean_Mem40_MFCC_8 <= 0.154782
|   |   |   Mean_Acc1298_Mean_Mem40_Centroid <= 0.30414: 0 (2.0)
|   |   |   Mean_Acc1298_Mean_Mem40_Centroid > 0.30414: 1 (22.0/1.0)
|   |   Std_Acc1298_Mean_Mem40_MFCC_8 > 0.154782: 0 (4.0)
|   Std_Acc1298_Std_Mem40_MFCC_10 > 0.079769
|   |   Mean_Acc1298_Mean_Mem40_MFCC_0 <= 0.807595
|   |   |   Std_Acc1298_Std_Mem40_MFCC_7 <= 0.194402
|   |   |   |   Mean_Acc1298_Std_Mem40_MFCC_9 <= 0.283223: 0 (18.0/1.0)
|   |   |   |   Mean_Acc1298_Std_Mem40_MFCC_9 > 0.283223
|   |   |   |   |   Mean_Acc1298_Mean_Mem40_MFCC_5 <= 0.573073
|   |   |   |   |   |   Mean_Acc1298_Mean_Mem40_MFCC_2 <= 0.399481
|   |   |   |   |   |   |   Mean_Acc1298_Std_Mem40_MFCC_0 <= 0.139611: 1 (4.0)
|   |   |   |   |   |   |   Mean_Acc1298_Std_Mem40_MFCC_0 > 0.139611: 0 (3.0)
|   |   |   |   |   |   Mean_Acc1298_Mean_Mem40_MFCC_2 > 0.399481: 1 (15.0)
|   |   |   |   |   Mean_Acc1298_Mean_Mem40_MFCC_5 > 0.573073: 0 (4.0)
|   |   |   Std_Acc1298_Std_Mem40_MFCC_7 > 0.194402
|   |   |   |   quiet-still- = 0
|   |   |   |   |   Std_Acc1298_Std_Mem40_MFCC_10 <= 0.321353
|   |   |   |   |   |   Std_Acc1298_Mean_Mem40_MFCC_5 <= 0.234843
|   |   |   |   |   |   |   Mean_Acc1298_Mean_Mem40_MFCC_7 <= 0.670198
|   |   |   |   |   |   |   |   Mean_Acc1298_Std_Mem40_MFCC_3 <= 0.653148: 0 (40.0/1.0)
|   |   |   |   |   |   |   |   Mean_Acc1298_Std_Mem40_MFCC_3 > 0.653148: 1 (4.0/1.0)
|   |   |   |   |   |   |   Mean_Acc1298_Mean_Mem40_MFCC_7 > 0.670198: 1 (4.0)
|   |   |   |   |   |   Std_Acc1298_Mean_Mem40_MFCC_5 > 0.234843: 0 (137.0/1.0)
|   |   |   |   |   Std_Acc1298_Std_Mem40_MFCC_10 > 0.321353
|   |   |   |   |   |   Std_Acc1298_Std_Mem40_Rolloff <= 0.215493: 1 (6.0)
|   |   |   |   |   |   Std_Acc1298_Std_Mem40_Rolloff > 0.215493
|   |   |   |   |   |   |   Std_Acc1298_Std_Mem40_MFCC_6 <= 0.742526: 0 (17.0/1.0)
|   |   |   |   |   |   |   Std_Acc1298_Std_Mem40_MFCC_6 > 0.742526: 1 (3.0)
|   |   |   |   quiet-still- = 1: 0 (123.0)
|   |   Mean_Acc1298_Mean_Mem40_MFCC_0 > 0.807595
|   |   |   Std_Acc1298_Mean_Mem40_MFCC_1 <= 0.198083
|   |   |   |   Std_Acc1298_Mean_Mem40_MFCC_5 <= 0.181922: 0 (4.0)
|   |   |   |   Std_Acc1298_Mean_Mem40_MFCC_5 > 0.181922: 1 (19.0)
|   |   |   Std_Acc1298_Mean_Mem40_MFCC_1 > 0.198083: 0 (9.0/1.0)

Number of Leaves  : 	22

Size of the tree : 	43


meka.classifiers.multitarget.CC: Node #2

J48 pruned tree
------------------

Mean_Acc1298_Mean_Mem40_Centroid <= 0.106705: 0 (35.0)
Mean_Acc1298_Mean_Mem40_Centroid > 0.106705
|   Std_Acc1298_Mean_Mem40_MFCC_10 <= 0.074951: 0 (46.0/1.0)
|   Std_Acc1298_Mean_Mem40_MFCC_10 > 0.074951
|   |   Std_Acc1298_Std_Mem40_MFCC_2 <= 0.461884
|   |   |   Std_Acc1298_Std_Mem40_MFCC_12 <= 0.275288
|   |   |   |   Mean_Acc1298_Std_Mem40_Flux <= 0.218037
|   |   |   |   |   Mean_Acc1298_Mean_Mem40_MFCC_11 <= 0.268279: 0 (23.0)
|   |   |   |   |   Mean_Acc1298_Mean_Mem40_MFCC_11 > 0.268279
|   |   |   |   |   |   Mean_Acc1298_Std_Mem40_MFCC_4 <= 0.146806: 0 (23.0)
|   |   |   |   |   |   Mean_Acc1298_Std_Mem40_MFCC_4 > 0.146806
|   |   |   |   |   |   |   Mean_Acc1298_Std_Mem40_MFCC_12 <= 0.336321
|   |   |   |   |   |   |   |   Mean_Acc1298_Std_Mem40_MFCC_3 <= 0.094251
|   |   |   |   |   |   |   |   |   Mean_Acc1298_Mean_Mem40_MFCC_12 <= 0.415951: 1 (12.0)
|   |   |   |   |   |   |   |   |   Mean_Acc1298_Mean_Mem40_MFCC_12 > 0.415951: 0 (2.0)
|   |   |   |   |   |   |   |   Mean_Acc1298_Std_Mem40_MFCC_3 > 0.094251
|   |   |   |   |   |   |   |   |   Std_Acc1298_Std_Mem40_MFCC_6 <= 0.246089: 0 (25.0/1.0)
|   |   |   |   |   |   |   |   |   Std_Acc1298_Std_Mem40_MFCC_6 > 0.246089
|   |   |   |   |   |   |   |   |   |   Mean_Acc1298_Mean_Mem40_MFCC_3 <= 0.322359: 1 (9.0)
|   |   |   |   |   |   |   |   |   |   Mean_Acc1298_Mean_Mem40_MFCC_3 > 0.322359
|   |   |   |   |   |   |   |   |   |   |   Mean_Acc1298_Std_Mem40_MFCC_1 <= 0.384134
|   |   |   |   |   |   |   |   |   |   |   |   Std_Acc1298_Std_Mem40_MFCC_0 <= 0.337075: 1 (7.0)
|   |   |   |   |   |   |   |   |   |   |   |   Std_Acc1298_Std_Mem40_MFCC_0 > 0.337075
|   |   |   |   |   |   |   |   |   |   |   |   |   Mean_Acc1298_Mean_Mem40_MFCC_11 <= 0.524656
|   |   |   |   |   |   |   |   |   |   |   |   |   |   Std_Acc1298_Mean_Mem40_Centroid <= 0.06397
|   |   |   |   |   |   |   |   |   |   |   |   |   |   |   BHSUM1 <= 0.318752: 1 (17.0/1.0)
|   |   |   |   |   |   |   |   |   |   |   |   |   |   |   BHSUM1 > 0.318752: 0 (4.0)
|   |   |   |   |   |   |   |   |   |   |   |   |   |   Std_Acc1298_Mean_Mem40_Centroid > 0.06397
|   |   |   |   |   |   |   |   |   |   |   |   |   |   |   Std_Acc1298_Mean_Mem40_Flux <= 0.166725
|   |   |   |   |   |   |   |   |   |   |   |   |   |   |   |   Mean_Acc1298_Std_Mem40_MFCC_0 <= 0.296584
|   |   |   |   |   |   |   |   |   |   |   |   |   |   |   |   |   Std_Acc1298_Std_Mem40_MFCC_11 <= 0.084356: 1 (5.0)
|   |   |   |   |   |   |   |   |   |   |   |   |   |   |   |   |   Std_Acc1298_Std_Mem40_MFCC_11 > 0.084356
|   |   |   |   |   |   |   |   |   |   |   |   |   |   |   |   |   |   Std_Acc1298_Mean_Mem40_Rolloff <= 0.097886: 1 (4.0)
|   |   |   |   |   |   |   |   |   |   |   |   |   |   |   |   |   |   Std_Acc1298_Mean_Mem40_Rolloff > 0.097886
|   |   |   |   |   |   |   |   |   |   |   |   |   |   |   |   |   |   |   Std_Acc1298_Std_Mem40_MFCC_10 <= 0.29877: 0 (25.0/1.0)
|   |   |   |   |   |   |   |   |   |   |   |   |   |   |   |   |   |   |   Std_Acc1298_Std_Mem40_MFCC_10 > 0.29877
|   |   |   |   |   |   |   |   |   |   |   |   |   |   |   |   |   |   |   |   Mean_Acc1298_Mean_Mem40_Flux <= 0.094874: 0 (2.0)
|   |   |   |   |   |   |   |   |   |   |   |   |   |   |   |   |   |   |   |   Mean_Acc1298_Mean_Mem40_Flux > 0.094874: 1 (4.0)
|   |   |   |   |   |   |   |   |   |   |   |   |   |   |   |   Mean_Acc1298_Std_Mem40_MFCC_0 > 0.296584: 1 (5.0)
|   |   |   |   |   |   |   |   |   |   |   |   |   |   |   Std_Acc1298_Mean_Mem40_Flux > 0.166725: 0 (32.0/1.0)
|   |   |   |   |   |   |   |   |   |   |   |   |   Mean_Acc1298_Mean_Mem40_MFCC_11 > 0.524656: 1 (6.0)
|   |   |   |   |   |   |   |   |   |   |   Mean_Acc1298_Std_Mem40_MFCC_1 > 0.384134: 0 (17.0)
|   |   |   |   |   |   |   Mean_Acc1298_Std_Mem40_MFCC_12 > 0.336321: 0 (17.0)
|   |   |   |   Mean_Acc1298_Std_Mem40_Flux > 0.218037
|   |   |   |   |   Mean_Acc1298_Mean_Mem40_MFCC_0 <= 0.649467: 1 (16.0)
|   |   |   |   |   Mean_Acc1298_Mean_Mem40_MFCC_0 > 0.649467: 0 (3.0)
|   |   |   Std_Acc1298_Std_Mem40_MFCC_12 > 0.275288
|   |   |   |   Mean_Acc1298_Mean_Mem40_MFCC_9 <= 0.679223
|   |   |   |   |   Mean_Acc1298_Mean_Mem40_Flux <= 0.071458
|   |   |   |   |   |   Mean_Acc1298_Std_Mem40_MFCC_1 <= 0.088181: 1 (2.0)
|   |   |   |   |   |   Mean_Acc1298_Std_Mem40_MFCC_1 > 0.088181: 0 (6.0)
|   |   |   |   |   Mean_Acc1298_Mean_Mem40_Flux > 0.071458
|   |   |   |   |   |   Std_Acc1298_Mean_Mem40_MFCC_1 <= 0.364235: 1 (36.0)
|   |   |   |   |   |   Std_Acc1298_Mean_Mem40_MFCC_1 > 0.364235
|   |   |   |   |   |   |   Mean_Acc1298_Mean_Mem40_MFCC_5 <= 0.437941: 1 (5.0)
|   |   |   |   |   |   |   Mean_Acc1298_Mean_Mem40_MFCC_5 > 0.437941: 0 (2.0)
|   |   |   |   Mean_Acc1298_Mean_Mem40_MFCC_9 > 0.679223: 0 (10.0)
|   |   Std_Acc1298_Std_Mem40_MFCC_2 > 0.461884
|   |   |   Mean_Acc1298_Mean_Mem40_MFCC_11 <= 0.405327
|   |   |   |   BH_HighPeakBPM <= 0.210526
|   |   |   |   |   Mean_Acc1298_Mean_Mem40_MFCC_6 <= 0.465351: 1 (2.0)
|   |   |   |   |   Mean_Acc1298_Mean_Mem40_MFCC_6 > 0.465351: 0 (10.0/1.0)
|   |   |   |   BH_HighPeakBPM > 0.210526: 0 (54.0)
|   |   |   Mean_Acc1298_Mean_Mem40_MFCC_11 > 0.405327
|   |   |   |   BH_HighPeakAmp <= 0.094972
|   |   |   |   |   Std_Acc1298_Std_Mem40_MFCC_6 <= 0.809573: 0 (16.0)
|   |   |   |   |   Std_Acc1298_Std_Mem40_MFCC_6 > 0.809573: 1 (2.0)
|   |   |   |   BH_HighPeakAmp > 0.094972: 1 (7.0)

Number of Leaves  : 	35

Size of the tree : 	69


meka.classifiers.multitarget.CC: Node #3

J48 pruned tree
------------------

amazed-suprised- = 0
|   Std_Acc1298_Std_Mem40_MFCC_11 <= 0.084987: 0 (35.0)
|   Std_Acc1298_Std_Mem40_MFCC_11 > 0.084987
|   |   Mean_Acc1298_Mean_Mem40_MFCC_0 <= 0.759494
|   |   |   Std_Acc1298_Mean_Mem40_MFCC_10 <= 0.118101
|   |   |   |   happy-pleased- = 0
|   |   |   |   |   sad-lonely- = 0: 0 (28.0)
|   |   |   |   |   sad-lonely- = 1: 1 (2.0)
|   |   |   |   happy-pleased- = 1: 1 (8.0)
|   |   |   Std_Acc1298_Mean_Mem40_MFCC_10 > 0.118101
|   |   |   |   Mean_Acc1298_Mean_Mem40_Rolloff <= 0.032925
|   |   |   |   |   Mean_Acc1298_Std_Mem40_MFCC_2 <= 0.171222: 1 (9.0)
|   |   |   |   |   Mean_Acc1298_Std_Mem40_MFCC_2 > 0.171222
|   |   |   |   |   |   Mean_Acc1298_Mean_Mem40_MFCC_0 <= 0.369251: 1 (3.0)
|   |   |   |   |   |   Mean_Acc1298_Mean_Mem40_MFCC_0 > 0.369251: 0 (19.0/1.0)
|   |   |   |   Mean_Acc1298_Mean_Mem40_Rolloff > 0.032925
|   |   |   |   |   Mean_Acc1298_Mean_Mem40_MFCC_9 <= 0.850346
|   |   |   |   |   |   Std_Acc1298_Mean_Mem40_MFCC_8 <= 0.08164
|   |   |   |   |   |   |   Std_Acc1298_Std_Mem40_MFCC_5 <= 0.265184: 0 (8.0)
|   |   |   |   |   |   |   Std_Acc1298_Std_Mem40_MFCC_5 > 0.265184: 1 (5.0)
|   |   |   |   |   |   Std_Acc1298_Mean_Mem40_MFCC_8 > 0.08164
|   |   |   |   |   |   |   Mean_Acc1298_Mean_Mem40_Centroid <= 0.459001
|   |   |   |   |   |   |   |   Std_Acc1298_Std_Mem40_MFCC_7 <= 0.545791: 1 (185.0/5.0)
|   |   |   |   |   |   |   |   Std_Acc1298_Std_Mem40_MFCC_7 > 0.545791
|   |   |   |   |   |   |   |   |   Mean_Acc1298_Std_Mem40_MFCC_12 <= 0.283217: 0 (6.0)
|   |   |   |   |   |   |   |   |   Mean_Acc1298_Std_Mem40_MFCC_12 > 0.283217: 1 (10.0)
|   |   |   |   |   |   |   Mean_Acc1298_Mean_Mem40_Centroid > 0.459001
|   |   |   |   |   |   |   |   Mean_Acc1298_Mean_Mem40_Centroid <= 0.517647: 0 (7.0/1.0)
|   |   |   |   |   |   |   |   Mean_Acc1298_Mean_Mem40_Centroid > 0.517647: 1 (4.0)
|   |   |   |   |   Mean_Acc1298_Mean_Mem40_MFCC_9 > 0.850346
|   |   |   |   |   |   Std_Acc1298_Mean_Mem40_MFCC_6 <= 0.458363: 0 (8.0)
|   |   |   |   |   |   Std_Acc1298_Mean_Mem40_MFCC_6 > 0.458363: 1 (4.0)
|   |   Mean_Acc1298_Mean_Mem40_MFCC_0 > 0.759494
|   |   |   Mean_Acc1298_Mean_Mem40_MFCC_7 <= 0.376511: 1 (2.0)
|   |   |   Mean_Acc1298_Mean_Mem40_MFCC_7 > 0.376511: 0 (23.0)
amazed-suprised- = 1
|   Std_Acc1298_Mean_Mem40_MFCC_11 <= 0.250064: 0 (108.0)
|   Std_Acc1298_Mean_Mem40_MFCC_11 > 0.250064
|   |   Mean_Acc1298_Mean_Mem40_MFCC_2 <= 0.325644: 1 (3.0)
|   |   Mean_Acc1298_Mean_Mem40_MFCC_2 > 0.325644: 0 (14.0/1.0)

Number of Leaves  : 	21

Size of the tree : 	41


meka.classifiers.multitarget.CC: Node #4

J48 pruned tree
------------------

Mean_Acc1298_Mean_Mem40_Rolloff <= 0.118518
|   Mean_Acc1298_Mean_Mem40_Flux <= 0.193995
|   |   happy-pleased- = 0
|   |   |   Std_Acc1298_Std_Mem40_MFCC_12 <= 0.091182
|   |   |   |   Mean_Acc1298_Mean_Mem40_MFCC_1 <= 0.690951: 0 (4.0)
|   |   |   |   Mean_Acc1298_Mean_Mem40_MFCC_1 > 0.690951: 1 (2.0)
|   |   |   Std_Acc1298_Std_Mem40_MFCC_12 > 0.091182: 1 (104.0/1.0)
|   |   happy-pleased- = 1
|   |   |   Mean_Acc1298_Mean_Mem40_MFCC_5 <= 0.504469: 0 (13.0)
|   |   |   Mean_Acc1298_Mean_Mem40_MFCC_5 > 0.504469: 1 (2.0)
|   Mean_Acc1298_Mean_Mem40_Flux > 0.193995: 0 (24.0)
Mean_Acc1298_Mean_Mem40_Rolloff > 0.118518
|   Mean_Acc1298_Mean_Mem40_MFCC_0 <= 0.401023
|   |   Std_Acc1298_Mean_Mem40_Flux <= 0.11524: 0 (9.0/1.0)
|   |   Std_Acc1298_Mean_Mem40_Flux > 0.11524: 1 (11.0)
|   Mean_Acc1298_Mean_Mem40_MFCC_0 > 0.401023
|   |   Std_Acc1298_Mean_Mem40_MFCC_12 <= 0.232299
|   |   |   BH_LowPeakAmp <= 0.021065
|   |   |   |   Mean_Acc1298_Mean_Mem40_MFCC_2 <= 0.578041: 0 (35.0/1.0)
|   |   |   |   Mean_Acc1298_Mean_Mem40_MFCC_2 > 0.578041: 1 (5.0)
|   |   |   BH_LowPeakAmp > 0.021065: 0 (260.0)
|   |   Std_Acc1298_Mean_Mem40_MFCC_12 > 0.232299
|   |   |   Std_Acc1298_Std_Mem40_MFCC_9 <= 0.400977: 1 (7.0)
|   |   |   Std_Acc1298_Std_Mem40_MFCC_9 > 0.400977: 0 (15.0)

Number of Leaves  : 	13

Size of the tree : 	25


meka.classifiers.multitarget.CC: Node #5

J48 pruned tree
------------------

quiet-still- = 0
|   happy-pleased- = 0
|   |   Mean_Acc1298_Std_Mem40_Centroid <= 0.299243
|   |   |   Std_Acc1298_Std_Mem40_MFCC_6 <= 0.584559
|   |   |   |   Mean_Acc1298_Mean_Mem40_MFCC_3 <= 0.478405
|   |   |   |   |   Std_Acc1298_Std_Mem40_MFCC_1 <= 0.369211: 0 (54.0/3.0)
|   |   |   |   |   Std_Acc1298_Std_Mem40_MFCC_1 > 0.369211
|   |   |   |   |   |   Mean_Acc1298_Mean_Mem40_MFCC_11 <= 0.374734: 1 (7.0)
|   |   |   |   |   |   Mean_Acc1298_Mean_Mem40_MFCC_11 > 0.374734: 0 (9.0)
|   |   |   |   Mean_Acc1298_Mean_Mem40_MFCC_3 > 0.478405
|   |   |   |   |   Mean_Acc1298_Mean_Mem40_MFCC_10 <= 0.352265: 0 (11.0)
|   |   |   |   |   Mean_Acc1298_Mean_Mem40_MFCC_10 > 0.352265
|   |   |   |   |   |   Std_Acc1298_Std_Mem40_MFCC_1 <= 0.134224: 0 (6.0)
|   |   |   |   |   |   Std_Acc1298_Std_Mem40_MFCC_1 > 0.134224
|   |   |   |   |   |   |   Mean_Acc1298_Std_Mem40_MFCC_3 <= 0.566164
|   |   |   |   |   |   |   |   Std_Acc1298_Std_Mem40_MFCC_5 <= 0.243466
|   |   |   |   |   |   |   |   |   Mean_Acc1298_Std_Mem40_MFCC_1 <= 0.045649: 1 (3.0)
|   |   |   |   |   |   |   |   |   Mean_Acc1298_Std_Mem40_MFCC_1 > 0.045649: 0 (7.0)
|   |   |   |   |   |   |   |   Std_Acc1298_Std_Mem40_MFCC_5 > 0.243466: 1 (24.0/1.0)
|   |   |   |   |   |   |   Mean_Acc1298_Std_Mem40_MFCC_3 > 0.566164: 0 (2.0)
|   |   |   Std_Acc1298_Std_Mem40_MFCC_6 > 0.584559: 1 (12.0/1.0)
|   |   Mean_Acc1298_Std_Mem40_Centroid > 0.299243
|   |   |   Std_Acc1298_Mean_Mem40_MFCC_8 <= 0.128254: 0 (68.0)
|   |   |   Std_Acc1298_Mean_Mem40_MFCC_8 > 0.128254
|   |   |   |   Mean_Acc1298_Mean_Mem40_MFCC_1 <= 0.406135
|   |   |   |   |   Mean_Acc1298_Mean_Mem40_MFCC_4 <= 0.455339: 1 (2.0)
|   |   |   |   |   Mean_Acc1298_Mean_Mem40_MFCC_4 > 0.455339: 0 (15.0)
|   |   |   |   Mean_Acc1298_Mean_Mem40_MFCC_1 > 0.406135: 1 (2.0)
|   happy-pleased- = 1: 0 (137.0/1.0)
quiet-still- = 1
|   happy-pleased- = 0
|   |   Std_Acc1298_Std_Mem40_MFCC_11 <= 0.106099: 0 (14.0)
|   |   Std_Acc1298_Std_Mem40_MFCC_11 > 0.106099
|   |   |   Mean_Acc1298_Std_Mem40_MFCC_10 <= 0.54545
|   |   |   |   Std_Acc1298_Std_Mem40_Rolloff <= 0.215493: 0 (9.0/1.0)
|   |   |   |   Std_Acc1298_Std_Mem40_Rolloff > 0.215493
|   |   |   |   |   Std_Acc1298_Mean_Mem40_Flux <= 0.242515
|   |   |   |   |   |   Std_Acc1298_Std_Mem40_MFCC_10 <= 0.354494: 1 (67.0)
|   |   |   |   |   |   Std_Acc1298_Std_Mem40_MFCC_10 > 0.354494
|   |   |   |   |   |   |   Std_Acc1298_Std_Mem40_MFCC_10 <= 0.388614: 0 (3.0)
|   |   |   |   |   |   |   Std_Acc1298_Std_Mem40_MFCC_10 > 0.388614
|   |   |   |   |   |   |   |   Mean_Acc1298_Mean_Mem40_MFCC_10 <= 0.069906: 0 (2.0)
|   |   |   |   |   |   |   |   Mean_Acc1298_Mean_Mem40_MFCC_10 > 0.069906: 1 (15.0)
|   |   |   |   |   Std_Acc1298_Mean_Mem40_Flux > 0.242515: 0 (5.0/1.0)
|   |   |   Mean_Acc1298_Std_Mem40_MFCC_10 > 0.54545: 0 (11.0/1.0)
|   happy-pleased- = 1: 0 (6.0)

Number of Leaves  : 	24

Size of the tree : 	47


meka.classifiers.multitarget.CC: Node #6

J48 pruned tree
------------------

Std_Acc1298_Mean_Mem40_MFCC_10 <= 0.119543
|   happy-pleased- = 0
|   |   Std_Acc1298_Std_Mem40_Flux <= 0.814008: 0 (6.0/1.0)
|   |   Std_Acc1298_Std_Mem40_Flux > 0.814008
|   |   |   sad-lonely- = 0
|   |   |   |   Std_Acc1298_Std_Mem40_MFCC_1 <= 0.106267
|   |   |   |   |   Mean_Acc1298_Mean_Mem40_MFCC_2 <= 0.378176: 1 (5.0)
|   |   |   |   |   Mean_Acc1298_Mean_Mem40_MFCC_2 > 0.378176
|   |   |   |   |   |   Mean_Acc1298_Mean_Mem40_Flux <= 0.252225: 0 (6.0)
|   |   |   |   |   |   Mean_Acc1298_Mean_Mem40_Flux > 0.252225: 1 (2.0)
|   |   |   |   Std_Acc1298_Std_Mem40_MFCC_1 > 0.106267: 1 (87.0/2.0)
|   |   |   sad-lonely- = 1
|   |   |   |   Mean_Acc1298_Mean_Mem40_MFCC_6 <= 0.470117: 1 (6.0)
|   |   |   |   Mean_Acc1298_Mean_Mem40_MFCC_6 > 0.470117: 0 (7.0/1.0)
|   happy-pleased- = 1
|   |   Std_Acc1298_Std_Mem40_MFCC_0 <= 0.516707: 0 (21.0/1.0)
|   |   Std_Acc1298_Std_Mem40_MFCC_0 > 0.516707: 1 (3.0)
Std_Acc1298_Mean_Mem40_MFCC_10 > 0.119543
|   Std_Acc1298_Mean_Mem40_MFCC_0 <= 0.138465
|   |   Mean_Acc1298_Mean_Mem40_Flux <= 0.255761
|   |   |   Mean_Acc1298_Mean_Mem40_MFCC_0 <= 0.882902
|   |   |   |   BH_HighPeakBPM <= 0.684211
|   |   |   |   |   relaxing-clam- = 0
|   |   |   |   |   |   BHSUM1 <= 0.067087: 1 (5.0)
|   |   |   |   |   |   BHSUM1 > 0.067087
|   |   |   |   |   |   |   BH_HighPeakAmp <= 0.003617
|   |   |   |   |   |   |   |   Mean_Acc1298_Mean_Mem40_MFCC_0 <= 0.742495: 0 (2.0)
|   |   |   |   |   |   |   |   Mean_Acc1298_Mean_Mem40_MFCC_0 > 0.742495: 1 (3.0)
|   |   |   |   |   |   |   BH_HighPeakAmp > 0.003617: 0 (26.0/1.0)
|   |   |   |   |   relaxing-clam- = 1: 0 (38.0)
|   |   |   |   BH_HighPeakBPM > 0.684211: 1 (7.0/1.0)
|   |   |   Mean_Acc1298_Mean_Mem40_MFCC_0 > 0.882902: 1 (9.0)
|   |   Mean_Acc1298_Mean_Mem40_Flux > 0.255761: 1 (9.0)
|   Std_Acc1298_Mean_Mem40_MFCC_0 > 0.138465
|   |   relaxing-clam- = 0
|   |   |   quiet-still- = 0
|   |   |   |   Std_Acc1298_Std_Mem40_MFCC_9 <= 0.616456
|   |   |   |   |   Mean_Acc1298_Std_Mem40_MFCC_1 <= 0.057038: 1 (2.0)
|   |   |   |   |   Mean_Acc1298_Std_Mem40_MFCC_1 > 0.057038
|   |   |   |   |   |   BHSUM3 <= 0.117945: 1 (3.0/1.0)
|   |   |   |   |   |   BHSUM3 > 0.117945: 0 (30.0)
|   |   |   |   Std_Acc1298_Std_Mem40_MFCC_9 > 0.616456: 1 (3.0)
|   |   |   quiet-still- = 1: 0 (34.0)
|   |   relaxing-clam- = 1: 0 (177.0)

Number of Leaves  : 	23

Size of the tree : 	45


meka.classifiers.multitarget.meta.BaggingMT: Model #6

meka.classifiers.multitarget.CC: Node #1

J48 pruned tree
------------------

Std_Acc1298_Std_Mem40_MFCC_6 <= 0.324134
|   quiet-still- = 0
|   |   Std_Acc1298_Mean_Mem40_MFCC_8 <= 0.009431: 0 (9.0/1.0)
|   |   Std_Acc1298_Mean_Mem40_MFCC_8 > 0.009431
|   |   |   Std_Acc1298_Mean_Mem40_MFCC_10 <= 0.068934: 1 (40.0)
|   |   |   Std_Acc1298_Mean_Mem40_MFCC_10 > 0.068934
|   |   |   |   Std_Acc1298_Mean_Mem40_MFCC_9 <= 0.069062
|   |   |   |   |   Mean_Acc1298_Std_Mem40_MFCC_9 <= 0.185074: 1 (3.0)
|   |   |   |   |   Mean_Acc1298_Std_Mem40_MFCC_9 > 0.185074: 0 (12.0)
|   |   |   |   Std_Acc1298_Mean_Mem40_MFCC_9 > 0.069062
|   |   |   |   |   Std_Acc1298_Std_Mem40_MFCC_0 <= 0.688956
|   |   |   |   |   |   Mean_Acc1298_Mean_Mem40_Centroid <= 0.418787
|   |   |   |   |   |   |   Mean_Acc1298_Std_Mem40_MFCC_2 <= 0.10335: 1 (14.0)
|   |   |   |   |   |   |   Mean_Acc1298_Std_Mem40_MFCC_2 > 0.10335
|   |   |   |   |   |   |   |   Mean_Acc1298_Std_Mem40_Centroid <= 0.220639
|   |   |   |   |   |   |   |   |   BH_HighPeakBPM <= 0.105263: 1 (4.0)
|   |   |   |   |   |   |   |   |   BH_HighPeakBPM > 0.105263
|   |   |   |   |   |   |   |   |   |   Mean_Acc1298_Std_Mem40_MFCC_7 <= 0.380412: 0 (18.0/1.0)
|   |   |   |   |   |   |   |   |   |   Mean_Acc1298_Std_Mem40_MFCC_7 > 0.380412: 1 (3.0)
|   |   |   |   |   |   |   |   Mean_Acc1298_Std_Mem40_Centroid > 0.220639: 1 (7.0)
|   |   |   |   |   |   Mean_Acc1298_Mean_Mem40_Centroid > 0.418787: 1 (36.0)
|   |   |   |   |   Std_Acc1298_Std_Mem40_MFCC_0 > 0.688956: 0 (5.0)
|   quiet-still- = 1: 0 (8.0)
Std_Acc1298_Std_Mem40_MFCC_6 > 0.324134
|   Std_Acc1298_Mean_Mem40_MFCC_12 <= 0.066703
|   |   Std_Acc1298_Std_Mem40_MFCC_3 <= 0.204762: 0 (3.0)
|   |   Std_Acc1298_Std_Mem40_MFCC_3 > 0.204762: 1 (14.0/1.0)
|   Std_Acc1298_Mean_Mem40_MFCC_12 > 0.066703
|   |   sad-lonely- = 0
|   |   |   quiet-still- = 0
|   |   |   |   Mean_Acc1298_Std_Mem40_MFCC_11 <= 0.636224
|   |   |   |   |   Mean_Acc1298_Std_Mem40_MFCC_8 <= 0.35428
|   |   |   |   |   |   Mean_Acc1298_Std_Mem40_MFCC_3 <= 0.743176
|   |   |   |   |   |   |   Std_Acc1298_Std_Mem40_MFCC_10 <= 0.383851
|   |   |   |   |   |   |   |   Mean_Acc1298_Mean_Mem40_MFCC_0 <= 0.804038
|   |   |   |   |   |   |   |   |   Mean_Acc1298_Std_Mem40_MFCC_0 <= 0.210574
|   |   |   |   |   |   |   |   |   |   Mean_Acc1298_Mean_Mem40_MFCC_12 <= 0.49411: 0 (15.0)
|   |   |   |   |   |   |   |   |   |   Mean_Acc1298_Mean_Mem40_MFCC_12 > 0.49411: 1 (5.0)
|   |   |   |   |   |   |   |   |   Mean_Acc1298_Std_Mem40_MFCC_0 > 0.210574: 0 (61.0)
|   |   |   |   |   |   |   |   Mean_Acc1298_Mean_Mem40_MFCC_0 > 0.804038
|   |   |   |   |   |   |   |   |   Mean_Acc1298_Mean_Mem40_MFCC_0 <= 0.86923: 1 (10.0/1.0)
|   |   |   |   |   |   |   |   |   Mean_Acc1298_Mean_Mem40_MFCC_0 > 0.86923: 0 (4.0)
|   |   |   |   |   |   |   Std_Acc1298_Std_Mem40_MFCC_10 > 0.383851: 1 (5.0)
|   |   |   |   |   |   Mean_Acc1298_Std_Mem40_MFCC_3 > 0.743176: 1 (9.0/1.0)
|   |   |   |   |   Mean_Acc1298_Std_Mem40_MFCC_8 > 0.35428: 0 (44.0)
|   |   |   |   Mean_Acc1298_Std_Mem40_MFCC_11 > 0.636224
|   |   |   |   |   Mean_Acc1298_Mean_Mem40_MFCC_0 <= 0.554375: 0 (5.0/1.0)
|   |   |   |   |   Mean_Acc1298_Mean_Mem40_MFCC_0 > 0.554375: 1 (10.0)
|   |   |   quiet-still- = 1: 0 (28.0)
|   |   sad-lonely- = 1: 0 (119.0)

Number of Leaves  : 	26

Size of the tree : 	51


meka.classifiers.multitarget.CC: Node #2

J48 pruned tree
------------------

sad-lonely- = 0
|   angry-aggresive- = 0
|   |   quiet-still- = 0
|   |   |   Std_Acc1298_Mean_Mem40_Centroid <= 0.250873
|   |   |   |   Mean_Acc1298_Std_Mem40_MFCC_1 <= 0.354895
|   |   |   |   |   Mean_Acc1298_Std_Mem40_MFCC_7 <= 0.595022
|   |   |   |   |   |   Mean_Acc1298_Std_Mem40_MFCC_5 <= 0.096174: 0 (6.0/1.0)
|   |   |   |   |   |   Mean_Acc1298_Std_Mem40_MFCC_5 > 0.096174
|   |   |   |   |   |   |   Mean_Acc1298_Mean_Mem40_MFCC_9 <= 0.379195
|   |   |   |   |   |   |   |   Std_Acc1298_Mean_Mem40_Flux <= 0.116532: 1 (7.0)
|   |   |   |   |   |   |   |   Std_Acc1298_Mean_Mem40_Flux > 0.116532: 0 (8.0/1.0)
|   |   |   |   |   |   |   Mean_Acc1298_Mean_Mem40_MFCC_9 > 0.379195
|   |   |   |   |   |   |   |   Std_Acc1298_Mean_Mem40_Flux <= 0.064812
|   |   |   |   |   |   |   |   |   BH_LowPeakBPM <= 0.253968: 0 (4.0)
|   |   |   |   |   |   |   |   |   BH_LowPeakBPM > 0.253968: 1 (4.0)
|   |   |   |   |   |   |   |   Std_Acc1298_Mean_Mem40_Flux > 0.064812: 1 (85.0)
|   |   |   |   |   Mean_Acc1298_Std_Mem40_MFCC_7 > 0.595022: 0 (7.0/1.0)
|   |   |   |   Mean_Acc1298_Std_Mem40_MFCC_1 > 0.354895
|   |   |   |   |   Mean_Acc1298_Std_Mem40_MFCC_12 <= 0.295398: 0 (14.0/1.0)
|   |   |   |   |   Mean_Acc1298_Std_Mem40_MFCC_12 > 0.295398: 1 (6.0)
|   |   |   Std_Acc1298_Mean_Mem40_Centroid > 0.250873: 0 (10.0/1.0)
|   |   quiet-still- = 1
|   |   |   BH_HighPeakAmp <= 0.038984: 0 (27.0/1.0)
|   |   |   BH_HighPeakAmp > 0.038984: 1 (4.0)
|   angry-aggresive- = 1
|   |   Std_Acc1298_Mean_Mem40_MFCC_0 <= 0.312025
|   |   |   Std_Acc1298_Std_Mem40_MFCC_5 <= 0.411893: 0 (126.0)
|   |   |   Std_Acc1298_Std_Mem40_MFCC_5 > 0.411893
|   |   |   |   BH_HighPeakBPM <= 0.691729: 0 (36.0/1.0)
|   |   |   |   BH_HighPeakBPM > 0.691729: 1 (3.0)
|   |   Std_Acc1298_Mean_Mem40_MFCC_0 > 0.312025
|   |   |   Mean_Acc1298_Std_Mem40_MFCC_3 <= 0.544424: 0 (5.0)
|   |   |   Mean_Acc1298_Std_Mem40_MFCC_3 > 0.544424: 1 (4.0)
sad-lonely- = 1: 0 (135.0)

Number of Leaves  : 	18

Size of the tree : 	35


meka.classifiers.multitarget.CC: Node #3

J48 pruned tree
------------------

Std_Acc1298_Mean_Mem40_MFCC_9 <= 0.13393
|   Std_Acc1298_Std_Mem40_MFCC_10 <= 0.198495: 0 (140.0)
|   Std_Acc1298_Std_Mem40_MFCC_10 > 0.198495
|   |   Mean_Acc1298_Mean_Mem40_MFCC_0 <= 0.658041: 1 (4.0)
|   |   Mean_Acc1298_Mean_Mem40_MFCC_0 > 0.658041: 0 (7.0)
Std_Acc1298_Mean_Mem40_MFCC_9 > 0.13393
|   Mean_Acc1298_Mean_Mem40_MFCC_1 <= 0.23659: 0 (45.0/2.0)
|   Mean_Acc1298_Mean_Mem40_MFCC_1 > 0.23659
|   |   amazed-suprised- = 0
|   |   |   Std_Acc1298_Std_Mem40_MFCC_7 <= 0.198707
|   |   |   |   Std_Acc1298_Mean_Mem40_MFCC_0 <= 0.327038: 0 (16.0/1.0)
|   |   |   |   Std_Acc1298_Mean_Mem40_MFCC_0 > 0.327038: 1 (2.0)
|   |   |   Std_Acc1298_Std_Mem40_MFCC_7 > 0.198707
|   |   |   |   Std_Acc1298_Std_Mem40_Rolloff <= 0.250892: 1 (50.0)
|   |   |   |   Std_Acc1298_Std_Mem40_Rolloff > 0.250892
|   |   |   |   |   Mean_Acc1298_Mean_Mem40_MFCC_4 <= 0.680508
|   |   |   |   |   |   Std_Acc1298_Mean_Mem40_Rolloff <= 0.088329
|   |   |   |   |   |   |   sad-lonely- = 0: 1 (2.0)
|   |   |   |   |   |   |   sad-lonely- = 1: 0 (8.0)
|   |   |   |   |   |   Std_Acc1298_Mean_Mem40_Rolloff > 0.088329
|   |   |   |   |   |   |   Std_Acc1298_Std_Mem40_MFCC_8 <= 0.178978
|   |   |   |   |   |   |   |   Std_Acc1298_Mean_Mem40_MFCC_4 <= 0.353008
|   |   |   |   |   |   |   |   |   Mean_Acc1298_Mean_Mem40_Centroid <= 0.148269: 1 (2.0)
|   |   |   |   |   |   |   |   |   Mean_Acc1298_Mean_Mem40_Centroid > 0.148269: 0 (15.0)
|   |   |   |   |   |   |   |   Std_Acc1298_Mean_Mem40_MFCC_4 > 0.353008: 1 (10.0)
|   |   |   |   |   |   |   Std_Acc1298_Std_Mem40_MFCC_8 > 0.178978
|   |   |   |   |   |   |   |   Std_Acc1298_Mean_Mem40_MFCC_0 <= 0.426365
|   |   |   |   |   |   |   |   |   Mean_Acc1298_Std_Mem40_MFCC_12 <= 0.311468: 1 (72.0)
|   |   |   |   |   |   |   |   |   Mean_Acc1298_Std_Mem40_MFCC_12 > 0.311468
|   |   |   |   |   |   |   |   |   |   Mean_Acc1298_Mean_Mem40_Rolloff <= 0.311009
|   |   |   |   |   |   |   |   |   |   |   Mean_Acc1298_Mean_Mem40_MFCC_11 <= 0.213105: 0 (2.0)
|   |   |   |   |   |   |   |   |   |   |   Mean_Acc1298_Mean_Mem40_MFCC_11 > 0.213105: 1 (28.0/1.0)
|   |   |   |   |   |   |   |   |   |   Mean_Acc1298_Mean_Mem40_Rolloff > 0.311009: 0 (2.0)
|   |   |   |   |   |   |   |   Std_Acc1298_Mean_Mem40_MFCC_0 > 0.426365
|   |   |   |   |   |   |   |   |   BH_HighPeakAmp <= 0.095854
|   |   |   |   |   |   |   |   |   |   Mean_Acc1298_Mean_Mem40_Rolloff <= 0.054325: 0 (3.0)
|   |   |   |   |   |   |   |   |   |   Mean_Acc1298_Mean_Mem40_Rolloff > 0.054325: 1 (13.0)
|   |   |   |   |   |   |   |   |   BH_HighPeakAmp > 0.095854: 0 (6.0)
|   |   |   |   |   Mean_Acc1298_Mean_Mem40_MFCC_4 > 0.680508
|   |   |   |   |   |   Mean_Acc1298_Mean_Mem40_MFCC_1 <= 0.614567: 0 (11.0)
|   |   |   |   |   |   Mean_Acc1298_Mean_Mem40_MFCC_1 > 0.614567: 1 (4.0)
|   |   amazed-suprised- = 1
|   |   |   Mean_Acc1298_Mean_Mem40_Rolloff <= 0.059895: 1 (4.0)
|   |   |   Mean_Acc1298_Mean_Mem40_Rolloff > 0.059895
|   |   |   |   Std_Acc1298_Mean_Mem40_MFCC_8 <= 0.269648
|   |   |   |   |   Mean_Acc1298_Mean_Mem40_MFCC_5 <= 0.492025: 0 (35.0)
|   |   |   |   |   Mean_Acc1298_Mean_Mem40_MFCC_5 > 0.492025
|   |   |   |   |   |   Mean_Acc1298_Std_Mem40_MFCC_10 <= 0.341491: 1 (3.0)
|   |   |   |   |   |   Mean_Acc1298_Std_Mem40_MFCC_10 > 0.341491: 0 (3.0)
|   |   |   |   Std_Acc1298_Mean_Mem40_MFCC_8 > 0.269648: 1 (4.0)

Number of Leaves  : 	26

Size of the tree : 	51


meka.classifiers.multitarget.CC: Node #4

J48 pruned tree
------------------

Mean_Acc1298_Mean_Mem40_Rolloff <= 0.143949
|   Mean_Acc1298_Mean_Mem40_Flux <= 0.174013
|   |   Std_Acc1298_Std_Mem40_MFCC_10 <= 0.143314: 0 (11.0)
|   |   Std_Acc1298_Std_Mem40_MFCC_10 > 0.143314
|   |   |   Std_Acc1298_Mean_Mem40_MFCC_2 <= 0.13079: 0 (7.0)
|   |   |   Std_Acc1298_Mean_Mem40_MFCC_2 > 0.13079
|   |   |   |   Mean_Acc1298_Mean_Mem40_MFCC_0 <= 0.67596
|   |   |   |   |   Std_Acc1298_Mean_Mem40_MFCC_4 <= 0.328087
|   |   |   |   |   |   Mean_Acc1298_Mean_Mem40_MFCC_2 <= 0.70408
|   |   |   |   |   |   |   Std_Acc1298_Mean_Mem40_Flux <= 0.204473: 1 (22.0/1.0)
|   |   |   |   |   |   |   Std_Acc1298_Mean_Mem40_Flux > 0.204473: 0 (3.0)
|   |   |   |   |   |   Mean_Acc1298_Mean_Mem40_MFCC_2 > 0.70408: 0 (4.0)
|   |   |   |   |   Std_Acc1298_Mean_Mem40_MFCC_4 > 0.328087: 1 (64.0)
|   |   |   |   Mean_Acc1298_Mean_Mem40_MFCC_0 > 0.67596
|   |   |   |   |   Mean_Acc1298_Mean_Mem40_MFCC_11 <= 0.296292: 1 (5.0)
|   |   |   |   |   Mean_Acc1298_Mean_Mem40_MFCC_11 > 0.296292: 0 (10.0)
|   Mean_Acc1298_Mean_Mem40_Flux > 0.174013: 0 (33.0)
Mean_Acc1298_Mean_Mem40_Rolloff > 0.143949
|   Std_Acc1298_Mean_Mem40_MFCC_4 <= 0.557478: 0 (315.0/5.0)
|   Std_Acc1298_Mean_Mem40_MFCC_4 > 0.557478
|   |   Mean_Acc1298_Mean_Mem40_MFCC_11 <= 0.394163: 0 (8.0)
|   |   Mean_Acc1298_Mean_Mem40_MFCC_11 > 0.394163: 1 (9.0/1.0)

Number of Leaves  : 	12

Size of the tree : 	23


meka.classifiers.multitarget.CC: Node #5

J48 pruned tree
------------------

quiet-still- = 0
|   Std_Acc1298_Mean_Mem40_MFCC_4 <= 0.198187: 0 (91.0)
|   Std_Acc1298_Mean_Mem40_MFCC_4 > 0.198187
|   |   Mean_Acc1298_Mean_Mem40_Centroid <= 0.179849
|   |   |   Mean_Acc1298_Mean_Mem40_MFCC_3 <= 0.555691
|   |   |   |   Mean_Acc1298_Mean_Mem40_MFCC_9 <= 0.43565: 1 (9.0)
|   |   |   |   Mean_Acc1298_Mean_Mem40_MFCC_9 > 0.43565
|   |   |   |   |   Std_Acc1298_Mean_Mem40_Flux <= 0.074909: 1 (5.0)
|   |   |   |   |   Std_Acc1298_Mean_Mem40_Flux > 0.074909
|   |   |   |   |   |   Mean_Acc1298_Mean_Mem40_MFCC_9 <= 0.904534: 0 (23.0)
|   |   |   |   |   |   Mean_Acc1298_Mean_Mem40_MFCC_9 > 0.904534: 1 (2.0)
|   |   |   Mean_Acc1298_Mean_Mem40_MFCC_3 > 0.555691: 1 (11.0)
|   |   Mean_Acc1298_Mean_Mem40_Centroid > 0.179849
|   |   |   Mean_Acc1298_Mean_Mem40_MFCC_9 <= 0.81913
|   |   |   |   Std_Acc1298_Std_Mem40_Rolloff <= 0.235891: 0 (86.0)
|   |   |   |   Std_Acc1298_Std_Mem40_Rolloff > 0.235891
|   |   |   |   |   Mean_Acc1298_Std_Mem40_MFCC_2 <= 0.171347
|   |   |   |   |   |   Std_Acc1298_Mean_Mem40_MFCC_1 <= 0.236247: 1 (9.0)
|   |   |   |   |   |   Std_Acc1298_Mean_Mem40_MFCC_1 > 0.236247: 0 (4.0)
|   |   |   |   |   Mean_Acc1298_Std_Mem40_MFCC_2 > 0.171347
|   |   |   |   |   |   Std_Acc1298_Std_Mem40_MFCC_3 <= 0.388463
|   |   |   |   |   |   |   Mean_Acc1298_Mean_Mem40_MFCC_3 <= 0.400666: 0 (24.0)
|   |   |   |   |   |   |   Mean_Acc1298_Mean_Mem40_MFCC_3 > 0.400666
|   |   |   |   |   |   |   |   Mean_Acc1298_Mean_Mem40_MFCC_5 <= 0.363421
|   |   |   |   |   |   |   |   |   Std_Acc1298_Std_Mem40_MFCC_9 <= 0.33828
|   |   |   |   |   |   |   |   |   |   Std_Acc1298_Mean_Mem40_MFCC_2 <= 0.362582: 1 (17.0/1.0)
|   |   |   |   |   |   |   |   |   |   Std_Acc1298_Mean_Mem40_MFCC_2 > 0.362582: 0 (2.0)
|   |   |   |   |   |   |   |   |   Std_Acc1298_Std_Mem40_MFCC_9 > 0.33828: 0 (5.0)
|   |   |   |   |   |   |   |   Mean_Acc1298_Mean_Mem40_MFCC_5 > 0.363421
|   |   |   |   |   |   |   |   |   Mean_Acc1298_Mean_Mem40_MFCC_1 <= 0.399125: 0 (20.0)
|   |   |   |   |   |   |   |   |   Mean_Acc1298_Mean_Mem40_MFCC_1 > 0.399125: 1 (2.0)
|   |   |   |   |   |   Std_Acc1298_Std_Mem40_MFCC_3 > 0.388463: 0 (65.0/1.0)
|   |   |   Mean_Acc1298_Mean_Mem40_MFCC_9 > 0.81913
|   |   |   |   Mean_Acc1298_Mean_Mem40_MFCC_6 <= 0.579396: 1 (8.0)
|   |   |   |   Mean_Acc1298_Mean_Mem40_MFCC_6 > 0.579396: 0 (5.0)
quiet-still- = 1
|   Std_Acc1298_Std_Mem40_MFCC_4 <= 0.178329: 0 (7.0)
|   Std_Acc1298_Std_Mem40_MFCC_4 > 0.178329
|   |   Mean_Acc1298_Mean_Mem40_Rolloff <= 0.09677
|   |   |   Mean_Acc1298_Std_Mem40_Flux <= 0.143795
|   |   |   |   Mean_Acc1298_Std_Mem40_Flux <= 0.044063
|   |   |   |   |   Std_Acc1298_Mean_Mem40_Flux <= 0.150112: 0 (2.0)
|   |   |   |   |   Std_Acc1298_Mean_Mem40_Flux > 0.150112: 1 (7.0)
