== Model info

Model                          
meka.classifiers.multilabel.CC: Node #1

J48 pruned tree
------------------

Std_Acc1298_Std_Mem40_MFCC_10 <= 0.09972
|   Mean_Acc1298_Std_Mem40_MFCC_7 <= 0.467768
|   |   Std_Acc1298_Mean_Mem40_Flux <= 0.089468: 1 (23.0)
|   |   Std_Acc1298_Mean_Mem40_Flux > 0.089468
|   |   |   Std_Acc1298_Std_Mem40_Flux <= 0.924906
|   |   |   |   Mean_Acc1298_Mean_Mem40_Rolloff <= 0.25087
|   |   |   |   |   Mean_Acc1298_Mean_Mem40_MFCC_8 <= 0.445744: 0 (9.0)
|   |   |   |   |   Mean_Acc1298_Mean_Mem40_MFCC_8 > 0.445744: 1 (4.0/1.0)
|   |   |   |   Mean_Acc1298_Mean_Mem40_Rolloff > 0.25087
|   |   |   |   |   Mean_Acc1298_Std_Mem40_Rolloff <= 0.848715
|   |   |   |   |   |   Mean_Acc1298_Std_Mem40_MFCC_12 <= 0.283217
|   |   |   |   |   |   |   Mean_Acc1298_Mean_Mem40_Centroid <= 0.791859: 1 (26.0)
|   |   |   |   |   |   |   Mean_Acc1298_Mean_Mem40_Centroid > 0.791859: 0 (3.0/1.0)
|   |   |   |   |   |   Mean_Acc1298_Std_Mem40_MFCC_12 > 0.283217: 0 (3.0)
|   |   |   |   |   Mean_Acc1298_Std_Mem40_Rolloff > 0.848715: 0 (3.0)
|   |   |   Std_Acc1298_Std_Mem40_Flux > 0.924906: 1 (13.0)
|   Mean_Acc1298_Std_Mem40_MFCC_7 > 0.467768: 0 (6.0)
Std_Acc1298_Std_Mem40_MFCC_10 > 0.09972
|   Std_Acc1298_Std_Mem40_MFCC_6 <= 0.324134
|   |   Std_Acc1298_Mean_Mem40_Rolloff <= 0.365321
|   |   |   Mean_Acc1298_Mean_Mem40_Centroid <= 0.471527
|   |   |   |   Std_Acc1298_Mean_Mem40_MFCC_2 <= 0.092078: 1 (6.0)
|   |   |   |   Std_Acc1298_Mean_Mem40_MFCC_2 > 0.092078
|   |   |   |   |   Std_Acc1298_Std_Mem40_MFCC_0 <= 0.44142
|   |   |   |   |   |   Std_Acc1298_Std_Mem40_Rolloff <= 0.156562: 0 (4.0)
|   |   |   |   |   |   Std_Acc1298_Std_Mem40_Rolloff > 0.156562
|   |   |   |   |   |   |   Mean_Acc1298_Mean_Mem40_MFCC_1 <= 0.51788: 1 (13.0/1.0)
|   |   |   |   |   |   |   Mean_Acc1298_Mean_Mem40_MFCC_1 > 0.51788: 0 (2.0)
|   |   |   |   |   Std_Acc1298_Std_Mem40_MFCC_0 > 0.44142
|   |   |   |   |   |   Std_Acc1298_Std_Mem40_MFCC_7 <= 0.315011
|   |   |   |   |   |   |   Std_Acc1298_Std_Mem40_MFCC_11 <= 0.059763: 1 (2.0)
|   |   |   |   |   |   |   Std_Acc1298_Std_Mem40_MFCC_11 > 0.059763: 0 (25.0/1.0)
|   |   |   |   |   |   Std_Acc1298_Std_Mem40_MFCC_7 > 0.315011
|   |   |   |   |   |   |   Std_Acc1298_Mean_Mem40_MFCC_11 <= 0.329834: 1 (5.0)
|   |   |   |   |   |   |   Std_Acc1298_Mean_Mem40_MFCC_11 > 0.329834: 0 (2.0)
|   |   |   Mean_Acc1298_Mean_Mem40_Centroid > 0.471527: 1 (10.0)
|   |   Std_Acc1298_Mean_Mem40_Rolloff > 0.365321: 0 (10.0)
|   Std_Acc1298_Std_Mem40_MFCC_6 > 0.324134
|   |   Mean_Acc1298_Mean_Mem40_MFCC_0 <= 0.542944: 0 (117.0)
|   |   Mean_Acc1298_Mean_Mem40_MFCC_0 > 0.542944
|   |   |   Mean_Acc1298_Mean_Mem40_Rolloff <= 0.466543
|   |   |   |   Std_Acc1298_Std_Mem40_MFCC_10 <= 0.332043
|   |   |   |   |   Mean_Acc1298_Mean_Mem40_MFCC_0 <= 0.833206
|   |   |   |   |   |   Std_Acc1298_Std_Mem40_Rolloff <= 0.235163
|   |   |   |   |   |   |   Std_Acc1298_Std_Mem40_MFCC_2 <= 0.565512
|   |   |   |   |   |   |   |   Mean_Acc1298_Std_Mem40_Rolloff <= 0.462412: 0 (21.0/1.0)
|   |   |   |   |   |   |   |   Mean_Acc1298_Std_Mem40_Rolloff > 0.462412
|   |   |   |   |   |   |   |   |   Mean_Acc1298_Mean_Mem40_MFCC_3 <= 0.390197: 0 (2.0)
|   |   |   |   |   |   |   |   |   Mean_Acc1298_Mean_Mem40_MFCC_3 > 0.390197: 1 (4.0)
|   |   |   |   |   |   |   Std_Acc1298_Std_Mem40_MFCC_2 > 0.565512: 1 (3.0)
|   |   |   |   |   |   Std_Acc1298_Std_Mem40_Rolloff > 0.235163
|   |   |   |   |   |   |   Std_Acc1298_Mean_Mem40_MFCC_12 <= 0.072788
|   |   |   |   |   |   |   |   Std_Acc1298_Std_Mem40_MFCC_6 <= 0.463995: 0 (9.0)
|   |   |   |   |   |   |   |   Std_Acc1298_Std_Mem40_MFCC_6 > 0.463995: 1 (4.0/1.0)
|   |   |   |   |   |   |   Std_Acc1298_Mean_Mem40_MFCC_12 > 0.072788: 0 (103.0/1.0)
|   |   |   |   |   Mean_Acc1298_Mean_Mem40_MFCC_0 > 0.833206
|   |   |   |   |   |   Std_Acc1298_Mean_Mem40_MFCC_7 <= 0.113227: 1 (6.0)
|   |   |   |   |   |   Std_Acc1298_Mean_Mem40_MFCC_7 > 0.113227
|   |   |   |   |   |   |   BH_LowPeakBPM <= 0.111111: 1 (3.0)
|   |   |   |   |   |   |   BH_LowPeakBPM > 0.111111: 0 (9.0)
|   |   |   |   Std_Acc1298_Std_Mem40_MFCC_10 > 0.332043
|   |   |   |   |   Std_Acc1298_Mean_Mem40_MFCC_10 <= 0.309785
|   |   |   |   |   |   Mean_Acc1298_Mean_Mem40_MFCC_9 <= 0.657953: 1 (12.0)
|   |   |   |   |   |   Mean_Acc1298_Mean_Mem40_MFCC_9 > 0.657953: 0 (2.0)
|   |   |   |   |   Std_Acc1298_Mean_Mem40_MFCC_10 > 0.309785: 0 (13.0/1.0)
|   |   |   Mean_Acc1298_Mean_Mem40_Rolloff > 0.466543
|   |   |   |   BH_LowPeakAmp <= 0.198356: 0 (3.0)
|   |   |   |   BH_LowPeakAmp > 0.198356: 1 (11.0/1.0)

Number of Leaves  : 	35

Size of the tree : 	69


meka.classifiers.multilabel.CC: Node #2

J48 pruned tree
------------------

Mean_Acc1298_Mean_Mem40_Rolloff <= 0.035167: 0 (36.0)
Mean_Acc1298_Mean_Mem40_Rolloff > 0.035167
|   Std_Acc1298_Std_Mem40_MFCC_6 <= 0.166139: 0 (29.0)
|   Std_Acc1298_Std_Mem40_MFCC_6 > 0.166139
|   |   Mean_Acc1298_Std_Mem40_MFCC_4 <= 0.132228: 0 (31.0/1.0)
|   |   Mean_Acc1298_Std_Mem40_MFCC_4 > 0.132228
|   |   |   Std_Acc1298_Std_Mem40_MFCC_4 <= 0.253809
|   |   |   |   Std_Acc1298_Mean_Mem40_MFCC_0 <= 0.363281
|   |   |   |   |   BH_LowPeakBPM <= 0.111111: 0 (10.0)
|   |   |   |   |   BH_LowPeakBPM > 0.111111
|   |   |   |   |   |   Std_Acc1298_Std_Mem40_MFCC_9 <= 0.07529: 0 (9.0)
|   |   |   |   |   |   Std_Acc1298_Std_Mem40_MFCC_9 > 0.07529
|   |   |   |   |   |   |   Std_Acc1298_Mean_Mem40_MFCC_1 <= 0.286862
|   |   |   |   |   |   |   |   Std_Acc1298_Mean_Mem40_MFCC_8 <= 0.13903
|   |   |   |   |   |   |   |   |   Std_Acc1298_Mean_Mem40_Flux <= 0.082247: 0 (8.0)
|   |   |   |   |   |   |   |   |   Std_Acc1298_Mean_Mem40_Flux > 0.082247
|   |   |   |   |   |   |   |   |   |   Mean_Acc1298_Mean_Mem40_MFCC_6 <= 0.491356
|   |   |   |   |   |   |   |   |   |   |   Std_Acc1298_Mean_Mem40_MFCC_8 <= 0.048932: 1 (3.0)
|   |   |   |   |   |   |   |   |   |   |   Std_Acc1298_Mean_Mem40_MFCC_8 > 0.048932
|   |   |   |   |   |   |   |   |   |   |   |   Std_Acc1298_Std_Mem40_MFCC_11 <= 0.184785: 0 (15.0)
|   |   |   |   |   |   |   |   |   |   |   |   Std_Acc1298_Std_Mem40_MFCC_11 > 0.184785: 1 (3.0/1.0)
|   |   |   |   |   |   |   |   |   |   Mean_Acc1298_Mean_Mem40_MFCC_6 > 0.491356
|   |   |   |   |   |   |   |   |   |   |   Std_Acc1298_Mean_Mem40_MFCC_4 <= 0.248081: 1 (16.0)
|   |   |   |   |   |   |   |   |   |   |   Std_Acc1298_Mean_Mem40_MFCC_4 > 0.248081
|   |   |   |   |   |   |   |   |   |   |   |   Std_Acc1298_Mean_Mem40_Flux <= 0.16608: 0 (8.0/1.0)
|   |   |   |   |   |   |   |   |   |   |   |   Std_Acc1298_Mean_Mem40_Flux > 0.16608: 1 (4.0)
|   |   |   |   |   |   |   |   Std_Acc1298_Mean_Mem40_MFCC_8 > 0.13903
|   |   |   |   |   |   |   |   |   Std_Acc1298_Mean_Mem40_MFCC_2 <= 0.292763: 1 (23.0)
|   |   |   |   |   |   |   |   |   Std_Acc1298_Mean_Mem40_MFCC_2 > 0.292763
|   |   |   |   |   |   |   |   |   |   Mean_Acc1298_Mean_Mem40_MFCC_5 <= 0.349755: 1 (3.0)
|   |   |   |   |   |   |   |   |   |   Mean_Acc1298_Mean_Mem40_MFCC_5 > 0.349755: 0 (3.0)
|   |   |   |   |   |   |   Std_Acc1298_Mean_Mem40_MFCC_1 > 0.286862
|   |   |   |   |   |   |   |   Std_Acc1298_Std_Mem40_MFCC_5 <= 0.158935: 1 (3.0)
|   |   |   |   |   |   |   |   Std_Acc1298_Std_Mem40_MFCC_5 > 0.158935
|   |   |   |   |   |   |   |   |   BH_LowPeakBPM <= 0.666667: 0 (16.0)
|   |   |   |   |   |   |   |   |   BH_LowPeakBPM > 0.666667
|   |   |   |   |   |   |   |   |   |   Mean_Acc1298_Mean_Mem40_MFCC_5 <= 0.337032: 0 (2.0)
|   |   |   |   |   |   |   |   |   |   Mean_Acc1298_Mean_Mem40_MFCC_5 > 0.337032: 1 (2.0)
|   |   |   |   Std_Acc1298_Mean_Mem40_MFCC_0 > 0.363281
|   |   |   |   |   BHSUM1 <= 0.099943: 0 (2.0)
|   |   |   |   |   BHSUM1 > 0.099943: 1 (19.0)
|   |   |   Std_Acc1298_Std_Mem40_MFCC_4 > 0.253809
|   |   |   |   amazed-suprised- = 0
|   |   |   |   |   Mean_Acc1298_Std_Mem40_MFCC_3 <= 0.263709
|   |   |   |   |   |   Mean_Acc1298_Mean_Mem40_MFCC_3 <= 0.60961: 0 (49.0/1.0)
|   |   |   |   |   |   Mean_Acc1298_Mean_Mem40_MFCC_3 > 0.60961
|   |   |   |   |   |   |   Mean_Acc1298_Mean_Mem40_MFCC_3 <= 0.634682: 1 (2.0)
|   |   |   |   |   |   |   Mean_Acc1298_Mean_Mem40_MFCC_3 > 0.634682: 0 (2.0)
|   |   |   |   |   Mean_Acc1298_Std_Mem40_MFCC_3 > 0.263709
|   |   |   |   |   |   Mean_Acc1298_Mean_Mem40_MFCC_2 <= 0.631589
|   |   |   |   |   |   |   Mean_Acc1298_Std_Mem40_Flux <= 0.215319
|   |   |   |   |   |   |   |   Std_Acc1298_Std_Mem40_MFCC_9 <= 0.19897: 0 (19.0)
|   |   |   |   |   |   |   |   Std_Acc1298_Std_Mem40_MFCC_9 > 0.19897
|   |   |   |   |   |   |   |   |   Mean_Acc1298_Std_Mem40_MFCC_8 <= 0.272647
|   |   |   |   |   |   |   |   |   |   Std_Acc1298_Mean_Mem40_MFCC_0 <= 0.254213
|   |   |   |   |   |   |   |   |   |   |   Std_Acc1298_Std_Mem40_MFCC_5 <= 0.468044: 1 (16.0)
|   |   |   |   |   |   |   |   |   |   |   Std_Acc1298_Std_Mem40_MFCC_5 > 0.468044
|   |   |   |   |   |   |   |   |   |   |   |   Mean_Acc1298_Mean_Mem40_MFCC_10 <= 0.311889: 1 (2.0)
|   |   |   |   |   |   |   |   |   |   |   |   Mean_Acc1298_Mean_Mem40_MFCC_10 > 0.311889: 0 (5.0)
|   |   |   |   |   |   |   |   |   |   Std_Acc1298_Mean_Mem40_MFCC_0 > 0.254213: 0 (7.0)
|   |   |   |   |   |   |   |   |   Mean_Acc1298_Std_Mem40_MFCC_8 > 0.272647
|   |   |   |   |   |   |   |   |   |   Std_Acc1298_Std_Mem40_MFCC_8 <= 0.423528
|   |   |   |   |   |   |   |   |   |   |   Mean_Acc1298_Mean_Mem40_Flux <= 0.19282: 0 (23.0)
|   |   |   |   |   |   |   |   |   |   |   Mean_Acc1298_Mean_Mem40_Flux > 0.19282
|   |   |   |   |   |   |   |   |   |   |   |   Mean_Acc1298_Mean_Mem40_MFCC_7 <= 0.673533
|   |   |   |   |   |   |   |   |   |   |   |   |   Mean_Acc1298_Std_Mem40_MFCC_2 <= 0.340063: 1 (3.0)
|   |   |   |   |   |   |   |   |   |   |   |   |   Mean_Acc1298_Std_Mem40_MFCC_2 > 0.340063
|   |   |   |   |   |   |   |   |   |   |   |   |   |   Mean_Acc1298_Mean_Mem40_MFCC_2 <= 0.468238
|   |   |   |   |   |   |   |   |   |   |   |   |   |   |   BH_LowPeakBPM <= 0.079365: 1 (3.0)
|   |   |   |   |   |   |   |   |   |   |   |   |   |   |   BH_LowPeakBPM > 0.079365
|   |   |   |   |   |   |   |   |   |   |   |   |   |   |   |   Mean_Acc1298_Mean_Mem40_MFCC_5 <= 0.488621: 0 (13.0)
|   |   |   |   |   |   |   |   |   |   |   |   |   |   |   |   Mean_Acc1298_Mean_Mem40_MFCC_5 > 0.488621: 1 (2.0)
|   |   |   |   |   |   |   |   |   |   |   |   |   |   Mean_Acc1298_Mean_Mem40_MFCC_2 > 0.468238: 0 (22.0)
|   |   |   |   |   |   |   |   |   |   |   |   Mean_Acc1298_Mean_Mem40_MFCC_7 > 0.673533: 1 (3.0)
|   |   |   |   |   |   |   |   |   |   Std_Acc1298_Std_Mem40_MFCC_8 > 0.423528: 1 (4.0)
|   |   |   |   |   |   |   Mean_Acc1298_Std_Mem40_Flux > 0.215319
|   |   |   |   |   |   |   |   Mean_Acc1298_Std_Mem40_MFCC_2 <= 0.678322: 1 (9.0)
|   |   |   |   |   |   |   |   Mean_Acc1298_Std_Mem40_MFCC_2 > 0.678322: 0 (3.0)
|   |   |   |   |   |   Mean_Acc1298_Mean_Mem40_MFCC_2 > 0.631589: 0 (17.0)
|   |   |   |   amazed-suprised- = 1
|   |   |   |   |   Mean_Acc1298_Std_Mem40_MFCC_0 <= 0.235533
|   |   |   |   |   |   Std_Acc1298_Mean_Mem40_MFCC_5 <= 0.300987
|   |   |   |   |   |   |   Mean_Acc1298_Mean_Mem40_MFCC_2 <= 0.468238: 0 (11.0/1.0)
|   |   |   |   |   |   |   Mean_Acc1298_Mean_Mem40_MFCC_2 > 0.468238: 1 (3.0)
|   |   |   |   |   |   Std_Acc1298_Mean_Mem40_MFCC_5 > 0.300987: 1 (8.0)
|   |   |   |   |   Mean_Acc1298_Std_Mem40_MFCC_0 > 0.235533: 0 (20.0/1.0)

Number of Leaves  : 	44

Size of the tree : 	87


meka.classifiers.multilabel.CC: Node #3

J48 pruned tree
------------------

amazed-suprised- = 0
|   Std_Acc1298_Mean_Mem40_MFCC_9 <= 0.133994
|   |   Mean_Acc1298_Mean_Mem40_MFCC_1 <= 0.393206: 0 (47.0/1.0)
|   |   Mean_Acc1298_Mean_Mem40_MFCC_1 > 0.393206
|   |   |   BH_LowPeakAmp <= 0.074064: 1 (8.0/1.0)
|   |   |   BH_LowPeakAmp > 0.074064: 0 (6.0)
|   Std_Acc1298_Mean_Mem40_MFCC_9 > 0.133994
|   |   Mean_Acc1298_Mean_Mem40_MFCC_0 <= 0.781942
|   |   |   Mean_Acc1298_Std_Mem40_Centroid <= 0.465795
|   |   |   |   happy-pleased- = 0
|   |   |   |   |   Mean_Acc1298_Mean_Mem40_MFCC_2 <= 0.47477
|   |   |   |   |   |   Std_Acc1298_Std_Mem40_MFCC_11 <= 0.093861: 0 (6.0/1.0)
|   |   |   |   |   |   Std_Acc1298_Std_Mem40_MFCC_11 > 0.093861
|   |   |   |   |   |   |   Std_Acc1298_Std_Mem40_MFCC_10 <= 0.229801: 1 (29.0)
|   |   |   |   |   |   |   Std_Acc1298_Std_Mem40_MFCC_10 > 0.229801
|   |   |   |   |   |   |   |   Mean_Acc1298_Std_Mem40_MFCC_12 <= 0.304422
|   |   |   |   |   |   |   |   |   Mean_Acc1298_Mean_Mem40_MFCC_7 <= 0.521198
|   |   |   |   |   |   |   |   |   |   Mean_Acc1298_Mean_Mem40_MFCC_1 <= 0.585418: 0 (6.0)
|   |   |   |   |   |   |   |   |   |   Mean_Acc1298_Mean_Mem40_MFCC_1 > 0.585418: 1 (5.0/1.0)
|   |   |   |   |   |   |   |   |   Mean_Acc1298_Mean_Mem40_MFCC_7 > 0.521198
|   |   |   |   |   |   |   |   |   |   Std_Acc1298_Mean_Mem40_MFCC_0 <= 0.126911: 0 (2.0)
|   |   |   |   |   |   |   |   |   |   Std_Acc1298_Mean_Mem40_MFCC_0 > 0.126911: 1 (13.0)
|   |   |   |   |   |   |   |   Mean_Acc1298_Std_Mem40_MFCC_12 > 0.304422: 1 (28.0/1.0)
|   |   |   |   |   Mean_Acc1298_Mean_Mem40_MFCC_2 > 0.47477
|   |   |   |   |   |   BHSUM3 <= 0.050393: 0 (7.0)
|   |   |   |   |   |   BHSUM3 > 0.050393
|   |   |   |   |   |   |   Std_Acc1298_Mean_Mem40_Flux <= 0.25455
|   |   |   |   |   |   |   |   BH_HighPeakBPM <= 0.406015
|   |   |   |   |   |   |   |   |   Mean_Acc1298_Mean_Mem40_MFCC_6 <= 0.348523: 0 (2.0)
|   |   |   |   |   |   |   |   |   Mean_Acc1298_Mean_Mem40_MFCC_6 > 0.348523
|   |   |   |   |   |   |   |   |   |   Mean_Acc1298_Mean_Mem40_MFCC_11 <= 0.142582: 0 (2.0)
|   |   |   |   |   |   |   |   |   |   Mean_Acc1298_Mean_Mem40_MFCC_11 > 0.142582
|   |   |   |   |   |   |   |   |   |   |   Mean_Acc1298_Std_Mem40_MFCC_9 <= 0.53614: 1 (28.0)
|   |   |   |   |   |   |   |   |   |   |   Mean_Acc1298_Std_Mem40_MFCC_9 > 0.53614: 0 (3.0/1.0)
|   |   |   |   |   |   |   |   BH_HighPeakBPM > 0.406015
|   |   |   |   |   |   |   |   |   Mean_Acc1298_Mean_Mem40_MFCC_10 <= 0.32499: 0 (7.0)
|   |   |   |   |   |   |   |   |   Mean_Acc1298_Mean_Mem40_MFCC_10 > 0.32499
|   |   |   |   |   |   |   |   |   |   Mean_Acc1298_Std_Mem40_MFCC_4 <= 0.129771: 0 (5.0)
|   |   |   |   |   |   |   |   |   |   Mean_Acc1298_Std_Mem40_MFCC_4 > 0.129771
|   |   |   |   |   |   |   |   |   |   |   Mean_Acc1298_Mean_Mem40_MFCC_6 <= 0.708545
|   |   |   |   |   |   |   |   |   |   |   |   Mean_Acc1298_Mean_Mem40_MFCC_1 <= 0.311456: 0 (5.0/1.0)
|   |   |   |   |   |   |   |   |   |   |   |   Mean_Acc1298_Mean_Mem40_MFCC_1 > 0.311456
|   |   |   |   |   |   |   |   |   |   |   |   |   Mean_Acc1298_Mean_Mem40_MFCC_6 <= 0.209743: 0 (2.0)
|   |   |   |   |   |   |   |   |   |   |   |   |   Mean_Acc1298_Mean_Mem40_MFCC_6 > 0.209743
|   |   |   |   |   |   |   |   |   |   |   |   |   |   Std_Acc1298_Mean_Mem40_Rolloff <= 0.088329
|   |   |   |   |   |   |   |   |   |   |   |   |   |   |   Mean_Acc1298_Mean_Mem40_Rolloff <= 0.009323: 1 (2.0)
|   |   |   |   |   |   |   |   |   |   |   |   |   |   |   Mean_Acc1298_Mean_Mem40_Rolloff > 0.009323: 0 (2.0)
|   |   |   |   |   |   |   |   |   |   |   |   |   |   Std_Acc1298_Mean_Mem40_Rolloff > 0.088329: 1 (22.0)
|   |   |   |   |   |   |   |   |   |   |   Mean_Acc1298_Mean_Mem40_MFCC_6 > 0.708545: 0 (3.0)
|   |   |   |   |   |   |   Std_Acc1298_Mean_Mem40_Flux > 0.25455: 0 (5.0)
|   |   |   |   happy-pleased- = 1
|   |   |   |   |   BHSUM2 <= 0.195962: 1 (49.0)
|   |   |   |   |   BHSUM2 > 0.195962
|   |   |   |   |   |   Mean_Acc1298_Std_Mem40_MFCC_10 <= 0.370678: 0 (5.0)
|   |   |   |   |   |   Mean_Acc1298_Std_Mem40_MFCC_10 > 0.370678: 1 (13.0)
|   |   |   Mean_Acc1298_Std_Mem40_Centroid > 0.465795
|   |   |   |   Std_Acc1298_Mean_Mem40_MFCC_12 <= 0.121154: 0 (12.0)
|   |   |   |   Std_Acc1298_Mean_Mem40_MFCC_12 > 0.121154: 1 (3.0)
|   |   Mean_Acc1298_Mean_Mem40_MFCC_0 > 0.781942: 0 (18.0/1.0)
amazed-suprised- = 1
|   Std_Acc1298_Mean_Mem40_MFCC_12 <= 0.121824: 0 (111.0/1.0)
|   Std_Acc1298_Mean_Mem40_MFCC_12 > 0.121824
|   |   Std_Acc1298_Mean_Mem40_MFCC_8 <= 0.276501
|   |   |   happy-pleased- = 0: 0 (16.0)
|   |   |   happy-pleased- = 1
|   |   |   |   Std_Acc1298_Mean_Mem40_MFCC_11 <= 0.236267: 1 (3.0)
|   |   |   |   Std_Acc1298_Mean_Mem40_MFCC_11 > 0.236267
|   |   |   |   |   Std_Acc1298_Mean_Mem40_MFCC_5 <= 0.183372: 1 (2.0)
|   |   |   |   |   Std_Acc1298_Mean_Mem40_MFCC_5 > 0.183372: 0 (10.0)
|   |   Std_Acc1298_Mean_Mem40_MFCC_8 > 0.276501: 1 (4.0)

Number of Leaves  : 	36

Size of the tree : 	71


meka.classifiers.multilabel.CC: Node #4

J48 pruned tree
------------------

Mean_Acc1298_Mean_Mem40_Rolloff <= 0.140755
|   amazed-suprised- = 0
|   |   Mean_Acc1298_Mean_Mem40_Flux <= 0.172533
|   |   |   happy-pleased- = 0
|   |   |   |   Std_Acc1298_Std_Mem40_MFCC_4 <= 0.164894
|   |   |   |   |   Mean_Acc1298_Mean_Mem40_MFCC_0 <= 0.459437: 1 (5.0/1.0)
|   |   |   |   |   Mean_Acc1298_Mean_Mem40_MFCC_0 > 0.459437: 0 (4.0)
|   |   |   |   Std_Acc1298_Std_Mem40_MFCC_4 > 0.164894
|   |   |   |   |   Mean_Acc1298_Mean_Mem40_MFCC_1 <= 0.449254
|   |   |   |   |   |   Mean_Acc1298_Mean_Mem40_MFCC_5 <= 0.475707: 1 (4.0)
|   |   |   |   |   |   Mean_Acc1298_Mean_Mem40_MFCC_5 > 0.475707: 0 (4.0)
|   |   |   |   |   Mean_Acc1298_Mean_Mem40_MFCC_1 > 0.449254: 1 (94.0/2.0)
|   |   |   happy-pleased- = 1
|   |   |   |   Std_Acc1298_Mean_Mem40_MFCC_4 <= 0.393647: 0 (13.0)
|   |   |   |   Std_Acc1298_Mean_Mem40_MFCC_4 > 0.393647: 1 (5.0)
|   |   Mean_Acc1298_Mean_Mem40_Flux > 0.172533: 0 (22.0/1.0)
|   amazed-suprised- = 1: 0 (17.0)
Mean_Acc1298_Mean_Mem40_Rolloff > 0.140755
|   Std_Acc1298_Std_Mem40_MFCC_0 <= 0.608306
|   |   relaxing-clam- = 0: 0 (214.0)
|   |   relaxing-clam- = 1
|   |   |   happy-pleased- = 0
|   |   |   |   Std_Acc1298_Mean_Mem40_MFCC_12 <= 0.21998
|   |   |   |   |   Mean_Acc1298_Std_Mem40_MFCC_9 <= 0.378197
|   |   |   |   |   |   Mean_Acc1298_Mean_Mem40_MFCC_5 <= 0.483131: 0 (5.0)
|   |   |   |   |   |   Mean_Acc1298_Mean_Mem40_MFCC_5 > 0.483131: 1 (2.0)
|   |   |   |   |   Mean_Acc1298_Std_Mem40_MFCC_9 > 0.378197: 0 (32.0)
|   |   |   |   Std_Acc1298_Mean_Mem40_MFCC_12 > 0.21998
|   |   |   |   |   Std_Acc1298_Std_Mem40_MFCC_2 <= 0.34292: 0 (2.0)
|   |   |   |   |   Std_Acc1298_Std_Mem40_MFCC_2 > 0.34292: 1 (4.0)
|   |   |   happy-pleased- = 1
|   |   |   |   Std_Acc1298_Mean_Mem40_Rolloff <= 0.548333: 0 (40.0)
|   |   |   |   Std_Acc1298_Mean_Mem40_Rolloff > 0.548333: 1 (3.0/1.0)
|   Std_Acc1298_Std_Mem40_MFCC_0 > 0.608306
|   |   happy-pleased- = 0
|   |   |   Mean_Acc1298_Mean_Mem40_Rolloff <= 0.185862: 1 (6.0)
|   |   |   Mean_Acc1298_Mean_Mem40_Rolloff > 0.185862
|   |   |   |   Mean_Acc1298_Mean_Mem40_MFCC_4 <= 0.564216: 0 (6.0)
|   |   |   |   Mean_Acc1298_Mean_Mem40_MFCC_4 > 0.564216: 1 (2.0)
|   |   happy-pleased- = 1: 0 (7.0)

Number of Leaves  : 	21

Size of the tree : 	41


meka.classifiers.multilabel.CC: Node #5

J48 pruned tree
------------------

quiet-still- = 0
|   happy-pleased- = 0
|   |   relaxing-clam- = 0
|   |   |   Mean_Acc1298_Std_Mem40_Rolloff <= 0.301923
|   |   |   |   amazed-suprised- = 0
|   |   |   |   |   Std_Acc1298_Mean_Mem40_MFCC_9 <= 0.174982
|   |   |   |   |   |   BHSUM1 <= 0.184166: 0 (8.0)
|   |   |   |   |   |   BHSUM1 > 0.184166: 1 (4.0/1.0)
|   |   |   |   |   Std_Acc1298_Mean_Mem40_MFCC_9 > 0.174982
|   |   |   |   |   |   Mean_Acc1298_Mean_Mem40_MFCC_4 <= 0.411047: 0 (2.0)
|   |   |   |   |   |   Mean_Acc1298_Mean_Mem40_MFCC_4 > 0.411047: 1 (12.0)
|   |   |   |   amazed-suprised- = 1
|   |   |   |   |   BH_HighPeakAmp <= 0.097743: 0 (21.0)
|   |   |   |   |   BH_HighPeakAmp > 0.097743
|   |   |   |   |   |   Mean_Acc1298_Mean_Mem40_MFCC_6 <= 0.502689
|   |   |   |   |   |   |   Mean_Acc1298_Mean_Mem40_MFCC_4 <= 0.426252: 1 (5.0)
|   |   |   |   |   |   |   Mean_Acc1298_Mean_Mem40_MFCC_4 > 0.426252
|   |   |   |   |   |   |   |   Mean_Acc1298_Mean_Mem40_MFCC_5 <= 0.25777: 1 (2.0)
|   |   |   |   |   |   |   |   Mean_Acc1298_Mean_Mem40_MFCC_5 > 0.25777: 0 (5.0)
|   |   |   |   |   |   Mean_Acc1298_Mean_Mem40_MFCC_6 > 0.502689: 0 (10.0)
|   |   |   Mean_Acc1298_Std_Mem40_Rolloff > 0.301923: 0 (112.0/3.0)
|   |   relaxing-clam- = 1
|   |   |   Mean_Acc1298_Mean_Mem40_MFCC_0 <= 0.489365: 0 (11.0)
|   |   |   Mean_Acc1298_Mean_Mem40_MFCC_0 > 0.489365
|   |   |   |   Mean_Acc1298_Mean_Mem40_Centroid <= 0.155423: 1 (6.0)
|   |   |   |   Mean_Acc1298_Mean_Mem40_Centroid > 0.155423
|   |   |   |   |   BH_HighPeakAmp <= 0.334574
|   |   |   |   |   |   Mean_Acc1298_Mean_Mem40_MFCC_3 <= 0.40569: 0 (9.0)
|   |   |   |   |   |   Mean_Acc1298_Mean_Mem40_MFCC_3 > 0.40569
|   |   |   |   |   |   |   Std_Acc1298_Mean_Mem40_MFCC_6 <= 0.31743
|   |   |   |   |   |   |   |   Mean_Acc1298_Mean_Mem40_MFCC_7 <= 0.478139: 0 (6.0)
|   |   |   |   |   |   |   |   Mean_Acc1298_Mean_Mem40_MFCC_7 > 0.478139
|   |   |   |   |   |   |   |   |   BHSUM1 <= 0.271004
|   |   |   |   |   |   |   |   |   |   Std_Acc1298_Std_Mem40_MFCC_7 <= 0.526906: 1 (9.0)
|   |   |   |   |   |   |   |   |   |   Std_Acc1298_Std_Mem40_MFCC_7 > 0.526906: 0 (2.0)
|   |   |   |   |   |   |   |   |   BHSUM1 > 0.271004: 0 (8.0/1.0)
|   |   |   |   |   |   |   Std_Acc1298_Mean_Mem40_MFCC_6 > 0.31743: 1 (5.0)
|   |   |   |   |   BH_HighPeakAmp > 0.334574: 1 (4.0)
|   happy-pleased- = 1: 0 (128.0/1.0)
quiet-still- = 1
|   happy-pleased- = 0
|   |   Mean_Acc1298_Mean_Mem40_Rolloff <= 0.101394
|   |   |   Std_Acc1298_Std_Mem40_Rolloff <= 0.227777: 0 (6.0/1.0)
|   |   |   Std_Acc1298_Std_Mem40_Rolloff > 0.227777: 1 (77.0/6.0)
|   |   Mean_Acc1298_Mean_Mem40_Rolloff > 0.101394
|   |   |   BH_LowPeakAmp <= 0.008701: 1 (5.0)
|   |   |   BH_LowPeakAmp > 0.008701
|   |   |   |   Mean_Acc1298_Mean_Mem40_MFCC_1 <= 0.427854: 1 (7.0/1.0)
|   |   |   |   Mean_Acc1298_Mean_Mem40_MFCC_1 > 0.427854
|   |   |   |   |   relaxing-clam- = 0
|   |   |   |   |   |   Mean_Acc1298_Mean_Mem40_MFCC_0 <= 0.369251: 0 (4.0)
|   |   |   |   |   |   Mean_Acc1298_Mean_Mem40_MFCC_0 > 0.369251: 1 (2.0)
|   |   |   |   |   relaxing-clam- = 1: 0 (14.0)
|   happy-pleased- = 1: 0 (7.0)

Number of Leaves  : 	28

Size of the tree : 	55


meka.classifiers.multilabel.CC: Node #6

J48 pruned tree
------------------

relaxing-clam- = 0
|   quiet-still- = 0
|   |   happy-pleased- = 0
|   |   |   sad-lonely- = 0
|   |   |   |   amazed-suprised- = 0: 1 (63.0)
|   |   |   |   amazed-suprised- = 1
|   |   |   |   |   Std_Acc1298_Mean_Mem40_MFCC_12 <= 0.171535
|   |   |   |   |   |   BHSUM3 <= 0.727501
|   |   |   |   |   |   |   Mean_Acc1298_Mean_Mem40_MFCC_4 <= 0.501619: 1 (31.0)
|   |   |   |   |   |   |   Mean_Acc1298_Mean_Mem40_MFCC_4 > 0.501619
|   |   |   |   |   |   |   |   Std_Acc1298_Mean_Mem40_Flux <= 0.079018
|   |   |   |   |   |   |   |   |   Mean_Acc1298_Mean_Mem40_MFCC_11 <= 0.356511: 0 (5.0)
|   |   |   |   |   |   |   |   |   Mean_Acc1298_Mean_Mem40_MFCC_11 > 0.356511
|   |   |   |   |   |   |   |   |   |   Mean_Acc1298_Mean_Mem40_MFCC_12 <= 0.30497: 0 (2.0)
|   |   |   |   |   |   |   |   |   |   Mean_Acc1298_Mean_Mem40_MFCC_12 > 0.30497: 1 (7.0)
|   |   |   |   |   |   |   |   Std_Acc1298_Mean_Mem40_Flux > 0.079018
|   |   |   |   |   |   |   |   |   Mean_Acc1298_Mean_Mem40_Centroid <= 0.468649: 1 (25.0)
|   |   |   |   |   |   |   |   |   Mean_Acc1298_Mean_Mem40_Centroid > 0.468649
|   |   |   |   |   |   |   |   |   |   Mean_Acc1298_Mean_Mem40_Centroid <= 0.561516: 0 (4.0/1.0)
|   |   |   |   |   |   |   |   |   |   Mean_Acc1298_Mean_Mem40_Centroid > 0.561516: 1 (4.0)
|   |   |   |   |   |   BHSUM3 > 0.727501
|   |   |   |   |   |   |   Mean_Acc1298_Mean_Mem40_MFCC_0 <= 0.592453: 1 (3.0)
|   |   |   |   |   |   |   Mean_Acc1298_Mean_Mem40_MFCC_0 > 0.592453: 0 (7.0)
|   |   |   |   |   Std_Acc1298_Mean_Mem40_MFCC_12 > 0.171535: 0 (5.0)
|   |   |   sad-lonely- = 1
|   |   |   |   Mean_Acc1298_Std_Mem40_MFCC_0 <= 0.246989
|   |   |   |   |   Mean_Acc1298_Mean_Mem40_MFCC_11 <= 0.330108
|   |   |   |   |   |   Mean_Acc1298_Mean_Mem40_MFCC_0 <= 0.835713: 0 (2.0)
|   |   |   |   |   |   Mean_Acc1298_Mean_Mem40_MFCC_0 > 0.835713: 1 (4.0)
|   |   |   |   |   Mean_Acc1298_Mean_Mem40_MFCC_11 > 0.330108: 0 (13.0)
|   |   |   |   Mean_Acc1298_Std_Mem40_MFCC_0 > 0.246989: 1 (6.0)
|   |   happy-pleased- = 1
|   |   |   Mean_Acc1298_Std_Mem40_MFCC_3 <= 0.366876
|   |   |   |   Mean_Acc1298_Std_Mem40_MFCC_1 <= 0.07883
|   |   |   |   |   Std_Acc1298_Mean_Mem40_MFCC_9 <= 0.133994: 1 (3.0)
|   |   |   |   |   Std_Acc1298_Mean_Mem40_MFCC_9 > 0.133994: 0 (6.0)
|   |   |   |   Mean_Acc1298_Std_Mem40_MFCC_1 > 0.07883: 0 (35.0)
|   |   |   Mean_Acc1298_Std_Mem40_MFCC_3 > 0.366876
|   |   |   |   Std_Acc1298_Mean_Mem40_MFCC_9 <= 0.196681
|   |   |   |   |   BH_HighPeakBPM <= 0.721805: 0 (12.0/1.0)
|   |   |   |   |   BH_HighPeakBPM > 0.721805: 1 (2.0)
|   |   |   |   Std_Acc1298_Mean_Mem40_MFCC_9 > 0.196681: 1 (4.0)
|   quiet-still- = 1: 0 (36.0/1.0)
relaxing-clam- = 1
|   Std_Acc1298_Mean_Mem40_MFCC_11 <= 0.164162
|   |   Mean_Acc1298_Std_Mem40_MFCC_9 <= 0.604904
|   |   |   Std_Acc1298_Std_Mem40_MFCC_12 <= 0.073632: 1 (2.0)
|   |   |   Std_Acc1298_Std_Mem40_MFCC_12 > 0.073632: 0 (36.0)
|   |   Mean_Acc1298_Std_Mem40_MFCC_9 > 0.604904: 1 (3.0)
|   Std_Acc1298_Mean_Mem40_MFCC_11 > 0.164162: 0 (171.0)

Number of Leaves  : 	26

Size of the tree : 	51


== Evaluation Info

Classifier                     meka.classifiers.multilabel.CC
Options                        [-S, 0, -W, weka.classifiers.trees.J48, --, -C, 0.25, -M, 2]
Additional Info                [0, 1, 2, 3, 4, 5]
Dataset                        Music
Number of labels (L)           6


== Predictive Performance



== Additional Measurements

Number of training instances   491
Number of test instances       101
Label cardinality (train set)  1.855
Label cardinality (test set)   1.941
